7.304436784072258142e-12 8.012863413723892677e-12 8.789997365299301169e-12 9.642502273235959250e-12 1.057768804987426413e-11 1.160357356523532961e-11 1.272895540584729016e-11 1.396348330220143182e-11 1.531774287160018283e-11 1.680334638588600040e-11 1.843303234235105321e-11 2.022077469161140668e-11 2.218190265903283424e-11 2.433323218713422638e-11 2.669321012603664914e-11 2.928207240833802785e-11 3.212201756470547262e-11 3.523739706801407523e-11 3.865492413816461358e-11 4.240390279800354899e-11 4.651647914441417497e-11 5.102791698913291795e-11 5.597690023281363858e-11 6.140586456507801949e-11 6.736136133476409529e-11 7.389445671041607180e-11 8.106116955367774897e-11 8.892295176018159922e-11 9.754721518668736500e-11 1.070079096826638768e-10 1.173861571827278092e-10 1.287709472970440951e-10 1.412599003641162000e-10 1.549601045088539662e-10 1.699890338833950089e-10 1.864755559642380406e-10 2.045610365428915020e-10 2.244005518849275743e-10 2.461642184512382410e-10 2.700386515833797338e-10 2.962285656606637654e-10 3.249585294497764132e-10 3.564748916983611105e-10 3.910478934838408443e-10 4.289739854300765710e-10 4.705783696611115682e-10 5.162177882883503970e-10 5.662835823413606316e-10 6.212050473715400725e-10 6.814531145016576775e-10 7.475443884849155161e-10 8.200455773983945855e-10 8.995783519538443450e-10 9.868246760925566466e-10 1.082532654572277439e-09 1.187522947686949641e-09 1.302695808123126578e-09 1.429038800291570091e-09 1.567635268324234027e-09 1.719673625346767384e-09 1.886457543678412544e-09 2.069417133336504459e-09 2.270121204697145506e-09 2.490290720459676252e-09 2.731813552260521446e-09 2.996760668469035703e-09 3.287403891969307969e-09 3.606235380194581670e-09 3.955988994448028866e-09 4.339663741744120245e-09 4.760549490175053822e-09 5.222255178302489054e-09 5.728739760459034756e-09 6.284346153303948512e-09 6.893838474712193030e-09 7.562442894305942493e-09 8.295892445906524619e-09 9.100476186157056368e-09 9.983093120831543523e-09 1.095131136122871617e-08 1.201343301789422166e-08 1.317856538810989463e-08 1.445669904755525037e-08 1.585879351574872009e-08 1.739687122981515493e-08 1.908412063237016422e-08 2.093500925745896452e-08 2.296540778421855375e-08 2.519272612197460855e-08 2.763606269365131790e-08 3.031636819753780082e-08 3.325662525160772984e-08 3.648204546076793692e-08 4.002028559681092963e-08 4.390168474472727242e-08 4.815952444881228832e-08 5.283031408921310800e-08 5.795410393590560326e-08 6.357482856440679557e-08 6.974068357787141049e-08 7.650453886580366137e-08 8.392439194290686602e-08 9.206386525524613556e-08 1.009927517179190466e-07 1.107876131619688311e-07 1.215324368219550803e-07 1.333193554932684406e-07 1.462494375341912794e-07 1.604335534866045585e-07 1.759933267461945461e-07 1.930621764336768076e-07 2.117864614091313059e-07 2.323267352387816894e-07 2.548591228748745349e-07 2.795768308529377278e-07 3.066918039554915235e-07 3.364365425471415310e-07 3.690660961635817374e-07 4.048602504482737054e-07 4.441259261883496199e-07 4.871998110198373241e-07 5.344512463671629397e-07 5.862853943703284808e-07 6.431467119536023634e-07 7.055227618230757227e-07 7.739483930690074689e-07 8.490103272178153946e-07 9.313521890546521388e-07 1.021680025350690022e-06 1.120768358812153318e-06 1.229466829156716231e-06 1.348707478256202183e-06 1.479512741806109962e-06 1.623004216039109002e-06 1.780412274643942382e-06 1.953086618338948640e-06 2.142507847544534623e-06 2.350300157368299040e-06 2.578245263736642231e-06 2.828297680058849880e-06 3.102601475384937623e-06 3.403508657715472280e-06 3.733599340049386113e-06 4.095703862032763500e-06 4.492927056829932728e-06 4.928674871218980816e-06 5.406683567076770454e-06 5.931051754533800121e-06 6.506275531337269183e-06 7.137287029567913255e-06 7.829496700040485267e-06 8.588839696726771039e-06 9.421826758649764924e-06 1.033560002520360911e-05 1.133799426308795480e-05 1.243760402936492831e-05 1.364385734594757882e-05 1.496709651654161138e-05 1.641866677816198870e-05 1.801101354635055880e-05 1.975778908670085154e-05 2.167396952587006273e-05 2.377598320361478841e-05 2.608185146426723319e-05 2.861134309229327840e-05 3.138614371304191515e-05 3.443004160747949996e-05 3.776913152968501515e-05 4.143203826932881280e-05 4.545016186955981623e-05 4.985794659508233469e-05 5.469317594725198656e-05 5.999729624443785015e-05 6.581577152851837925e-05 7.219847282419612593e-05 7.920010506902990671e-05 8.688067535104949284e-05 9.530600644016484692e-05 1.045482999821061205e-04 1.146867541424368455e-04 1.258082409466096819e-04 1.380080490637165878e-04 1.513906983304852340e-04 1.660708329124835727e-04 1.821742006560203445e-04 1.998387269019572801e-04 2.192156918169249624e-04 2.404710211541603957e-04 2.637867012916345305e-04 2.893623304160181531e-04 3.174168188346501479e-04 3.481902526116304104e-04 3.819459360467226798e-04 4.189726299555964623e-04 4.595870042761142013e-04 5.041363252276188965e-04 5.530013990982532652e-04 6.065997967397400307e-04 6.653893850200533373e-04 7.298721938327829483e-04
1.351231515542227987e-04 1.482260965777673493e-04 1.625994178476522099e-04 1.783662377306868677e-04 1.956616022094015363e-04 2.146336337441891423e-04 2.354447952231348911e-04 2.582732756263916634e-04 2.833145090327557304e-04 3.107828396878439489e-04 3.409133470436584391e-04 3.739638459763330912e-04 4.102170788011469155e-04 4.499831172404014602e-04 4.936019941700906313e-04 5.414465867851661444e-04 5.939257747910408171e-04 6.514878993609655479e-04 7.146245509059100500e-04 7.838747161958434587e-04 8.598293180591872744e-04 9.431361837803888199e-04 1.034505481422639617e-03 1.134715666631146234e-03 1.244619986027394693e-03 1.365153587089034748e-03 1.497341288422537496e-03 1.642306068570721211e-03 1.801278335942833788e-03 1.975606047091558060e-03 2.166765745359220275e-03 2.376374596833472942e-03 2.606203505532338725e-03 2.858191394704603580e-03 3.134460745983059984e-03 3.437334492736430873e-03 3.769354368166810340e-03 4.133300812284312203e-03 4.532214544600400921e-03 4.969419910890794309e-03 5.448550112287287028e-03 5.973574422772504229e-03 6.548827496264817555e-03 7.179040856157471555e-03 7.869376647514957426e-03 8.625463714045000091e-03 9.453436037144375206e-03 1.035997354117778289e-02 1.135234522580398468e-02 1.243845453034416425e-02 1.362688676420588559e-02 1.492695834803776239e-02 1.634876749881876423e-02 1.790324585405055069e-02 1.960221036041967860e-02 2.145841454467898105e-02 2.348559803205766197e-02 2.569853287218237109e-02 2.811306486508100000e-02 3.074614763994034522e-02 3.361586671526071296e-02 3.674145014806276532e-02 4.014326164792717672e-02 4.384277117413414027e-02 4.786249703584998655e-02 5.222591236128117098e-02 5.695730747837458169e-02 6.208159824613621730e-02 6.762406868596483600e-02 7.361003438828035705e-02 8.006441112448496600e-02 8.701117090808153931e-02 9.447266547531349423e-02 1.024687948811563720e-01 1.110159967606573067e-01 1.201260299759310951e-01 1.298045251179703596e-01 1.400492740179146434e-01 1.508482315228313331e-01 1.621772059324842752e-01 1.739972204800034061e-01 1.862515380830283285e-01 1.988623565403532245e-01 2.117272029032647995e-01 2.247150856649712258e-01 2.376625036619847697e-01 2.503694632843565526e-01 2.625957228451371028e-01 2.740575665728591792e-01 2.844255117599008842e-01 2.933234708716295214e-01 3.003300233922905904e-01 3.049825938675205239e-01 3.067854719285031395e-01 3.052227289101753227e-01 2.997771565102052005e-01 2.899563365383212576e-01 2.753267941401327246e-01 2.555568221481544500e-01 2.304679102081461928e-01 2.000936799113918196e-01 1.647437313436515838e-01 1.250677881802141345e-01 8.211298941617951874e-02 3.736422911815365233e-02 -7.245617395472733757e-03 -4.937137361822819398e-02 -8.635425897000803541e-02 -1.153994602305887102e-01 -1.338430088228395043e-01 -1.395070450756573932e-01 -1.311238077629034715e-01 -1.087821438510799543e-01 -7.431779598552891442e-02 -3.153565280607031895e-02 1.387099412580055507e-02 5.483639327050300605e-02 8.395726167977453358e-02 9.501829237774579717e-02 8.479819496039307791e-02 5.471768827914728905e-02 1.168301111578385482e-02 -3.258857975348289360e-02 -6.424792367786047453e-02 -7.184270718143062617e-02 -5.151641361796398255e-02 -1.061654697601279937e-02 3.300319480623534196e-02 5.766666320682818647e-02 4.922855266336838287e-02 1.162391879431831122e-02 -3.149989665144641016e-02 -4.952974341453707935e-02 -2.772613876692191920e-02 1.641312867554247518e-02 4.257770200973713670e-02 2.406931964676408547e-02 -1.964082628539937786e-02 -3.699713821445350936e-02 -5.375571672424746955e-03 3.145213631837837781e-02 1.798933186886212884e-02 -2.371290367114719730e-02 -2.033727563817108730e-02 2.109040360778392104e-02 1.603271088487170579e-02 -2.319643712801010282e-02 -4.798485964393389702e-03 2.328137830923033766e-02 -1.252774550333128623e-02 -9.249183875084292586e-03 2.013033259355708968e-02 -1.566439621028037701e-02 3.825952187058394467e-03 6.958778895173026516e-03 -1.320614530336278181e-02 1.541963590010221076e-02 -1.545365464454995230e-02 1.481903054451916626e-02 -1.412546443343193001e-02 1.304499924930002837e-02 -1.044385499118172071e-02 4.944151409648724592e-03 3.379174345029153231e-03 -1.037221905458439453e-02 8.292661347166843666e-03 3.920708789899206119e-03 -9.302827759595894488e-03 -4.025822738827039560e-03 6.124629491172270748e-03 8.404324338424922977e-03 5.273353332662036527e-03 1.986032654562930322e-03 6.481737431694333711e-04 1.444295631028177365e-03 3.959724457330646846e-03 6.306357532872592687e-03 3.975517002844531494e-03 -3.859558089362833452e-03 -3.341733043692239440e-03 5.346958065821708940e-03 -4.172627267866997613e-03 3.504546829644473224e-03 -4.122370747695175072e-03 4.296541470730031419e-03 -3.513606363081275504e-04 -4.041601471311281370e-03 -2.687057424026839756e-03 -1.572379549160378247e-03 -2.249856854081375666e-03 -3.368075908054656096e-03 -3.073427747598301294e-04 2.702467013694393339e-03 -2.866132246995880314e-03 2.210381719340432250e-03 7.987744378003239134e-04 -1.870752226741555918e-03 -2.181894489848830530e-03 -1.149706896162838070e-03 1.865009593106182594e-03
5.366591751629517289e-04 5.886746411856735341e-04 6.457281890572726937e-04 7.083070832535325739e-04 7.769455699992156017e-04 8.522293777601860085e-04 9.348006428347915365e-04 1.025363298963703675e-03 1.124688973184385281e-03 1.233623433689362298e-03 1.353093639209743820e-03 1.484115443436117296e-03 1.627802012202991897e-03 1.785373015589049404e-03 1.958164661704843781e-03 2.147640643723744153e-03 2.355404076620438471e-03 2.583210505058176117e-03 2.832982068837050157e-03 3.106822917183444180e-03 3.407035967798787823e-03 3.736141110834249879e-03 4.096894961612305638e-03 4.492312268723002225e-03 4.925689085763153979e-03 5.400627815069274085e-03 5.921064229834132817e-03 6.491296576400270961e-03 7.116016850565681437e-03 7.800344329536869001e-03 8.549861423653552089e-03 9.370651887899069180e-03 1.026934140094832443e-02 1.125314047722978175e-02 1.232988962296782155e-02 1.350810657777432033e-02 1.479703539593678167e-02 1.620669701238561244e-02 1.774794080304967561e-02 1.943249648280637176e-02 2.127302548053231282e-02 2.328317068295835193e-02 2.547760313916000788e-02 2.787206395649955912e-02 3.048339918637650581e-02 3.332958498273166231e-02 3.642973970515982207e-02 3.980411891788168677e-02 4.347408839103508726e-02 4.746206922659583494e-02 5.179144809278076605e-02 5.648644424423071575e-02 6.157192351940701108e-02 6.707314783491695465e-02 7.301544683970348504e-02 7.942379636223076411e-02 8.632228610921713341e-02 9.373345680623366982e-02 1.016774846912115310e-01 1.101711891066149140e-01 1.192268370659433918e-01 1.288507173496891145e-01 1.390414562627986517e-01 1.497880481256566587e-01 1.610675764842662561e-01 1.728426076982113035e-01 1.850582479881314746e-01 1.976388694217948439e-01 2.104845311656479701e-01 2.234671513577172752e-01 2.364265241253898364e-01 2.491663276862619569e-01 2.614503352411330916e-01 2.729991223482032825e-01 2.834876638445656960e-01 2.925443300664483659e-01 2.997519238732878621e-01 3.046515412142031809e-01 3.067501781855763721e-01 3.055331293501782342e-01 3.004822990289535700e-01 2.911015413240330973e-01 2.769500041402745971e-01 2.576841110516168154e-01 2.331081924322270238e-01 2.032327850647043521e-01 1.683381712945719033e-01 1.290387618936307268e-01 8.634143506151924219e-02 4.168802717903777322e-02 -3.030899991467495003e-03 -4.550659596180565980e-02 -8.310403506085375924e-02 -1.130313380823384506e-01 -1.325978840445788121e-01 -1.395615852956715586e-01 -1.325478080734298070e-01 -1.114965931190513293e-01 -7.806270134870064992e-02 -3.585962178766650965e-02 9.586024556993765627e-03 5.130381147492345945e-02 8.186353038791388537e-02 9.485935333266511116e-02 8.670421166180888872e-02 5.831832215629603744e-02 1.608154647465881090e-02 -2.866778653488091799e-02 -6.211275776407629984e-02 -7.234196359705183377e-02 -5.456714640596116439e-02 -1.500333187675968044e-02 2.931169685121753216e-02 5.662210222521568692e-02 5.153068405806908447e-02 1.596390820333546193e-02 -2.800637348904008728e-02 -4.951397590779320346e-02 -3.131847637849077132e-02 1.227882396266489345e-02 4.187360052739953070e-02 2.763147804113236586e-02 -1.576526898012237110e-02 -3.760066462527367898e-02 -9.741164353451736702e-03 2.960395301880751340e-02 2.159917028139612255e-02 -2.070931145940802312e-02 -2.343053756854715855e-02 1.796612883569460861e-02 1.945721692075563433e-02 -2.100753666665380881e-02 -9.083049389618447905e-03 2.364258513868506065e-02 -8.668946843279784834e-03 -1.308063807326515643e-02 2.057915727632716671e-02 -1.268821223689041607e-02 -5.802457705003200798e-04 1.083133173894641060e-02 -1.559670803525697522e-02 1.630959480866827141e-02 -1.530448088467900938e-02 1.423722208129366527e-02 -1.374742480747381812e-02 1.353927695907670981e-02 -1.243787553880146279e-02 8.637809650382808138e-03 -1.008112698722352790e-03 -7.958915123862450244e-03 1.036751763882818797e-02 -4.107100411815301400e-04 -9.711082091730041319e-03 2.712498841639233277e-04 8.505589982704037100e-03 6.677265969722165351e-03 1.307141715560846632e-03 -2.395749298817827222e-03 -3.637297309821883699e-03 -2.903861536917209246e-03 -2.019355119182426970e-04 4.058777007246600413e-03 6.109811812778579397e-03 2.223863708042199655e-04 -5.574132981803066669e-03 3.465559447241071001e-03 -4.507147954062483072e-04 -5.245958261309194119e-04 -6.288600459405052721e-04 3.310998902903510531e-03 -3.851624334785280768e-03 -2.146447671769632654e-03 1.434909844088781347e-03 2.557597074538226715e-03 1.897593316629970226e-03 -7.867966247182864130e-04 -3.215600448936472081e-03 1.797424851377772909e-03 -7.888784015806242413e-04 1.696791406281941477e-03 -2.622524565424966606e-03 -1.407959117255136883e-03 -5.160883248405557632e-04 -1.538830212570327155e-03 -1.876443235512365026e-03 2.093176903680464204e-03 -2.029843202575098548e-03 4.001344914912945637e-04 1.501695438109174963e-03 8.873474076257648752e-04 -1.509491742805310057e-03 1.222906963527255544e-03 -1.434766280845318652e-03 -1.407553705542539078e-03 -1.236010423288963185e-03 1.267624050273834322e-03 -1.158759944470869226e-03 -1.181928572834380466e-03 -8.145851767904801989e-04 9.508251471230125349e-04
1.197479808768643194e-03 1.313454635540343366e-03 1.440644098873785067e-03 1.580129098343956671e-03 1.733093992465690146e-03 1.900836354165744623e-03 2.084777615950663635e-03 2.286474679645204844e-03 2.507632570538343222e-03 2.750118220756229883e-03 3.015975471594614220e-03 3.307441389271197681e-03 3.626963992951883885e-03 3.977221497775581573e-03 4.361143178713013623e-03 4.781931963149557187e-03 5.243088860713948814e-03 5.748439337630199125e-03 6.302161739193491707e-03 6.908817857182211752e-03 7.573385728289308387e-03 8.301294733983489299e-03 9.098463050378504530e-03 9.971337467235883920e-03 1.092693555639695155e-02 1.197289011963086937e-02 1.311749578159637254e-02 1.436975751236508995e-02 1.573944076222820801e-02 1.723712276515383668e-02 1.887424441141130615e-02 2.066316189885334526e-02 2.261719713954272667e-02 2.475068561622607161e-02 2.707902004287045944e-02 2.961868777519881604e-02 3.238729942976380227e-02 3.540360559124264977e-02 3.868749780382781112e-02 4.225998923938480839e-02 4.614316949738148099e-02 5.036012690436173639e-02 5.493483042962390289e-02 5.989196190657508634e-02 6.525668763762312863e-02 7.105435666252987725e-02 7.731011099382632812e-02 8.404839099054094154e-02 9.129231679609461914e-02 9.906292447913390975e-02 1.073782332973596126e-01 1.162521185155172276e-01 1.256929626783802045e-01 1.357020574831984960e-01 1.462717288385379233e-01 1.573831598985455937e-01 1.690038915494001814e-01 1.810849879196816947e-01 1.935578671350386137e-01 2.063308161336436242e-01 2.192852345526529745e-01 2.322716883773202068e-01 2.451059012855391628e-01 2.575648725524845584e-01 2.693833869743447740e-01 2.802512759845290913e-01 2.898119003737095745e-01 2.976624523525058796e-01 3.033568137536517551e-01 3.064118492312962738e-01 3.063181434551022764e-01 3.025562862200477654e-01 2.946198350476632588e-01 2.820459941690629524e-01 2.644547801247090213e-01 2.415969216038039435e-01 2.134098777255258039e-01 1.800800659966749762e-01 1.421075953654551416e-01 1.003674722502638783e-01 5.615844749284136517e-02 1.122760771599998209e-02 -3.224408337494114735e-02 -7.171208572215634347e-02 -1.044112154296390205e-01 -1.275845267912308345e-01 -1.388027940623260958e-01 -1.363637205631702265e-01 -1.197366554619690715e-01 -8.998814502321696163e-02 -5.008983660900580281e-02 -4.981332378717819032e-03 3.874973504096069360e-02 7.368126678594097423e-02 9.289092183361494226e-02 9.168467013967884771e-02 6.937910452408171946e-02 3.056881692352217406e-02 -1.483337248226699982e-02 -5.341012035715898831e-02 -7.207375920522894608e-02 -6.320325380883158595e-02 -2.924538892578247562e-02 1.587755120176337353e-02 5.089587712357145771e-02 5.701813460869386424e-02 2.972982668783006113e-02 -1.487198688143424874e-02 -4.663340733134593852e-02 -4.133276641153152409e-02 -2.330194359356134969e-03 3.637363888740583612e-02 3.716501815200055209e-02 -1.498840444281091498e-03 -3.585409113742459714e-02 -2.307391524480772310e-02 1.998666726721612732e-02 3.061066240373660347e-02 -7.916813215350017308e-03 -2.983054460335882521e-02 4.731275322282572221e-03 2.686865933168746529e-02 -9.632688075859844809e-03 -2.076329591557234816e-02 1.896802999501125825e-02 5.889865439569685543e-03 -2.128973275162950735e-02 1.536746942043146213e-02 9.901120886234115841e-04 -1.389984313229499294e-02 1.809843160576254245e-02 -1.570286138311011159e-02 1.088044028421841433e-02 -6.616911899923203291e-03 4.207879495652269534e-03 -3.917633020297680430e-03 5.571842183323047308e-03 -8.607569959534214915e-03 1.157809868098127158e-02 -1.165860805396401467e-02 5.752607676778660750e-03 4.953160057067675093e-03 -1.038611551800557378e-02 7.829249664763593929e-04 9.502910626568640551e-03 2.100080204396735910e-03 -6.411034159395482407e-03 -8.249102688327857730e-03 -6.337147494687838008e-03 -4.518453722766527583e-03 -4.288537743944602354e-03 -5.516291192051605945e-03 -6.561813235991082252e-03 -3.916914595360273740e-03 3.369809461440950206e-03 4.520864756508394429e-03 -4.845819470645535039e-03 1.788013873735343163e-03 -9.327135573625720561e-05 5.588934583216306241e-04 -2.809822701607150863e-03 4.297389487813442835e-03 2.802073950701367976e-04 -3.397760424801284096e-03 -3.766077795185194220e-03 -3.596333786547152231e-03 -2.872882185859227094e-03 7.641352949512860392e-04 2.679229353365170010e-03 -2.987518064236124003e-03 2.838360607053496288e-03 -1.484792398791475506e-03 -2.318283395941879085e-03 -1.097302420572520256e-03 -1.487489349888997808e-03 -2.204308557517959625e-03 1.441940465629140775e-03 -1.248397400491170440e-03 1.969574527095591544e-03 9.180903438049902148e-04 9.408313082745504638e-04 1.676081642154806815e-03 -1.478859485308492514e-03 1.530783281049263042e-03 9.089495555413492928e-04 1.174143233169235544e-03 4.759638230124022982e-04 -1.403260428260722219e-04 -1.211037115833641167e-03 -9.043217755496285636e-04 1.118692558192009015e-03 -6.733865544055675631e-04 -7.293981350877307406e-04 9.099943069781612224e-04 -7.706166178622004311e-04 -6.576722386623016061e-04 8.491624555865613004e-04 3.542047582346082371e-04 7.585301059823065795e-04 -2.663980917227318332e-04
2.111626763136409228e-03 2.315914917819565655e-03 2.539912580327023921e-03 2.785510270076500382e-03 3.054777595678282148e-03 3.349979760369073585e-03 3.673595493736083687e-03 4.028336512938389229e-03 4.417168619616143078e-03 4.843334540559598306e-03 5.310378620610393952e-03 5.822173474722532049e-03 6.382948702045889572e-03 6.997321757613611526e-03 7.670331065865700765e-03 8.407471443791763449e-03 9.214731878681835936e-03 1.009863567483429252e-02 1.106628294328262409e-02 1.212539535651801191e-02 1.328436302373227004e-02 1.455229325824492284e-02 1.593906090390045938e-02 1.745535975708955787e-02 1.911275446068268907e-02 2.092373204976398851e-02 2.290175208988878483e-02 2.506129405889682624e-02 2.741790027422584541e-02 2.998821224911974240e-02 3.278999786181927695e-02 3.584216612925746753e-02 3.916476567730893532e-02 4.277896217871712120e-02 4.670698907232863351e-02 5.097206476814448300e-02 5.559826826785834591e-02 6.061036367818551512e-02 6.603356245679765923e-02 7.189321040727857104e-02 7.821438443983670663e-02 8.502138196340079668e-02 9.233708351851117879e-02 1.001821669752462340e-01 1.085741494225662129e-01 1.175262309346990497e-01 1.270459129560710387e-01 1.371333634278578129e-01 1.477795014286237552e-01 1.589637766005699560e-01 1.706516237329162855e-01 1.827915815260391930e-01 1.953120779436674503e-01 2.081179041050174594e-01 2.210864260592509400e-01 2.340636209410616453e-01 2.468600730178429070e-01 2.592471281303734831e-01 2.709534839255487992e-01 2.816625894300742172e-01 2.910113411201066258e-01 2.985906919367566914e-01 3.039489298116331839e-01 3.065985237316853351e-01 3.060275622415690733e-01 3.017168969124489619e-01 2.931641159695428378e-01 2.799153619431663520e-01 2.616057082030984193e-01 2.380082447553022451e-01 2.090911059181284060e-01 1.750803135907951780e-01 1.365244405998400634e-01 9.435469942278774946e-02 4.993120838555584196e-02 5.063114274237251466e-03 -3.801257444748765146e-02 -7.671038439742072779e-02 -1.082505570783802440e-01 -1.299004789597641429e-01 -1.393063033433147302e-01 -1.349011306608325911e-01 -1.163516859106875356e-01 -8.497420284703258164e-02 -4.401648355903990673e-02 1.324187878355809200e-03 4.428396450693065922e-02 7.741924532675445447e-02 9.400739712281630522e-02 8.980842713801781563e-02 6.481460216696516285e-02 2.439150346677666781e-02 -2.090712782375870812e-02 -5.743885205658576243e-02 -7.255456509010885235e-02 -5.979598622407967384e-02 -2.322190777719889548e-02 2.183896146921958034e-02 5.377004111493534355e-02 5.508733894321957147e-02 2.398224957419449466e-02 -2.076198595382999779e-02 -4.839931467476053101e-02 -3.743573270743254938e-02 4.050441823471412697e-03 3.931407407242715202e-02 3.355663633046840344e-02 -7.815198566640018524e-03 -3.731123616656326775e-02 -1.765716154110159170e-02 2.471568168309022304e-02 2.738093131390651261e-02 -1.384369892108255375e-02 -2.788539736856208984e-02 1.083166528453215899e-02 2.453116027757438339e-02 -1.517233740118378860e-02 -1.639502478181887810e-02 2.204539236852572429e-02 -4.685649306258191180e-04 -1.878649011042254555e-02 1.881261950456190185e-02 -5.337465002499097722e-03 -8.746084985271691814e-03 1.626347330715516293e-02 -1.720731791986506581e-02 1.470746883679326100e-02 -1.168504003633982422e-02 9.761364737749741310e-03 -9.460291882743960407e-03 1.057728928926604875e-02 -1.219016338748180224e-02 1.239042043892460594e-02 -8.542995312863640653e-03 -4.018919230152279208e-04 9.466083569600535277e-03 -7.861551826526522180e-03 -5.316389794695054911e-03 7.571840093501727882e-03 7.295105590853464758e-03 -7.775466880131326301e-04 -6.305766459998105554e-03 -7.732413446880231217e-03 -7.474207217708893521e-03 -7.151018482328055405e-03 -6.536836063256563044e-03 -3.823750318092614207e-03 2.143246074051809950e-03 5.916134825580289872e-03 -1.200795558243980933e-03 -4.140966132375661912e-03 5.175464858453498670e-03 -4.777531854726964344e-03 4.695656983676461775e-03 -3.917320475441759924e-03 -1.545470219110316060e-04 4.100744409828225093e-03 2.190979439920426926e-03 4.034709097285255953e-04 6.939603591739337352e-04 2.635136498656075795e-03 2.639958223758598430e-03 -2.663346206218259078e-03 1.545552639736581151e-03 -2.010746041232683821e-03 2.645897886245311432e-03 1.079452310031722576e-03 -2.322326320740444123e-04 5.803931261966719388e-04 2.244487289473789862e-03 -1.148545137654424916e-03 1.199133561851218341e-03 -1.933669583942304723e-03 -1.324069064324416220e-03 -1.492741843378617064e-03 -1.158782678129068001e-03 1.532876569058556427e-03 -5.946054709687955417e-04 -1.436856529302451722e-03 -1.018086839959134876e-03 1.273637594071741009e-03 -1.280166535627035897e-03 -7.865109144596262166e-04 -1.163752869616010380e-03 8.281204174736939670e-04 -9.020932826201508853e-04 -7.552976844913228231e-04 9.686532412118684966e-04 -3.630492450142889138e-04 5.673317736043711481e-05 1.790066768694316792e-04 7.287391456583920896e-04 -4.532667356284649559e-04 6.799941601540334356e-04 4.030341435509185384e-05 5.436921685714123879e-04 5.968548834287603364e-04 1.337113349960630729e-05 5.878207404517967393e-04 2.534366978247508417e-04
3.270443206626802088e-03 3.586405429243162257e-03 3.932762910234938007e-03 4.312413131394789330e-03 4.728524375347262394e-03 5.184559925518440575e-03 5.684304197687726698e-03 6.231890907322518679e-03 6.831833370528556451e-03 7.489057026250933204e-03 8.208934252350292768e-03 8.997321527171812244e-03 9.860598959788226259e-03 1.080571217451697583e-02 1.184021648652893929e-02 1.297232324292973971e-02 1.421094812469183080e-02 1.556576110579473843e-02 1.704723764282472728e-02 1.866671051632057959e-02 2.043642155874733635e-02 2.236957227666110104e-02 2.448037209890652210e-02 2.678408264999550953e-02 2.929705604839909563e-02 3.203676475237186849e-02 3.502181990892951763e-02 3.827197449134636664e-02 4.180810672269673345e-02 4.565217836251317385e-02 4.982716136543072216e-02 5.435692519027821024e-02 5.926607563290089281e-02 6.457973446714138088e-02 7.032324740300834043e-02 7.652180591562501855e-02 8.319996638342266881e-02 9.038104773925345614e-02 9.808638655109765125e-02 1.063344262145093921e-01 1.151396149112817180e-01 1.245110853876197493e-01 1.344510887340134297e-01 1.449531546182251940e-01 1.559999523750314754e-01 1.675608316957769572e-01 1.795890292836278546e-01 1.920185398641422181e-01 2.047606677283130283e-01 2.177003001556163664e-01 2.306919784807693330e-01 2.435558882847020379e-01 2.560739493409392997e-01 2.679862605401717168e-01 2.789882465932366773e-01 2.887289624446176539e-01 2.968111368565228836e-01 3.027936746151486669e-01 3.061974791610897473e-01 3.065155900973960956e-01 3.032287308322368924e-01 2.958273979566501399e-01 2.838415504620880325e-01 2.668787137493255912e-01 2.446708262309927884e-01 2.171293393111841108e-01 1.844068453985557021e-01 1.469617769046746292e-01 1.056204555775896170e-01 6.162802170328172957e-02 1.667672264886549405e-02 -2.710291054511945047e-02 -6.720462831021491168e-02 -1.008797126267226285e-01 -1.253548956711574847e-01 -1.381409914801463024e-01 -1.374236720294071401e-01 -1.225054329837770295e-01 -9.423808139336188605e-02 -5.535133961328078667e-02 -1.055302115170645566e-02 3.373727529524007257e-02 7.013777042751204172e-02 9.157825706005853772e-02 9.299409640166626800e-02 7.312815287728492708e-02 3.589774673699157315e-02 -9.377164737487864513e-03 -4.953933841900504814e-02 -7.119916600297308829e-02 -6.578870898570185477e-02 -3.436115232933942970e-02 1.046479197783358080e-02 4.788612408099714862e-02 5.815817477448234629e-02 3.449535755410558513e-02 -9.473360507059259278e-03 -4.444962344308382718e-02 -4.418360394779884820e-02 -7.947609786974257906e-03 3.312799095697335772e-02 3.964589134748067872e-02 4.132069658890990746e-03 -3.372803933343484356e-02 -2.728728326796173512e-02 1.523298318085073225e-02 3.253320926016147613e-02 -2.392473994178426645e-03 -3.045092895611046027e-02 -8.737889596633998703e-04 2.774460988430385924e-02 -4.244158111753076022e-03 -2.352689696184520271e-02 1.511810989756567219e-02 1.115755725007486036e-02 -2.200553428495896982e-02 1.111097236659383362e-02 6.532101295778619705e-03 -1.718519078014666204e-02 1.787656477378212969e-02 -1.259876773885598364e-02 6.130685073381403685e-03 -1.205702540098174420e-03 -1.368410711240304091e-03 1.665245101362546921e-03 1.097387532358754859e-04 -3.726963077904898482e-03 8.378357997077647348e-03 -1.172134851255835115e-02 9.797204481383924371e-03 -4.895874382121088390e-04 -9.462693160953189464e-03 6.011705541992684240e-03 7.742640591689560481e-03 -3.441462287391287584e-03 -8.682549187663302775e-03 -6.029851734203134188e-03 -1.721453633463089017e-03 7.866606864418198425e-04 1.036934058589345604e-03 -7.759478879588932931e-04 -4.143616396638599708e-03 -6.304358574638119564e-03 -2.020664698247842499e-03 5.442851140669339310e-03 -3.383183709419215974e-04 -3.494057428199272113e-03 4.486601544045470784e-03 -4.182988995949968661e-03 2.472147527739704427e-03 1.659836913052419516e-03 -3.998246146415015967e-03 -2.488871489430692294e-03 -1.823774252947905471e-04 5.825543906463504927e-05 -1.691937964818629198e-03 -3.284539014338921491e-03 9.808259512548290864e-04 1.020125796738113400e-03 -8.385775728361947838e-04 -1.313161568188093119e-03 2.287293119442653389e-03 2.427907127234338065e-03 2.366632610196115448e-03 1.438986629080251821e-03 -2.075465396033352675e-03 1.815239787548174203e-03 -1.880373215040836987e-03 -1.160232861986549169e-03 -9.593715477537212736e-04 -1.720263810468529182e-03 1.216942110906791500e-03 -1.522661767459296224e-03 -3.901803903845261053e-05 -2.294199129674080197e-04 -1.335901843311290390e-03 1.258577439839816134e-03 4.793585985110493017e-04 7.328910461235173864e-04 4.554504750373330763e-04 4.199526562401919823e-04 3.894190073478319983e-05 9.750108323582629393e-04 -5.849561023855515086e-04 -6.550516087937114339e-04 8.513978197714573617e-04 -1.231447598767059361e-04 6.088728075106723640e-04 -7.485310557888209164e-04 -6.882469770166799042e-04 6.096877587080821786e-04 5.187816713984008026e-04 -3.492428622700593783e-04 1.519701257354220709e-05 -5.076659986670777709e-04 -1.737181513315856152e-04 -4.208680425185594431e-04 2.692082920463572597e-04 -3.944211481097546551e-04 -3.263169043437092907e-04
4.667935766037294154e-03 5.118160566307075089e-03 5.611543799129600253e-03 6.152168493558014296e-03 6.744492904425110694e-03 7.393382718732496688e-03 8.104145546859214261e-03 8.882567753560451085e-03 9.734953656427670216e-03 1.066816708329590933e-02 1.168967523300820828e-02 1.280759472358639420e-02 1.403073963536943802e-02 1.536867126069190077e-02 1.683174915221312407e-02 1.843118291439894280e-02 2.017908400144606887e-02 2.208851656377394668e-02 2.417354611675684786e-02 2.644928448121326020e-02 2.893192905572618615e-02 3.163879401534591684e-02 3.458833047758860801e-02 3.780013202169630465e-02 4.129492117663963180e-02 4.509451159237497925e-02 4.922173956225704694e-02 5.370035735762165863e-02 5.855487945549516654e-02 6.381037117759297272e-02 6.949216750935084674e-02 7.562550793666231175e-02 8.223507104333424578e-02 8.934439039090236179e-02 9.697513091742962499e-02 1.051462028420186295e-01 1.138726879936013403e-01 1.231645518055121957e-01 1.330251132220305610e-01 1.434492448432724832e-01 1.544212773129789718e-01 1.659125859096733657e-01 1.778788444027532833e-01 1.902569425663510061e-01 2.029615806325927863e-01 2.158815779955465808e-01 2.288759664784636993e-01 2.417699824829391830e-01 2.543511294816183099e-01 2.663655546373308036e-01 2.775150724671319180e-01 2.874552751640900849e-01 2.957952925817983747e-01 3.020999015082473926e-01 3.058948262846252764e-01 3.066762079581105693e-01 3.039253261192615962e-01 2.971297053621919648e-01 2.858116834510959769e-01 2.695653030379339121e-01 2.481019407575523472e-01 2.213043221233984004e-01 1.892873983359605050e-01 1.524629022848011106e-01 1.116022115733629611e-01 6.788945739550163172e-02 2.295379175587283771e-02 -2.113327332451023222e-02 -6.191186506587423310e-02 -9.665614761653013032e-02 -1.225797752732891155e-01 -1.371319233931518888e-01 -1.383778287641382054e-01 -1.254364944944421911e-01 -9.891940966046185169e-02 -6.128061436975536236e-02 -1.695714329097994244e-02 2.783794903727618980e-02 6.579262562239428236e-02 8.969840640318429981e-02 9.409902937652969701e-02 7.710488775574851628e-02 4.186110095906281359e-02 -3.021093010281538510e-03 -4.474980874073083287e-02 -6.968396123785969287e-02 -6.826072249845552276e-02 -3.997344888278352160e-02 4.115948390408206981e-03 4.391395469279681801e-02 5.881107004933959492e-02 3.956497873746210592e-02 -3.110281160481262290e-03 -4.125619726526461722e-02 -4.674032675076827265e-02 -1.428660095340016263e-02 2.871816232475783021e-02 4.163691913853708598e-02 1.053028804610617319e-02 -3.038077778674246401e-02 -3.135456141740413510e-02 9.262663428808669969e-03 3.361087895534557723e-02 4.070759257061625641e-03 -2.988179392292608302e-02 -7.295598274149002471e-03 2.734581904457818874e-02 2.202346538768472969e-03 -2.527421005665518930e-02 9.670579228184837672e-03 1.640434885048159749e-02 -2.105715311338733631e-02 5.230925231747935930e-03 1.227566881075948906e-02 -1.913956288935225042e-02 1.554197298897474003e-02 -7.425988125615675534e-03 -1.803589398766428055e-04 5.189448477146330410e-03 -7.534967115245762639e-03 7.758517104496908887e-03 -6.168257810945250094e-03 2.679112859354134714e-03 2.699952033122345833e-03 -8.699872664195466843e-03 1.158262748686296299e-02 -6.536806990423692752e-03 -5.143042266904042717e-03 9.682378007080737203e-03 2.550058689981154255e-03 -8.164328255697917910e-03 -6.973944001633062759e-03 -2.865296778293966091e-04 4.479681519574105208e-03 6.234690969635338365e-03 6.270451627478785747e-03 5.096884241982441340e-03 1.963331915717521359e-03 -3.285399088257891925e-03 -5.985455974153022773e-03 6.925608423499384414e-04 4.960263372211694104e-03 -4.872145494514751665e-03 3.384208204871223813e-03 -3.175265150803850342e-03 4.192278432515344523e-03 -3.890334290013609548e-03 -1.209975363552997672e-03 3.248730926974727901e-03 3.799511295659842303e-03 3.544395922421695547e-03 3.398264487223399445e-03 9.764225546182527015e-04 -3.126478748531036876e-03 1.822669513293665236e-03 -1.617854225154807075e-03 2.645563141199798029e-03 -1.004048490416707467e-03 -2.388248877686993763e-03 -2.287222628534199293e-03 -8.483611320831249865e-04 2.169306417199775780e-03 -1.856355740482608244e-03 1.953557017342556941e-03 7.204282858620918726e-04 2.284438134091119519e-04 1.499287026688651044e-03 -8.419313073736698922e-05 5.455135874334353027e-04 -1.369930477887953708e-03 -1.346891491590840968e-03 2.895953399694331607e-04 -5.439390975652341688e-05 1.252626218640995890e-03 1.197612560733509347e-03 -2.177590745455200254e-04 7.300238545159759909e-04 9.389335158652354339e-05 9.939840230547465367e-04 -8.930608598157340101e-04 -9.020399925346149223e-04 1.742035986352539426e-04 -8.187475618219113536e-04 -6.875717312256832961e-04 5.522068409237325219e-04 5.597884037145046173e-04 -6.213508929638575937e-04 -6.464183028229288997e-04 6.268378750950829746e-04 5.908608512555197593e-04 -4.264459706571957476e-04 1.766329482041278443e-04 -3.941489292787301191e-04 4.378096066906586982e-04 6.133475525600623295e-05 3.708906770411892471e-04 -8.756697243992508787e-05 2.926819299602281127e-04 -2.453042893441235387e-04 -3.600951888128482237e-04
6.294192289614156111e-03 6.900087066696571937e-03 7.563822102013210806e-03 8.290820316243514843e-03 9.086992893199094881e-03 9.958779066251735937e-03 1.091318825477432912e-02 1.195784448136271230e-02 1.310103293652826149e-02 1.435174847655797288e-02 1.571974573882065074e-02 1.721559043281334356e-02 1.885071120983511025e-02 2.063745132367399496e-02 2.258911906251617058e-02 2.472003565083501914e-02 2.704557898059800278e-02 2.958222112385638231e-02 3.234755709255641987e-02 3.536032173390220995e-02 3.864039096733206530e-02 4.220876276771345914e-02 4.608751236364652670e-02 5.029971503469347904e-02 5.486932864258656228e-02 5.982102660676442279e-02 6.517997042555095932e-02 7.097150904889072687e-02 7.722079043456803182e-02 8.395226848940970377e-02 9.118908635270947527e-02 9.895231469196635876e-02 1.072600214604126634e-01 1.161261475723659869e-01 1.255591614138935053e-01 1.355604643366397077e-01 1.461225197051793101e-01 1.572266802416234233e-01 1.688406930589484156e-01 1.809158698153704448e-01 1.933839219991702885e-01 2.061534798570328619e-01 2.191063395557775184e-01 2.320935187044781411e-01 2.449312474314605526e-01 2.573970829400458737e-01 2.692264118340919055e-01 2.801096979771940387e-01 2.896909446506609753e-01 2.975679669027663787e-01 3.032952089256786832e-01 3.063899834006922340e-01 3.063431401926948183e-01 3.026352673864646792e-01 2.947595545529225203e-01 2.822523594333614660e-01 2.647322535085602779e-01 2.419478033746088330e-01 2.138334867304046705e-01 1.805718552859268966e-01 1.426582683467974011e-01 1.009622004688020269e-01 5.677633215783961518e-02 1.184156944081005136e-02 -3.166676630038279400e-02 -7.120835332534423967e-02 -1.040196989420192619e-01 -1.273417800118595011e-01 -1.387383072158206720e-01 -1.364940065709766837e-01 -1.200590725358216537e-01 -9.047557448362991694e-02 -5.068779188838720001e-02 -5.609384821065356574e-03 3.819039164766287187e-02 7.329300521569848126e-02 9.275812974196240290e-02 9.184854281085963468e-02 6.981507296769307036e-02 3.117575522971912164e-02 -1.422223057733233015e-02 -5.298806285536915989e-02 -7.199608290698511492e-02 -6.351473915910220425e-02 -2.983218172625949974e-02 1.527358501224897191e-02 5.057816349230916109e-02 5.717322299346386250e-02 3.028240362457762860e-02 -1.427150716102037684e-02 -4.641590408723799549e-02 -4.168246813568004389e-02 -2.965834225567513978e-03 3.603709461228597061e-02 3.747855814766547222e-02 -8.643922847900485998e-04 -3.565281581968477581e-02 -2.357756516298495364e-02 1.947539400036158927e-02 3.087207736303772959e-02 -7.304201136069068956e-03 -2.995243135906247925e-02 4.105364744199591943e-03 2.702401635330658330e-02 -9.043602306193011461e-03 -2.112919465896417187e-02 1.858308875930626478e-02 6.506618811460838231e-03 -2.144205562698793185e-02 1.493871378599725269e-02 1.626183461310280786e-03 -1.433627461087589802e-02 1.816061180238820114e-02 -1.543074005997417154e-02 1.039896318634885540e-02 -6.037311013768113452e-03 3.595212068595080544e-03 -3.303438772651905685e-03 4.987075180060685647e-03 -8.121572791484831313e-03 1.132444924714275623e-02 -1.179734372613177457e-02 6.297824367551469772e-03 4.380355293983156234e-03 -1.043261823793015415e-02 1.416541080095717062e-03 9.465166815383407178e-03 1.476903435680310735e-03 -6.826244911268778727e-03 -8.178816817836317976e-03 -5.940448551994863963e-03 -3.995609478532674216e-03 -3.763261030435583257e-03 -5.116227926633045570e-03 -6.512752652258408867e-03 -4.395843264138525261e-03 2.827286356489012824e-03 4.884633286422848317e-03 -4.523759686275393745e-03 1.178810887646880448e-03 5.427748920652723363e-04 -7.664285569916215143e-05 -2.285489757708962771e-03 4.330091714151428420e-03 -3.561573385890511229e-04 -3.678388872031321602e-03 -3.696583704216604548e-03 -3.528330384681590930e-03 -3.172637297639903462e-03 1.344730637952667562e-04 2.953089295609205404e-03 -2.900323607655359848e-03 2.835929156341306275e-03 -1.974809644073313459e-03 -1.964278977284544814e-03 -4.966909571915010179e-04 -9.447427668914183587e-04 -2.262996003027580114e-03 9.127672273550299685e-04 -6.907594634996456649e-04 1.891398416070469175e-03 3.209026216396918961e-04 3.513496602407512178e-04 1.695366939661622835e-03 -1.102380671248235191e-03 1.532958308802554554e-03 3.377201154614776308e-04 7.101717103291568236e-04 1.000505359129402706e-03 -7.323218510517040146e-04 -1.188033440477208541e-03 -1.169273830440561339e-03 8.578659133233886794e-04 -1.029750087425211451e-03 -1.017243061531938756e-03 5.002322550814092056e-04 -9.382360018041164878e-04 -8.972196631335736501e-04 7.025136438088906265e-04 -2.657490608163971314e-04 6.558044174034624455e-04 -7.005315070840803515e-04 -3.802282335132552062e-04 2.771431835570165638e-05 -3.055558749739488694e-04 5.728385155396425446e-04 4.854248617274709889e-04 2.800039396083292618e-04 2.561738191691636016e-04 3.235662104942078508e-04 7.514205715575001526e-05 3.799441766268046058e-04 2.598507244137727296e-04 4.170312089551480510e-04 -3.676623097049905938e-04 3.886860229333865386e-04 -1.809298390593014512e-04 -3.292622693746466997e-04 3.012113701537017164e-06 3.049834805237862790e-04
8.143232103347870440e-03 8.925371617687959461e-03 9.781820491628557407e-03 1.071947308420692462e-02 1.174582948719648731e-02 1.286904168342170932e-02 1.409796168748690508e-02 1.544219137484792621e-02 1.691213358433965239e-02 1.851904393004554991e-02 2.027508257525283478e-02 2.219336499778432753e-02 2.428801050484404381e-02 2.657418692818103861e-02 2.906814953722480430e-02 3.178727173800851430e-02 3.475006456708723546e-02 3.797618132901024735e-02 4.148640294895528102e-02 4.530259870390554444e-02 4.944765594108157386e-02 5.394537117668000287e-02 5.882029357852390505e-02 6.409751026368552818e-02 6.980236108298261410e-02 7.596006862400749016e-02 8.259526706194247891e-02 8.973141126086520147e-02 9.739004524225845782e-02 1.055899068929618961e-01 1.143458437313072118e-01 1.236675129008636964e-01 1.335578376115028887e-01 1.440111923972551000e-01 1.550112913396582692e-01 1.665287575028156497e-01 1.785183591203448328e-01 1.909159096619057749e-01 2.036348461286862088e-01 2.165625243798395827e-01 2.295563038183036642e-01 2.424395384062260073e-01 2.549976488703393773e-01 2.669745241253779211e-01 2.780695899920032077e-01 2.879359908949919999e-01 2.961804544276332440e-01 3.023655458203453050e-01 3.060151617817337688e-01 3.066242474331269952e-01 3.036738247854340877e-01 2.966524648104860162e-01 2.850852734581171277e-01 2.685712364464917790e-01 2.468293051774843039e-01 2.197528216042762272e-01 1.874706838532076703e-01 1.504119683810155872e-01 1.093685071526144664e-01 6.554720616551684698e-02 2.060085556823774977e-02 -2.337680074380503459e-02 -6.390823259283662239e-02 -9.825855145920772693e-02 -1.236456149106742175e-01 -1.375407914349612293e-01 -1.380533990897905572e-01 -1.243701387894506488e-01 -9.719169145259379250e-02 -5.907503045141195008e-02 -1.455910830714567117e-02 3.006405111967334204e-02 6.745344022871249678e-02 9.044847046790463474e-02 9.373528201973263529e-02 7.565771797829401457e-02 3.964916488527467364e-02 -5.410550713543710311e-03 -4.658468908029614330e-02 -7.031457241254528145e-02 -6.739818285683842058e-02 -3.790730554793097368e-02 6.506623767485692628e-03 4.546352425134082137e-02 5.864904065952424722e-02 3.772062337848854086e-02 -5.508383761572143399e-03 -4.253495469163420806e-02 -4.587513427897689511e-02 -1.193371165188774480e-02 3.044968711290112900e-02 4.100139561090492685e-02 8.152183545635995066e-03 -3.174237459817091933e-02 -2.993535050296295547e-02 1.155091391540823131e-02 3.335145471789774385e-02 1.650697723596621872e-03 -3.025447225673717072e-02 -4.910968658360112017e-03 2.767066098766673976e-02 -2.220439345231438755e-04 -2.480629189218973296e-02 1.181736527954825242e-02 1.456493282185049136e-02 -2.163142061819935125e-02 7.525971961588245017e-03 1.023845171210583174e-02 -1.865171802340491805e-02 1.666372268992785677e-02 -9.526365268532201863e-03 2.236472206273508890e-03 2.833720938097747128e-03 -5.322191731369898225e-03 5.589365616460542988e-03 -3.897810352132468400e-03 2.674974270315702649e-04 4.998129875778413791e-03 -1.018324508018735725e-02 1.132277514591536333e-02 -4.424941371137013427e-03 -7.093469554890167485e-03 8.711437984629534850e-03 4.775682519053949839e-03 -6.761926795679417020e-03 -8.143985600174008868e-03 -2.662525301410044280e-03 2.286916179472821536e-03 4.531335069844768040e-03 4.697170158685428157e-03 3.160327378966193163e-03 -4.354154464922850706e-04 -5.063516104441891444e-03 -5.132183167331964488e-03 2.967223508339545106e-03 3.445262755096932614e-03 -5.247759197576571701e-03 4.716087911214423244e-03 -4.514648430153206035e-03 4.550191213071845195e-03 -2.240241079412070256e-03 -3.201251039586302562e-03 1.334528503762776042e-03 3.240869611709870646e-03 3.291886106580464884e-03 2.124548944289726682e-03 -1.390869120323662148e-03 -2.604389332266920497e-03 2.996244203207437760e-03 -2.855557655983880384e-03 2.279848869288121204e-03 1.331638702158892233e-03 -7.083453949421217397e-04 -5.924105312737460534e-04 1.439571230162919706e-03 1.219099274250114552e-03 -1.612553200845945420e-03 2.949304770750850002e-04 1.891856750991556839e-03 1.803430370495816065e-03 1.115633910537132227e-03 -1.651303744116669123e-03 1.500568982578296372e-03 6.868064135919847539e-04 6.648189311308751659e-04 1.263071210753444586e-03 -1.246249748008915930e-03 -3.622640677561121897e-04 -4.746846341519789323e-04 -8.407470606702414874e-04 2.025841987823221563e-04 6.886819475326914301e-04 -7.124696849188316911e-04 9.227952708147908571e-04 7.562806908369942892e-04 1.182525035755782285e-04 7.741781677162195337e-04 7.106268534092314215e-04 -5.091951911126309759e-04 -4.402241385598274219e-04 4.611014821219280488e-04 4.854587373747414254e-04 -4.505919325523796877e-04 -2.817288015958584538e-04 -1.503382338787363878e-04 -5.432843157699615002e-04 -3.201071655296791867e-04 3.067882438606495056e-04 4.564523019892257672e-04 4.305718293061761210e-04 -3.319543072437265816e-04 3.834552446232332304e-04 -2.031604753167362738e-04 -3.725172417910946310e-04 -3.539455384400132113e-04 -3.384964575665758081e-04 -3.251197345422736471e-04 -2.951153455809230725e-04 -1.279302298481961705e-04 2.700790826998992296e-04
1.020416263989882763e-02 1.118179545796837461e-02 1.225181161484306495e-02 1.342268017426979931e-02 1.470359304783839041e-02 1.610451547182091894e-02 1.763623751750027779e-02 1.931042599090437156e-02 2.113967587696439013e-02 2.313756023862270292e-02 2.531867718544934115e-02 2.769869216987973573e-02 3.029437344205631460e-02 3.312361798501451543e-02 3.620546464795094954e-02 3.956009048279610085e-02 4.320878545364627288e-02 4.717389971464567427e-02 5.147875652465263435e-02 5.614752257256013651e-02 6.120502601403326332e-02 6.667651086170969799e-02 7.258731452676699114e-02 7.896245329130062440e-02 8.582609832509607850e-02 9.320092259640497256e-02 1.011072967443458204e-01 1.095623098021970554e-01 1.185785887629511592e-01 1.281628896096764503e-01 1.383144319341653994e-01 1.490229500945912666e-01 1.602664366160201914e-01 1.720085589890861244e-01 1.841957401476336242e-01 1.967539069126862106e-01 2.095849310360906048e-01 2.225628158760770137e-01 2.355297201323033329e-01 2.482919605613397307e-01 2.606162003010540351e-01 2.722261102358923823e-01 2.827998889859026366e-01 2.919691426256030842e-01 2.993197560786708955e-01 3.043955289817119048e-01 3.067054895624423683e-01 3.057359239170475695e-01 3.009682392181411981e-01 2.919037807024927877e-01 2.780965931322316176e-01 2.591947924282080873e-01 2.349906131118182917e-01 2.054782336132770504e-01 1.709170675306440901e-01 1.318962791872885232e-01 8.939382492902564481e-02 4.482042797465449202e-02 3.582093335927072353e-05 -4.267816358986477321e-02 -8.070468604701523663e-02 -1.112554833081937228e-01 -1.316226347658950302e-01 -1.395199506537696810e-01 -1.334979719353212579e-01 -1.133912705673805893e-01 -8.072493338442285338e-02 -3.897355370584254519e-02 6.459690842721702020e-03 4.867913920960624530e-02 8.024372918822741951e-02 9.462012646495657209e-02 8.796624342451030143e-02 6.084543784075498174e-02 1.925347650040702338e-02 -2.576026513981157298e-02 -6.042805600149800394e-02 -7.253696059944855778e-02 -5.664720848823229238e-02 -1.815297909536390045e-02 2.653495237733392159e-02 5.566944481912285136e-02 5.301331417571548271e-02 1.905667142166291364e-02 -2.533750678338005796e-02 -4.925701266913252302e-02 -3.376261625910271374e-02 9.196005926844979389e-03 4.108600495973076250e-02 3.002550751992530062e-02 -1.281869140432167001e-02 -3.771323104555632244e-02 -1.282737887105332361e-02 2.794773177976455497e-02 2.398026928158820265e-02 -1.825974177915201668e-02 -2.535984746660675110e-02 1.541614180807563024e-02 2.162875195464022265e-02 -1.902711737721506091e-02 -1.202498752363149667e-02 2.338490354958874459e-02 -5.643867896850096252e-03 -1.552982299628400883e-02 2.030765861895277025e-02 -1.010928611549783904e-02 -3.779210745108182480e-03 1.324554242580201595e-02 -1.668709270115204327e-02 1.620612337411926965e-02 -1.441845150080674209e-02 1.301828975347145423e-02 -1.263065627057092383e-02 1.299486603141374735e-02 -1.298807189365718678e-02 1.065630415025516954e-02 -4.146759005672317512e-03 -5.409778781867971044e-03 1.079516786716165806e-02 -3.561280409350536108e-03 -8.771053505213633958e-03 3.416211003317141861e-03 8.964343133654835080e-03 4.267117662705668946e-03 -1.889961860835906362e-03 -5.182911139362925829e-03 -6.038167504488795891e-03 -5.461962756686867572e-03 -3.283602821436398984e-03 1.170869234895295869e-03 5.768748691775656481e-03 3.255695142559998818e-03 -5.134783817575667292e-03 5.529666728437578191e-04 2.639743943709809901e-03 -3.398010461510805186e-03 2.461948903247033853e-03 5.158309226089588485e-04 -4.074987403353895823e-03 9.476486249357796024e-04 3.641921157989572166e-03 3.718244103898517283e-03 3.538122225704278499e-03 2.226124208682234585e-03 -2.019525813249396957e-03 -1.261661783766762504e-03 2.160605367198234830e-03 -1.340680025165936519e-03 -1.496682446807130621e-03 1.601769390635999091e-03 2.189070668353026994e-03 1.431022231835207825e-03 -1.444551965383250635e-03 -2.653822476963575532e-04 -1.061251121274753458e-04 1.865488490724925754e-03 8.318212499078196480e-04 1.274621245182852624e-03 1.213272329572798788e-03 -1.465341783175003361e-03 2.198800902757686742e-04 1.164064792382403209e-03 3.118565115736638056e-04 -1.232376970806635906e-03 6.165953201779264363e-04 1.186838542611751710e-03 4.398852668567186284e-04 -7.744567577884659557e-04 -7.437827333083320410e-04 -9.395878426311290174e-04 4.974083608987574581e-04 -8.008800214772346122e-04 -2.699071289384459148e-04 2.541210663454814109e-04 6.391957485718640633e-04 -6.985412814296712396e-04 2.411831799641615858e-04 -6.299794338546016795e-04 4.261006245084297817e-04 -4.161518374785354345e-04 4.577970400561539449e-04 -5.221345598736374131e-04 -2.340663045577425557e-04 2.353991083356485174e-04 4.976665814810014941e-04 9.126035284338458655e-05 -1.306713482275108557e-04 -4.247559435953243484e-04 -3.871511225588397252e-04 -3.148859725151665332e-04 3.555383766169895716e-04 -2.706737999896813534e-04 2.840927303499250723e-04 -3.177456056616647837e-04 3.178055537789631129e-04 -2.893201099881550055e-04 9.057609439379766397e-05 2.776789024823541003e-04 2.520527787055030795e-04 -1.746967235195613839e-04
1.247104914082173416e-02 1.366254777329336915e-02 1.496596405326125132e-02 1.639141936271986191e-02 1.794986999136790121e-02 1.965315902093672795e-02 2.151406756296402739e-02 2.354636420734656718e-02 2.576485123203656191e-02 2.818540575490636330e-02 3.082501356666243753e-02 3.370179285706875055e-02 3.683500442276974041e-02 4.024504420973729762e-02 4.395341318202915237e-02 4.798265850596571125e-02 5.235627888013549835e-02 5.709858551326565945e-02 6.223450874320596293e-02 6.778933859524619021e-02 7.378838569870796449e-02 8.025654693096287429e-02 8.721775796842744233e-02 9.469431264922034686e-02 1.027060267792757609e-01 1.112692218740064798e-01 1.203955025104555682e-01 1.300902997350621704e-01 1.403511526909202167e-01 1.511657017778186007e-01 1.625093698691988942e-01 1.743427141920046164e-01 1.866084414468194563e-01 1.992280938613412711e-01 2.120984356384314484e-01 2.250875994419849202e-01 2.380310931414273967e-01 2.507278201271008755e-01 2.629363342082277066e-01 2.743716342083226678e-01 2.847029049468784989e-01 2.935527300377462345e-01 3.004984352588425112e-01 3.050763630469826571e-01 3.067900177008252571e-01 3.051231387599807054e-01 2.995588289703511320e-01 2.896058436363505018e-01 2.748329865457142529e-01 2.549121858164412058e-01 2.296701594222469445e-01 1.991475355752111709e-01 1.636627829782437149e-01 1.238762723329170645e-01 8.084723751076150489e-02 3.607344967031288208e-02 -8.499642050987216146e-03 -5.051615710045347096e-02 -8.731053493171762880e-02 -1.160875594083442264e-01 -1.341918531148325600e-01 -1.394654937819536089e-01 -1.306734368120296141e-01 -1.079496736989458278e-01 -7.318440634245458598e-02 -3.023955734427812014e-02 1.514271002297878227e-02 5.587001451343229230e-02 8.454984948962468438e-02 9.502707500499694981e-02 8.419266433293765006e-02 5.361842746016533268e-02 1.036670452371455178e-02 -3.373683252753727907e-02 -6.484159732640833174e-02 -7.164198083294764929e-02 -5.056663630088061717e-02 -9.300442180099455225e-03 3.407116233827311991e-02 5.791681588567866579e-02 4.848530930473998052e-02 1.031578034689674406e-02 -3.249676669255380235e-02 -4.945797594350761356e-02 -2.660829021848433104e-02 1.761509850985839079e-02 4.270054385301035732e-02 2.295296151801774417e-02 -2.074832811025706034e-02 -3.671689520766283077e-02 -4.056963149756493900e-03 3.190106520110239791e-02 1.684723753461405196e-02 -2.451652899468542354e-02 -1.932551699544449858e-02 2.192397727942568125e-02 1.492571637638669818e-02 -2.371854028425601432e-02 -3.486679519491423310e-03 2.301316804557054785e-02 -1.358872114256942307e-02 -8.024573035489774436e-03 1.981277020257232388e-02 -1.640103196661762616e-02 5.107016175682355628e-03 5.711455216373517892e-03 -1.231295129872369241e-02 1.492848867743903560e-02 -1.525310157520635458e-02 1.473619926006329225e-02 -1.396934528577480246e-02 1.262137199195110561e-02 -9.598631778374774187e-03 3.697486730654240931e-03 4.619951829483055772e-03 -1.079149283360898368e-02 7.380868842178184459e-03 5.103441287649622231e-03 -8.801686430583275170e-03 -5.171444300244080333e-03 5.090071158007679689e-03 8.490617234601311250e-03 6.199343398811479021e-03 3.229389841075136665e-03 1.950294604521062318e-03 2.706925723765383346e-03 4.944361154027582771e-03 6.431609432670358333e-03 2.874698486250306696e-03 -4.746699506887396697e-03 -2.189851941611582146e-03 5.231287448721573183e-03 -4.783779726310148465e-03 4.281972725039447092e-03 -4.559611607944379606e-03 3.764160079094025935e-03 9.657567345164465951e-04 -3.720377650617341658e-03 -3.462756041162169153e-03 -2.644087412455085103e-03 -3.086978502890890593e-03 -3.131872613307217900e-03 1.001247873887077533e-03 1.840501214454761704e-03 -2.303988204271232611e-03 1.180603310033999246e-03 1.915024812089973806e-03 -7.596760355129025507e-04 -1.302349729961043822e-03 1.246074194228863634e-04 2.217505241375282866e-03 -1.734130602866197027e-03 1.966578746549068734e-03 -6.966051988268980770e-04 -1.514828013256227894e-03 -6.815800870579445019e-04 1.651875126451162606e-03 -1.547754653293785098e-03 8.440886053252360079e-04 1.285008545635177041e-03 1.358767444392450284e-04 -8.880560292410095936e-04 -3.106589082081968596e-04 2.844033200363993126e-04 -1.003004427668688922e-03 9.492501037972276559e-04 -2.032550933433537488e-04 5.783049024888043625e-04 -3.690409589297839982e-04 6.233080861686067986e-04 -3.799484665285172763e-04 6.745934391692812605e-04 5.922767006919438986e-04 -1.984067206718758108e-04 4.409567257651576594e-04 -6.840076192343046060e-04 -1.234491979079925148e-04 -5.078967501929419238e-04 -5.898470511577686738e-04 4.305876296030099887e-04 4.326897296966266261e-04 -5.246095581670704973e-04 1.258317762030664976e-04 -3.770653941227434971e-05 -3.597314946293547430e-04 1.093870969841499876e-04 4.084140383692652946e-04 3.815827176165470166e-04 9.671429474191144246e-05 -3.611281123199206735e-04 1.297864117630001144e-04 1.689880544554379232e-04 -3.173006866967078123e-04 -1.406699692897586796e-06 2.103928961909600393e-04 1.356704954436477035e-04 -2.509799270047285914e-04 2.490106458121959057e-04 2.296231988924507745e-04 -6.725448011111850833e-05
1.493228878384806474e-02 1.635459623252847466e-02 1.790961745821394516e-02 1.960917298061697761e-02 2.146602009793890584e-02 2.349390239579224673e-02 2.570759605730897276e-02 2.812295116542933016e-02 3.075692574816000016e-02 3.362760979320859878e-02 3.675423583700470481e-02 4.015717200078205290e-02 4.385789248835864768e-02 4.787891956135072874e-02 5.224372985289117005e-02 5.697661655689248428e-02 6.210249752566755072e-02 6.764665761831201163e-02 7.363441176742778482e-02 8.009067318590494533e-02 8.703940894879427792e-02 9.450296291165316553e-02 1.025012236524250747e-01 1.110506129789137070e-01 1.201628687159270181e-01 1.298435942379099484e-01 1.400905469029134209e-01 1.508916386508157848e-01 1.622226251796013707e-01 1.740444661129400550e-01 1.863003484333889959e-01 1.989123804267932671e-01 2.117779849668240955e-01 2.247660509193363243e-01 2.377129417413459955e-01 2.504185131054868507e-01 2.626423586952230105e-01 2.741005869964425190e-01 2.844635330492179537e-01 2.933549274599152046e-01 3.003531779934906498e-01 3.049955607660406187e-01 3.067862573431834883e-01 3.052092927496597441e-01 2.997474999728645950e-01 2.899086197089926764e-01 2.752594867611976026e-01 2.554688887997151325e-01 2.303590278818618831e-01 1.999644810529101202e-01 1.645960585692506084e-01 1.249049379045464314e-01 8.193991074733453228e-02 3.718763232925434425e-02 -7.417300127291678868e-03 -4.952824094424471135e-02 -8.648547336628384374e-02 -1.154941160576009596e-01 -1.338913584407675217e-01 -1.395020476903123252e-01 -1.310628765484274927e-01 -1.086688488404268932e-01 -7.416314652706440524e-02 -3.135846457876058369e-02 1.404519442619728276e-02 5.497838519903527205e-02 8.403922404794182677e-02 9.502054596476354476e-02 8.471633687385961287e-02 5.456794295959589702e-02 1.150299061634272799e-02 -3.274629970788416750e-02 -6.433034713497971790e-02 -7.181664722002147061e-02 -5.138751196623524142e-02 -1.043663019189391104e-02 3.315026378700353105e-02 5.770257371090817961e-02 4.912836506726503405e-02 1.144523887052133204e-02 -3.163757719219401771e-02 -4.952200292422975769e-02 -2.757438141150459973e-02 1.657852004865200540e-02 4.259689444008912806e-02 2.391795195569173735e-02 -1.979377833403080447e-02 -3.696149951934723371e-02 -5.195465573439529174e-03 3.151640214253077776e-02 1.783470757802632992e-02 -2.382548420216839408e-02 -2.020112564617927015e-02 2.120727326275873015e-02 1.588338925693948134e-02 -2.327154437642581924e-02 -4.619649831772052254e-03 2.324900424298870574e-02 -1.267563690888070214e-02 -9.083530623037929658e-03 2.009181311112796797e-02 -1.576956108423852032e-02 4.002598449938738617e-03 6.790155630513799133e-03 -1.308849282997835706e-02 1.535839829434591797e-02 -1.543284074328242494e-02 1.481469714991918291e-02 -1.411140475574458250e-02 1.299435755518849392e-02 -1.033448852651627260e-02 4.776568019486599967e-03 3.551921257532445874e-03 -1.043831593479808452e-02 8.175054138682925561e-03 4.086957407230800733e-03 -9.244175446298413465e-03 -4.187986754477038449e-03 5.990544593688806874e-03 8.428303427688674243e-03 5.409010005779788660e-03 2.160500341889724958e-03 8.285943583684156604e-04 1.621155460768914768e-03 4.104450969558051839e-03 6.339500093823817288e-03 3.834658252566679280e-03 -3.993721455795748790e-03 -3.193720501580588848e-03 5.350494564120090828e-03 -4.273946250419954559e-03 3.627689490542026617e-03 -4.202941335945568208e-03 4.245379025434708672e-03 -1.701946799643485838e-04 -4.022687951539498721e-03 -2.814175166307747011e-03 -1.734347572276311641e-03 -2.386194953406656043e-03 -3.366231432242854701e-03 -1.262632616653171745e-04 2.611126824417053793e-03 -2.821895832801423788e-03 2.094064457677672318e-03 9.698245736207443185e-04 -1.742368690386910616e-03 -2.094765777063687870e-03 -9.884103045767116211e-04 1.956884963346379978e-03 -8.626467594016747975e-04 1.409412637052637500e-03 -1.585444031519837394e-03 -1.845154429323423058e-03 -1.526504824982648093e-03 1.090901679784744144e-03 -8.952139876591864867e-04 1.489512749595317369e-03 1.405143729939689178e-03 1.109664981969223823e-03 -1.334488504789419676e-03 7.737414918612039918e-04 1.123954649130792663e-03 -6.703203441212215010e-05 -4.278721603561829244e-06 -1.013040492055093059e-03 -5.053936015671213434e-04 6.884952402285134197e-04 8.430356555794128130e-04 6.639781242116465747e-04 -3.501781334419424262e-04 -4.505390878998278962e-04 7.227482117347998856e-04 5.847390634415660466e-04 1.837532601119209216e-04 6.661059569674086973e-04 -2.571698369767564741e-04 3.190193714451683275e-04 -5.264827257548201651e-04 -5.101245992927200875e-04 2.430278570845649305e-04 -4.555897785102696555e-04 -3.057343214663206282e-04 4.602338750037374853e-04 -3.111560565687675065e-04 -4.124996096864963122e-04 -4.005291488849508090e-04 -1.498132826064062912e-04 3.612983605885011383e-04 -1.750174687607751456e-04 -7.701299753793330589e-05 2.894548348769813203e-04 -1.784901654868953260e-04 -2.893315882194964252e-04 -2.761988079050165554e-04 1.624063263685228815e-05 -7.975651691206795898e-05 8.205055104748725154e-05 -2.298285420376999983e-04 -6.373323241465599651e-05 -1.305280544614199195e-04
1.758201278154682828e-02 1.925116754596541829e-02 2.107494072770636079e-02 2.306687142100752666e-02 2.524152223909854886e-02 2.761452180184747335e-02 3.020260046343622995e-02 3.302361662055586233e-02 3.609657034104636619e-02 3.944160034430764517e-02 4.307995953356165419e-02 4.703396331102582817e-02 5.132690378523587643e-02 5.598292169117032036e-02 6.102682637693072898e-02 6.648385255835081997e-02 7.237934070495563588e-02 7.873832590780345531e-02 8.558501791822348270e-02 9.294215278470979724e-02 1.008301942321217226e-01 1.092663607429379957e-01 1.182634523892765327e-01 1.278284500726236117e-01 1.379608592928966981e-01 1.486507713417657972e-01 1.598766174913784643e-01 1.716025970947883394e-01 1.837757694968571442e-01 1.963228134729461671e-01 2.091464780169748905e-01 2.221217763954888014e-01 2.350920134067463474e-01 2.478647858317015729e-01 2.602081602560336604e-01 2.718473126744266333e-01 2.824620118413448955e-01 2.916854432855521817e-01 2.991050012907184308e-01 3.042658167858364182e-01 3.066779300761677263e-01 3.058281421237690201e-01 3.011976612193295599e-01 2.922866666613591069e-01 2.786467873163508413e-01 2.599221758091357359e-01 2.358992697796846727e-01 2.065643818710546364e-01 1.721668626843038119e-01 1.332836693010528151e-01 9.087873220413211772e-02 4.634763155070911744e-02 1.535019567175208155e-03 -4.129055016329963995e-02 -7.952139405659534865e-02 -1.103714559026119785e-01 -1.311249816617963693e-01 -1.394750095807844870e-01 -1.339363859665446688e-01 -1.142929755987576179e-01 -8.200709643313944253e-02 -4.048558232294687670e-02 4.929349581104618822e-03 4.738017215253939596e-02 7.942311476246761981e-02 9.446585387838482561e-02 8.854502942108032071e-02 6.205185853772441501e-02 2.079418129471249585e-02 -2.432367953028700611e-02 -5.956565729548796845e-02 -7.258124410679955840e-02 -5.762044176936079176e-02 -1.967766446483736748e-02 2.515226006343668219e-02 5.514626050837868193e-02 5.367838671840689108e-02 2.054551250908459234e-02 -2.399760073764192411e-02 -4.905739230573470666e-02 -3.490244094347826759e-02 7.671376042535057657e-03 4.061901020346007224e-02 3.113113755322963888e-02 -1.134632180030746909e-02 -3.766901756103038790e-02 -1.430051226412264349e-02 2.704851802520041523e-02 2.506215745543180842e-02 -1.699086799542919371e-02 -2.619795728971963111e-02 1.409658107135744465e-02 2.258286006763768686e-02 -1.795157125736844897e-02 -1.339301434706119398e-02 2.310242710465339536e-02 -4.119891475818806756e-03 -1.660555741558394222e-02 1.999527388529277055e-02 -8.746382413268445968e-03 -5.308689767573724315e-03 1.427609596883352115e-02 -1.700899960811843095e-02 1.592775808846556146e-02 -1.376085126215481277e-02 1.219882256282864286e-02 -1.184690464813220948e-02 1.246237863710564046e-02 -1.296914450287675775e-02 1.139048900427059273e-02 -5.584161264634675964e-03 -3.991086826722818268e-03 1.065722038712935832e-02 -4.994298590263976032e-03 -7.963377884910426835e-03 4.830826277268260305e-03 8.771688566199581719e-03 2.847655487933584747e-03 -3.377451502144342230e-03 -6.254068270178085413e-03 -6.829350555817869685e-03 -6.337849709107543951e-03 -4.565032585248715059e-03 -3.917359326991872413e-04 5.026327780403612097e-03 4.443354222964845425e-03 -4.299605647692140986e-03 -1.010372584174201466e-03 3.850333294761081483e-03 -4.347774911722717718e-03 3.642301351287095465e-03 -1.043758555854266360e-03 -3.341825167327335238e-03 2.371063143587037302e-03 3.903910366069495916e-03 3.314327070616613410e-03 3.354425133567928707e-03 3.140187173883907286e-03 -6.088631494206191760e-04 -2.478752235308313498e-03 2.888116451626691807e-03 -2.452717335893085573e-03 -1.819128876122540987e-05 2.469257625062907125e-03 2.424040877571870777e-03 2.277778900201428858e-03 -1.472434426029579051e-06 -1.620084860390803459e-03 1.342608527549215376e-03 8.895025342006574734e-04 -6.905967329143058780e-04 -1.471184808095961133e-04 1.678540305529068908e-03 -1.398698326871778645e-03 1.417812253814431994e-03 1.360579990230188427e-03 1.372618144610445725e-03 -9.823419910989807362e-04 1.271642978636245737e-03 6.374522028688010171e-04 1.158700596608767952e-03 -9.253119229255839977e-04 6.876745935956578596e-04 3.653894150308993854e-04 -8.574837912875810618e-04 -3.736241013361656137e-04 -7.764442820717635651e-04 7.063328647064999249e-04 2.311090437477594697e-04 6.061289330197794324e-04 4.639524691290317429e-04 6.344864560462250584e-04 8.028390812217017162e-05 6.333331340979986854e-04 -1.601466416392663037e-04 5.856506840821081852e-04 3.869781333958423396e-04 -3.256404441410235798e-04 -5.038877499476448465e-04 -4.960257663316311770e-05 2.125023375642428675e-05 4.408687358311064088e-04 4.186181644616815737e-04 6.080966693141248079e-05 -3.330956998858042545e-04 3.429817109569277306e-04 -2.708906260416225442e-04 1.198136340215588729e-04 1.840054621911403721e-05 -2.617255984494193998e-05 -1.642803626803272777e-04 2.045929412077144910e-04 2.007223398591528039e-04 -1.944757365408102730e-04 2.430628865456543506e-04 2.306212056144044088e-04 -2.215384727074490225e-04 -2.083919816682317742e-04 1.042937440229318053e-04 -1.922949879288185038e-04
2.040816792366820925e-02 2.233871537467227789e-02 2.444668685917963935e-02 2.674732760766436804e-02 2.925697281564429431e-02 3.199307764009060723e-02 3.497423575030190329e-02 3.822018272970628683e-02 4.175177983912027602e-02 4.559097273368501596e-02 4.976071865986690657e-02 5.428487443108401256e-02 5.918803607809250411e-02 6.449531948426090455e-02 7.023206954329257179e-02 7.642348342416194207e-02 8.309413141510318956e-02 9.026735658509933702e-02 9.796453221444278991e-02 1.062041537095864824e-01 1.150007396852120167e-01 1.243635152866856691e-01 1.342948499410277219e-01 1.447884219725947830e-01 1.558270844413151279e-01 1.673804108580231598e-01 1.794019069962406454e-01 1.918258869665990796e-01 2.045640294079553723e-01 2.175016546933234984e-01 2.304937983084523467e-01 2.433612010888431820e-01 2.558863959305187619e-01 2.678101449319922889e-01 2.788285722350468676e-01 2.885914466985805560e-01 2.967021938380003387e-01 3.027203543119517670e-01 3.061673486100085495e-01 3.065365405379634756e-01 3.033086936035550019e-01 2.959739520410082925e-01 2.840614068086896871e-01 2.671770668593985154e-01 2.450505731882222094e-01 2.175901818664038312e-01 1.849443131867958834e-01 1.475662403395558431e-01 1.062762354975492207e-01 6.231274785125631710e-02 1.736114030227343952e-02 -2.645444513116223390e-02 -6.663270070172513937e-02 -1.004272040753371176e-01 -1.250629690605735422e-01 -1.380437080495890145e-01 -1.375415180813196747e-01 -1.228384372163016380e-01 -9.475970124136517958e-02 -5.600480964670298545e-02 -1.125223254145065604e-02 3.310029910346341114e-02 6.967742463565176902e-02 9.139221550701784325e-02 9.313550534790676627e-02 7.357970137103447827e-02 3.655746056820910472e-02 -8.687277874931590912e-03 -4.903378289880537533e-02 -7.106007786419515915e-02 -6.608473410877126197e-02 -3.498834092820383296e-02 9.777527481781641758e-03 4.747854685452020107e-02 5.826367990514377815e-02 3.507086770291509975e-02 -8.785659040901037248e-03 -4.413579314173497747e-02 -4.450075052722472085e-02 -8.647473572417900545e-03 3.268054554227052544e-02 3.990866053581916539e-02 4.836791800557591579e-03 -3.340825150485679518e-02 -2.777353638786638282e-02 1.460455784343906577e-02 3.271044380532246720e-02 -1.688811886828939192e-03 -3.045528627251476578e-02 -1.580766580889801914e-03 2.777415556773448965e-02 -3.547715875929403125e-03 -2.379417646691627669e-02 1.457088670660652147e-02 1.177911489763360658e-02 -2.199365679589804223e-02 1.051221034851717966e-02 7.201460039382390384e-03 -1.749804397550020624e-02 1.772681733166910426e-02 -1.210763548450135077e-02 5.471698495458826410e-03 -5.000001248897872159e-04 -2.072422451430337969e-03 2.367165458961013793e-03 -5.976937727672284066e-04 -3.045570571419997739e-03 7.841996158695487690e-03 -1.154452764761256661e-02 1.015672232459159663e-02 -1.195500551644604077e-03 -9.142582066559571882e-03 6.566615535172907331e-03 7.311919839211984684e-03 -4.088517008772512076e-03 -8.722940280069679461e-03 -5.525047543601010504e-03 -1.025740572851902010e-03 1.486803084406489910e-03 1.732166114068043033e-03 -7.028485783054840973e-05 -3.572704220424174903e-03 -6.267782052334878139e-03 -2.673397935625613543e-03 5.178863553606597760e-03 3.688177737043285944e-04 -3.990535877797803978e-03 4.756827410430037109e-03 -4.480399364568805193e-03 3.036603236357103726e-03 9.876006656990988630e-04 -4.135781883313846378e-03 -1.902723680743833527e-03 5.236292037054440709e-04 7.604784676619221872e-04 -1.044916289569895089e-03 -3.274316441538662609e-03 2.898308110543634623e-04 1.652472928965602892e-03 -1.483984715180011174e-03 -6.561037450350277068e-04 2.545320267093351563e-03 2.168451487131807607e-03 2.178238769657496032e-03 1.910957657473749075e-03 -1.760734802185658305e-03 1.375250422155783374e-03 -1.982179164811315349e-03 -5.345711279185388952e-04 -3.027522911852184519e-04 -1.630031954254193777e-03 6.447111930155487083e-04 -1.201176481350883828e-03 6.469749476073966606e-04 4.685651138737334108e-04 -1.309451183222520377e-03 1.260703429594953965e-03 -2.144697303455214016e-04 8.200911170191993763e-05 9.780652386729962646e-04 -2.734284977049284164e-04 -6.235334155882296366e-04 8.492074850294359292e-04 -9.344721168300296936e-04 -9.027379777289415647e-04 4.838832572119530729e-04 -6.971972363841981175e-04 -1.068460884312696108e-05 -4.033085798256630774e-04 -5.438766219663194795e-04 5.775479598552610066e-04 5.931675921135083109e-04 -6.156897343888823818e-04 -5.466637779851734290e-04 7.920781710187661394e-05 -5.417843040509435094e-04 -3.812235877876958274e-04 4.485190494132044645e-04 2.303748034188326968e-04 3.106973649793130722e-04 2.425569098681941882e-04 -2.484427026403208494e-04 -1.429476560342726266e-04 2.986545661231292548e-04 3.567160724236647534e-04 2.979149243005887928e-04 1.946134212918883668e-04 -2.038346310727734046e-05 -2.911611153022596152e-04 1.227380485690366806e-04 -1.927546979146028776e-04 9.744205166071977600e-05 -1.034479206677923162e-04 1.121634536227958780e-04 4.809538925001134610e-05 -4.589229562549331697e-06 -7.320238253303258864e-05 1.939796161055836723e-04 -1.853423290436590073e-04 4.099534992967228801e-06
2.340495999103927444e-02 2.561052553402209941e-02 2.801706365306044777e-02 3.064148520419032393e-02 3.350183223734078813e-02 3.661728922774588890e-02 4.000817694439585265e-02 4.369592400899105500e-02 4.770301020619062415e-02 5.205287445812459973e-02 5.676977905947389047e-02 6.187862027294026290e-02 6.740467370238119316e-02 7.337326099364523124e-02 7.980932237400625850e-02 8.673687735944073107e-02 9.417835368752512648e-02 1.021537622571661030e-01 1.106796937026131578e-01 1.197681103831801375e-01 1.294249062909858805e-01 1.396482070208632520e-01 1.504263829825592258e-01 1.617357520853919262e-01 1.735379539862947074e-01 1.857769876673717735e-01 1.983759188369355331e-01 2.112332849195508455e-01 2.242192549609069441e-01 2.371716415912064613e-01 2.498919143795166331e-01 2.621414305738469230e-01 2.736381821847840845e-01 2.840544587673623500e-01 2.930159428999481452e-01 3.001028878524814592e-01 3.048541684531093088e-01 3.067751358584282495e-01 3.053503269793383379e-01 3.000621526176355247e-01 2.904166761791524554e-01 2.759774446647573209e-01 2.564079782609067770e-01 2.315228834936123858e-01 2.013465385657449980e-01 1.661768226922371028e-01 1.266493633867049051e-01 8.379525529837862641e-02 3.908226906717608695e-02 -5.573498051785752416e-03 -4.784123944346274637e-02 -8.507142279791074513e-02 -1.144701108070717566e-01 -1.333623550961544058e-01 -1.395443058581110896e-01 -1.317052361476520050e-01 -1.098744191535314801e-01 -7.581541573267154555e-02 -3.325712053044444644e-02 1.217286451638387862e-02 5.344554817536455171e-02 8.314526865384860854e-02 9.497898923690301087e-02 8.557817828119465564e-02 5.616362473112693210e-02 1.343301579453319919e-02 -3.104409835289449054e-02 -6.342634208575718968e-02 -7.207302426445491572e-02 -5.275301089901675983e-02 -1.236413205015663395e-02 3.155695114668486539e-02 5.728953465254895544e-02 5.017820412807588726e-02 1.335686141930104813e-02 -3.013952806087673297e-02 -4.957068061583593671e-02 -2.918240693859185109e-02 1.478923671776983390e-02 4.235166185803754951e-02 2.551851700649465302e-02 -1.813011468660487291e-02 -3.729896523737257635e-02 -7.121501818310640303e-03 3.078042015249295507e-02 1.946529747502802332e-02 -2.257525270510864907e-02 -2.162280740865453466e-02 1.990814094059736167e-02 1.744825327155090713e-02 -2.240609572993373586e-02 -6.524963960771402484e-03 2.352439619217719380e-02 -1.104660314135056526e-02 -1.082606686109722702e-02 2.042279960200115915e-02 -1.457154978553063147e-02 2.089547610383235901e-03 8.560629258100145578e-03 -1.427169006355748920e-02 1.591475720669549565e-02 -1.554591796503995010e-02 1.474543005209091005e-02 -1.414104378466458402e-02 1.341419148395206484e-02 -1.139792394651844426e-02 6.514627044906908318e-03 1.661349454315252635e-03 -9.590139171363205872e-03 9.309077844839194066e-03 2.245601217020267923e-03 -9.703974088155842628e-03 -2.376784665182366495e-03 7.289696955100494376e-03 7.973561079645467842e-03 3.825758550284702637e-03 2.450637947077937209e-04 -1.112524674295234601e-03 -3.096901020890342185e-04 2.417695828173191137e-03 5.728205196317223864e-03 5.149354782294370859e-03 -2.381691574657400241e-03 -4.578549790936570912e-03 4.995594230513496214e-03 -2.933711193333925563e-03 2.081148405814824999e-03 -3.034054176792406240e-03 4.414039889860738725e-03 -2.032763366162461394e-03 -3.804854077366032292e-03 -1.188854039466542487e-03 1.399384517663401447e-04 -6.728329354365027246e-04 -2.888003102587034885e-03 -1.934814201133629261e-03 3.066624986825306799e-03 -2.717529381975585055e-03 2.803042250798930182e-03 -9.343361720165022999e-04 -2.552296128704946779e-03 -2.357023298541969982e-03 -2.229316935608269094e-03 4.475771402712848228e-04 1.015414605876857656e-03 -3.844484996732661585e-04 -1.785555486833123812e-03 -8.898361429727141489e-04 -1.475545679109013363e-03 -7.341138809152437418e-04 9.347791198979939339e-04 7.931411589470866406e-04 -6.230197751727559196e-05 1.036512018759944836e-03 -1.292958533647342654e-04 1.047916644017148069e-03 4.351863237248158379e-04 1.162683486523284626e-03 -1.091936668179343400e-03 -3.129919031323619177e-05 -6.481994456771717275e-04 3.157460569587032658e-04 -7.541742197158386556e-04 6.717791898437072218e-05 -3.251805341795310127e-04 -9.659448422117801003e-05 -4.530667940778863607e-04 -7.230351473530858067e-04 6.242272279128922928e-05 -6.450597634155254756e-04 3.065338926127674467e-04 -3.497836208886161233e-04 5.669547703434868555e-04 5.547602820606966929e-04 -4.497363639762322969e-04 2.038118017987469754e-04 -9.874051532519745160e-05 -2.077736749206246687e-04 -2.101112307950976546e-04 1.087700440664541706e-04 -6.656368789243969893e-05 -3.830984214409041580e-04 1.645957650799972048e-04 6.235149298188655460e-05 -2.083039523181839882e-04 3.076392127505903247e-04 -2.082433218430729358e-04 -2.569373385932043063e-04 -2.139653099376498879e-04 -2.253455189447336527e-04 2.260336532075037346e-04 2.029578885718182318e-04 1.262157905611745450e-04 1.664489493271388478e-04 1.058403190487004937e-04 1.819044980181569449e-04 -8.905398323073648262e-05 1.706687837796733111e-04 -6.341467522597811696e-05 -1.659410883398876942e-04
2.656013034158610092e-02 2.905281941061502171e-02 3.177056243024850568e-02 3.473186370662756373e-02 3.795636983826648769e-02 4.146485519693077909e-02 4.527918282142482514e-02 4.942223433967205676e-02 5.391780131979444224e-02 5.879042906251154971e-02 6.406520227572520820e-02 6.976746031409482296e-02 7.592242772719215438e-02 8.255474375828049383e-02 8.968787220979201891e-02 9.734337080567796729e-02 1.055399969357035811e-01 1.142926246115895383e-01 1.236109458124236699e-01 1.334979284418821022e-01 1.439480032616683169e-01 1.549449539333713488e-01 1.664594883824297433e-01 1.784464769700490339e-01 1.908418545174611902e-01 2.035592004109951225e-01 2.164860354212966298e-01 2.294799073372057463e-01 2.423643820848898622e-01 2.549251148087741115e-01 2.669062484632341858e-01 2.780074774097980317e-01 2.878822210212256816e-01 2.961374764037557061e-01 3.023360564423296371e-01 3.060020618054526409e-01 3.066305699009758690e-01 3.037026287570227523e-01 2.967066878815612374e-01 2.851675372301078482e-01 2.686836010524640828e-01 2.469729725491196237e-01 2.199277929033605361e-01 1.876753849044896783e-01 1.506428684166708498e-01 1.096197707751488670e-01 6.581043561138480436e-02 2.086499857391529988e-02 -2.312528589318850469e-02 -6.368485381371995213e-02 -9.807980492699963637e-02 -1.235274836662575565e-01 -1.374967131312915813e-01 -1.380917996850711815e-01 -1.244917799023709942e-01 -9.738726856795319742e-02 -5.932365870831947385e-02 -1.482848494396792061e-02 2.981500370303044600e-02 6.726888537703348825e-02 9.036696192511538273e-02 9.377912546847501363e-02 7.582279330055712030e-02 3.989891485242767766e-02 -5.142668365907796663e-03 -4.638101504806967784e-02 -7.024749385591610995e-02 -6.749885567768025563e-02 -3.814156187865463260e-02 6.238801049240166180e-03 4.529311566096999586e-02 5.867216549079605492e-02 3.793110131680144104e-02 -5.239806003304627036e-03 -4.239619046876653974e-02 -4.597787506436698535e-02 -1.219941424372295372e-02 3.025983999694949189e-02 4.107940513207906236e-02 8.420601478835065129e-03 -3.159574172566086830e-02 -3.010113441002305185e-02 1.129672108160873108e-02 3.338924066059308776e-02 1.922934784862280044e-03 -3.022207818950157360e-02 -5.180493602772204970e-03 2.764459455822747269e-02 5.023262473445328641e-05 -2.487012267924553627e-02 1.158200169396216700e-02 1.477963207108824034e-02 -2.157983713671572656e-02 7.272879565306482504e-03 1.047495007654753590e-02 -1.872137492479642243e-02 1.655200165713222038e-02 -9.299068465490244184e-03 1.966727647674308428e-03 3.102273981334329779e-03 -5.578192743968875267e-03 5.841573959795537396e-03 -4.159733091675764730e-03 5.399963512336874777e-04 4.747876029497094703e-03 -1.003615747279428851e-02 1.137708090658174145e-02 -4.674465101349874717e-03 -6.891549085616283446e-03 8.846786198005213500e-03 4.538612006051191694e-03 -6.944813977659350379e-03 -8.042410077514345473e-03 -2.403487673286223807e-03 2.547318918312899486e-03 4.748752746079568099e-03 4.903232484111692130e-03 3.401432133156080152e-03 -1.632205403059120981e-04 -4.896659049753351867e-03 -5.272280880829842073e-03 2.730999587845337959e-03 3.654632627391096646e-03 -5.260786022677029460e-03 4.616758628295867910e-03 -4.416784858821081947e-03 4.573414660509839136e-03 -2.470438637560989394e-03 -3.020518820244772959e-03 1.588447619272449719e-03 3.376095783423124514e-03 3.398637866189852409e-03 2.333823445710419588e-03 -1.139411315226178389e-03 -2.749771720615583510e-03 2.951937148655247797e-03 -2.806875317644360809e-03 2.421677915975644843e-03 1.090254722860457609e-03 -9.653741837612173603e-04 -8.523218952637162020e-04 1.218437785385077885e-03 1.435510733908689114e-03 -1.771469164591687193e-03 5.610229432483963786e-04 1.898145243164429735e-03 1.754165685686178431e-03 1.309833620695782580e-03 -1.614687049987565152e-03 1.563070326348738569e-03 4.344253551903621505e-04 4.127521969949506336e-04 1.345362364089044190e-03 -1.304450044665293566e-03 -9.489417472642765194e-05 -2.144608565569542475e-04 -9.998907130394371970e-04 4.614412057769999207e-04 8.675113391224395032e-04 -4.983175498807067977e-04 8.225088273604027429e-04 5.746311561303485936e-04 3.780858196159589879e-04 6.393173526896899850e-04 7.846453576669297578e-04 -6.727970657899707370e-04 -6.194759718281887513e-04 6.220150851070288056e-04 6.220913936898334095e-04 -5.918479968794550152e-04 -4.851322152928826863e-04 1.195585061542242425e-04 -4.946948893955542244e-04 -7.207059865365763132e-05 5.804248467244441513e-05 4.525920689850969651e-04 2.759920239634654584e-04 -4.313019645300672348e-04 3.962125814321215862e-04 5.889155004275874525e-05 -2.448552502503201808e-04 -2.983393226342499955e-04 -2.757721331101109616e-04 -2.467174637847317862e-04 -2.685677155132682012e-04 -2.916255677646772330e-04 8.158678886661839210e-05 -8.613920957373862893e-06 2.542701183254596361e-04 2.477065110411435286e-04 -1.844140092701050150e-04 2.543879594744160580e-05 -1.889534474162299382e-04 -2.058105116444820814e-04 1.655692958977668600e-04 -1.562821930565480078e-04 -1.745698639487983680e-04 -1.556487517837954111e-04 -1.374361826198416698e-04 -4.902448484788435854e-05
2.986795834303634239e-02 3.265895204739240748e-02 3.569945472669288494e-02 3.900946413716298994e-02 4.261009662181580726e-02 4.652353916642312792e-02 5.077296827252784223e-02 5.538242763814708869e-02 6.037665519262721409e-02 6.578084840301441638e-02 7.162035495413823782e-02 7.792027391245089085e-02 8.470495033853732425e-02 9.199734406035627032e-02 9.981825103323943571e-02 1.081853535077115097e-01 1.171120732693508582e-01 1.266062007421631941e-01 1.366682720829045239e-01 1.472896669749061971e-01 1.584504022312124560e-01 1.701166012812566630e-01 1.822376280843673035e-01 1.947428871558816166e-01 2.075383106252822185e-01 2.205025802443576488e-01 2.334831689373499941e-01 2.462923349183128163e-01 2.587032637206905239e-01 2.704466316314740326e-01 2.812079593823669232e-01 2.906262377921371431e-01 2.982944357210580155e-01 3.037626404891501375e-01 3.065447226002921965e-01 3.061295445935640624e-01 3.019978239106885787e-01 2.936457766435781047e-01 2.806165645209976467e-01 2.625402784877923223e-01 2.391826415051745425e-01 2.105017132403531888e-01 1.767105419353950657e-01 1.383418633702448441e-01 9.630857073687175418e-02 5.195084285158206583e-02 7.057746856647784117e-03 -3.615171849713193220e-02 -7.510503575336796578e-02 -1.070266751369011171e-01 -1.291754485421067467e-01 -1.391722212260304292e-01 -1.354052595227601130e-01 -1.174764135781462410e-01 -8.662034812862434707e-02 -4.599525349721682310e-02 -7.156204387278458645e-04 4.251002661333296712e-02 7.624214856729244483e-02 9.368964575972243969e-02 9.046154741770723318e-02 6.632847129419675025e-02 2.640616872178365784e-02 -1.895523529885443509e-02 -5.617776855457713020e-02 -7.245895598917335978e-02 -6.095378437314626086e-02 -2.519592256753806769e-02 1.993211544113426131e-02 5.290409494723209011e-02 5.578628002360310617e-02 2.587991366532749540e-02 -1.888628845441771287e-02 -4.791235399017763907e-02 -3.877211427806122324e-02 1.989489080267874480e-03 3.845216614924144849e-02 3.481408452057663250e-02 -5.786614849310540119e-03 -3.695378345843716023e-02 -1.947733547060594844e-02 2.327095188198018139e-02 2.854384757082858298e-02 -1.197754347028638297e-02 -2.865689988081497955e-02 8.903017064164823677e-03 2.543983403314114752e-02 -1.346424415671207409e-02 -1.793972887175846603e-02 2.121375286789566397e-02 1.608103182444943751e-03 -1.978575551552953088e-02 1.787954031935072574e-02 -3.320358055749934000e-03 -1.055207560466194308e-02 1.709384746719192633e-02 -1.697297741659941142e-02 1.368784095732076579e-02 -1.021987046107895522e-02 8.113192968639859268e-03 -7.823686554499656096e-03 9.162991926964699982e-03 -1.131658353732503154e-02 1.248324970239800269e-02 -9.873016190933921535e-03 1.671359893940399001e-03 8.300707639592943762e-03 -9.067054735693545753e-03 -3.468888050470279264e-03 8.639440212577629077e-03 5.904633565788557775e-03 -2.808531345130474942e-03 -7.439681114254068951e-03 -7.835123793432645367e-03 -7.048517843452214125e-03 -6.784581838660801861e-03 -6.846970731355112721e-03 -5.296674025538049453e-03 1.120034446372610292e-04 5.778421290188340970e-03 8.647150170850114153e-04 -5.159162825183001913e-03 4.803868748536169880e-03 -3.854546838038838338e-03 4.059845616399716285e-03 -4.507338155692782074e-03 1.862241151734037601e-03 3.701860787484456509e-03 2.489186511349808311e-04 -1.620334456859474914e-03 -1.346793350097907687e-03 9.248330889092683076e-04 3.264792555603697032e-03 -1.099137023165935997e-03 -4.499981851387517247e-04 -1.590306595828969540e-04 2.308702309476719141e-03 -9.425714382051583696e-04 -1.990687183909807187e-03 -1.395473225876077547e-03 1.232416588914924489e-03 8.430994993422754680e-04 -7.773491945730468975e-04 -1.217263871762581072e-03 5.957501211289033824e-04 3.075260501480223140e-04 -1.576400011356329008e-03 9.701671167316297572e-04 -1.537464386549067382e-03 -6.093342988127569857e-04 -1.088006160729297362e-03 -4.099248391150590539e-04 -1.200700139354964139e-04 1.034346360804533392e-03 3.969667745140351622e-04 -9.590352704541831464e-04 -2.216227464411141463e-04 -2.892035396744338602e-04 -6.244814932214665711e-04 -4.639913750567591652e-04 -6.865869103359735839e-04 4.019103095721309024e-04 -4.083323671863402725e-04 6.893383420122816199e-04 -5.445200399597548493e-04 1.055111930318741221e-04 -5.706159729186914770e-04 -6.153909757516159550e-04 1.280516836426202269e-04 -5.432390976483982047e-04 5.018611753033701527e-05 -3.395586268589198108e-04 -2.144059587273161279e-04 -3.706562009443388288e-04 1.125722648878237038e-04 3.914610426936780858e-04 1.718845662757830970e-04 -4.055718036065233630e-04 3.718032235257294786e-04 -3.586214265872612232e-04 9.037800118691178273e-05 2.896122451979859570e-04 -2.488710248169854447e-04 1.220192728898623255e-06 5.927118470618021677e-05 1.561739524002357811e-04 -1.082500031537575035e-04 7.199291949093762481e-05 1.763658318780760435e-05 2.070369569708889945e-04 -1.577166335690140849e-04 6.082041550024327162e-05 -1.342558901624964023e-04 -6.398138265756557960e-06 -1.409686866591213232e-04 -7.636249700430634726e-05 1.630482999486480877e-04 -1.208007336621549221e-04 -1.170479512313620223e-04 -1.042607293795298447e-04
3.331620630832967528e-02 3.641517215902932703e-02 3.978826871614862121e-02 4.345685684732335935e-02 4.744335307178831201e-02 5.177113996960788778e-02 5.646443341737795996e-02 6.154809684894640975e-02 6.704739106881404953e-02 7.298764628992296388e-02 7.939384103846147678e-02 8.629007039429330284e-02 9.369888376765116156e-02 1.016404701332642019e-01 1.101316664769300818e-01 1.191847633376118959e-01 1.288060800044245890e-01 1.389942814998091081e-01 1.497384104127700011e-01 1.610156095491974693e-01 1.727885170247141222e-01 1.850023248291811639e-01 1.975815062638121011e-01 2.104262384668914576e-01 2.234085752319781570e-01 2.363684644397952561e-01 2.491097557796778661e-01 2.613964101381837657e-01 2.729492039360562061e-01 2.834433209923437058e-01 2.925073411048580985e-01 2.997242662313911454e-01 3.046353663660661959e-01 3.067477674529319742e-01 3.055468256351541179e-01 3.005144093567710950e-01 2.911542053598761837e-01 2.770250248727788578e-01 2.577827459394287923e-01 2.332309068758259274e-01 2.033789754988252763e-01 1.685058728527358551e-01 1.292243656619712633e-01 8.653945224730014152e-02 4.189095129152074770e-02 -2.832568332253232457e-03 -4.532408673120227188e-02 -8.294973186631501849e-02 -1.129178212886450816e-01 -1.325365626482894466e-01 -1.395609498715337793e-01 -1.326114359214013716e-01 -1.116211694832108248e-01 -7.823647360579075172e-02 -3.606184400302699794e-02 9.384028569109081896e-03 5.113541851929687132e-02 8.176119615898133630e-02 9.484700684254598890e-02 8.678900636905212407e-02 5.848414321370024732e-02 1.628745906527330825e-02 -2.848107837529004899e-02 -6.200708692552225898e-02 -7.235883937022360990e-02 -5.470526245905960733e-02 -1.520819210558293881e-02 2.913432268399826497e-02 5.656533386009223591e-02 5.163150465163208330e-02 1.616571551979895799e-02 -2.783685047151443492e-02 -4.950356225429447532e-02 -3.148099708975797550e-02 1.208112932387415267e-02 4.182958154573835491e-02 2.779152200013260132e-02 -1.557764478355632559e-02 -3.761623681090624227e-02 -9.943393827941831437e-03 2.950453667312126840e-02 2.175971537853151061e-02 -2.055722697840816141e-02 -2.356378924004086037e-02 1.780777857009046422e-02 1.960622413973897582e-02 -2.088887663300856290e-02 -9.278487407330162848e-03 2.363909159936665796e-02 -8.477955067139990308e-03 -1.324844264264155372e-02 2.057674129361246676e-02 -1.253096678358702094e-02 -7.886739333715943583e-04 1.099889897693406490e-02 -1.568437435939408486e-02 1.632205742300331733e-02 -1.526654020071300036e-02 1.417795802326253518e-02 -1.369597208527782543e-02 1.352686181630237579e-02 -1.249714570700977828e-02 8.787611320836800563e-03 -1.215907110898480081e-03 -7.811535741195889913e-03 1.042381598548499516e-02 -6.190541430338963175e-04 -9.681057806000649760e-03 4.796640500776683919e-04 8.569567060059764610e-03 6.546679503882569910e-03 1.101170617547662153e-03 -2.593782791894037095e-03 -3.818462640808004214e-03 -3.093467904908068968e-03 -4.102989437287271851e-04 3.895156633045701242e-03 6.138100737317719532e-03 4.306479183297583593e-04 -5.600805988629470322e-03 3.304293548017126284e-03 -2.427511053076310038e-04 -7.315185311495447148e-04 -4.217776041266393635e-04 3.168142456674725906e-03 -3.937345719361338807e-03 -1.966934417820886440e-03 1.626880432448583923e-03 2.705163653587458472e-03 2.070743218304499367e-03 -5.827583602915502358e-04 -3.229710109762817978e-03 1.624335473686734773e-03 -5.863010966329466628e-04 1.526330454751141262e-03 -2.659740252078351529e-03 -1.229512245742593038e-03 -3.107050581470206059e-04 -1.376292659192563045e-03 -1.981284283774313332e-03 2.045013716383269585e-03 -2.032439786050119126e-03 6.016000399226826591e-04 1.614559361714493864e-03 1.061421114675182003e-03 -1.404784212977480988e-03 1.077284035245472957e-03 -1.497669561347765447e-03 -1.333380497955578576e-03 -1.321318707871272161e-03 1.184880482065011091e-03 -1.231936002869739918e-03 -1.112107395402955369e-03 -9.503385373880357707e-04 1.042520036203248637e-03 4.673776794128838030e-04 8.498556345606883382e-04 -4.602181609753052739e-04 7.451640483302093918e-04 4.502291225445494339e-05 9.649712882790387842e-05 -2.564356238522798466e-04 7.292810530667185806e-04 4.247673599398882186e-04 5.447201326584452663e-04 4.104524870622779944e-04 4.914783903533332613e-04 4.922316201302211376e-04 1.325342695276346930e-05 2.419264946761247163e-04 -8.939143872023579791e-05 4.273752105014598165e-04 5.374481356603865378e-05 -2.224523280852406875e-04 -3.039321549062181456e-04 -1.286178029901041838e-04 -3.517791825017569057e-04 -1.369604102736422520e-04 3.240828588496524258e-04 -3.422864969074646880e-04 3.324768391867982372e-04 -3.173452716448116437e-04 2.202976516656952779e-04 1.606847889664854000e-04 -2.506955281266319969e-05 1.623885661043598049e-04 -1.365463320508081177e-05 2.416679950778284473e-04 1.157581007099614735e-04 6.954564263055895473e-05 2.091857713838542231e-04 3.921069218991405530e-05 -3.214262797301709745e-05 -1.748476465688706023e-04 -7.393670940991079789e-05 1.165935984562468049e-05 1.179373784114606197e-04 9.623985360854170486e-05 -9.369848758125951622e-05 -1.378351354669696976e-04
3.689921858088367895e-02 4.031490479030289814e-02 4.402935301510187138e-02 4.806513014374683146e-02 5.244575232463994513e-02 5.719554497834182516e-02 6.233944823810044084e-02 6.790275608175995459e-02 7.391077553532217348e-02 8.038839027553540406e-02 8.735951076699456641e-02 9.484639079344969748e-02 1.028687879713093972e-01 1.114429436979266497e-01 1.205803561787961581e-01 1.302863189627747054e-01 1.405581971562004928e-01 1.513834146700572536e-01 1.627371291131177733e-01 1.745795770916678535e-01 1.868530827359349833e-01 1.994787375042562094e-01 2.123527812316274299e-01 2.253427447556918817e-01 2.382834552558230068e-01 2.509730587994922768e-01 2.631692825958839577e-01 2.745862438958849849e-01 2.848922143973012799e-01 2.937088680761759107e-01 3.006126739284016303e-01 3.051392369786701808e-01 3.067915297316604062e-01 3.050530734669048560e-01 2.994071964059062951e-01 2.893634739450488547e-01 2.744922911102102847e-01 2.544680906473633097e-01 2.291211999595173243e-01 1.984970771521850363e-01 1.629202964277161603e-01 1.230585489300376201e-01 7.997937266986893112e-02 3.518936440272030231e-02 -9.357430782674050485e-03 -5.129784726782594950e-02 -8.796176513454172230e-02 -1.165538198916443169e-01 -1.344246890839933817e-01 -1.394303106277740290e-01 -1.303582648877906480e-01 -1.073736547419130022e-01 -7.240409368022905634e-02 -2.935053415685915518e-02 1.601163129002203603e-02 5.657227847099526030e-02 8.494701881481203642e-02 9.502280065067716941e-02 8.376829788450897152e-02 5.285923045655842312e-02 9.464544132472985788e-03 -3.451712663127948222e-02 -6.523643036728163369e-02 -7.149080184085851442e-02 -4.990601977966622332e-02 -8.397736045228788859e-03 3.479316076239719058e-02 5.807162800301830796e-02 4.796169822875401278e-02 9.417165121961782598e-03 -3.316670455144613699e-02 -4.938850980085872366e-02 -2.583135558895393452e-02 1.842882165740394179e-02 4.276131504302285724e-02 2.217531573690198488e-02 -2.149253408180742952e-02 -3.649862320599780996e-02 -3.151424609188808231e-03 3.218052055754966334e-02 1.604959669921501159e-02 -2.504077702522567936e-02 -1.861090329242501284e-02 2.246675550145429967e-02 1.414745283135966300e-02 -2.403979374007699302e-02 -2.583072969999288416e-03 2.278746944341989572e-02 -1.428758231539182730e-02 -7.168701618372875020e-03 1.954748560488708820e-02 -1.686172795450481890e-02 5.969061215706526757e-03 4.839350560207763066e-03 -1.165832426511359196e-02 1.453482705472303529e-02 -1.505143239555599248e-02 1.461126835196078708e-02 -1.379149734080893815e-02 1.226094875821373900e-02 -8.961101563847394952e-03 2.818826579632160382e-03 5.435880857946837411e-03 -1.099162540434834093e-02 6.690808624623559818e-03 5.864320620201131026e-03 -8.364450607797776355e-03 -5.896251617575259951e-03 4.315546289435886682e-03 8.430349123848579138e-03 6.738755338062395704e-03 4.027657127512373515e-03 2.807549507636789704e-03 3.518397800455059371e-03 5.509891183080618642e-03 6.359975853311075795e-03 2.041089158072688890e-03 -5.216440989928777978e-03 -1.326939658527270544e-03 4.966046123003811132e-03 -5.018210130415948385e-03 4.634544739914783079e-03 -4.647359798630333952e-03 3.203602511033572069e-03 1.820370243407394258e-03 -3.268506138712195825e-03 -3.764284425543129066e-03 -3.189180503462891829e-03 -3.415195383958443808e-03 -2.687807884611844670e-03 1.812038762734390811e-03 1.042746886136391255e-03 -1.640309571152325039e-03 3.088913026835345891e-04 2.423924006442806402e-03 1.374526139706061653e-04 -4.619570348199124516e-04 9.990326903144997484e-04 2.011227346349180219e-03 -2.080861385378942989e-03 1.973714102409871926e-03 1.958506996030842488e-04 -8.363719711473958235e-04 2.084855096232762035e-04 1.572969132468749311e-03 -1.531046487104231616e-03 -1.505099133464600459e-05 6.374768092657326531e-04 -7.334149676490652001e-04 -6.275147320181510336e-05 -1.042302153673939401e-03 -5.946456896191216644e-04 -1.121286639421832957e-03 1.064059519511759578e-03 6.529814469638363459e-04 1.007101006691531273e-03 -9.368050841682921005e-04 -2.219239956159665787e-04 -8.746487406202825554e-04 7.563780842801008436e-04 7.387000223111567319e-04 -7.588097848575675467e-04 -4.098953623701222628e-04 -3.114519937423093307e-04 -6.651136317793552308e-04 3.069788780595099895e-04 -1.856916699996127645e-04 3.884375151560091541e-04 3.124899046672431320e-04 1.397490599991058015e-04 4.461377319152459004e-04 4.675213501445626887e-04 -1.207781993948445361e-04 3.203901437361967599e-04 -1.519273320839931141e-04 -1.537282815265067807e-04 1.851931287828089616e-04 3.185223302401727838e-04 -2.754855015363456123e-04 -4.142527215624518282e-05 3.079798391993744341e-04 -4.174734213257185822e-05 -2.103738251033765731e-04 -9.861851830038477170e-05 2.635985329510506206e-04 -2.049888862640179810e-04 -2.268933807113834096e-04 2.059271496581085601e-04 5.104353404066027820e-05 5.942356046373664251e-05 -1.533180645793644651e-06 1.905305365326946090e-04 -1.734764298407224408e-04 1.696951777805151974e-04 -9.204047413728092995e-05 2.644592571604461326e-05 -9.789218016637619318e-05 4.333554458245191887e-05 -1.125336862563612822e-04 1.172611724883790225e-04
