2.188362160431103052e-73 3.813512961446616540e-73 6.645555004596019327e-73 1.158076601956988700e-72 2.018102950126290436e-72 3.516813577293764881e-72 6.128516752162097246e-72 1.067975789903352087e-71 1.861090266934871044e-71 3.243198033537002417e-71 5.651705170679909908e-71 9.848850118305355797e-71 1.716293502995429734e-70 2.990870358509525340e-70 5.211990539961973339e-70 9.082588722497735186e-70 1.582762233920646706e-69 2.758174310942967359e-69 4.806486638678852246e-69 8.375944085962172252e-69 1.459619980353161355e-68 2.543582508646927303e-68 4.432531799632254324e-68 7.724277898576795415e-68 1.346058454885421800e-67 2.345686402999660689e-67 4.087671438967988645e-67 7.123312720568018957e-67 1.241332256581941791e-66 2.163187033444720090e-66 3.769641944653104030e-66 6.569103906033927024e-66 1.144753978278149191e-65 1.994886501307292497e-65 3.476355818463485601e-65 6.058013710875845178e-65 1.055689694542320346e-64 1.839680106965652401e-64 3.205887973956793293e-64 5.586687415186932488e-64 9.735548006833679602e-64 1.696549098767280779e-63 2.956463100490585869e-63 5.152031303370913210e-63 8.978101754926445574e-63 1.564553986094596242e-62 2.726444010348376912e-62 4.751192357452946600e-62 8.279586425325150234e-62 1.442828372688253512e-61 2.514320892482385491e-61 4.381539530293051614e-61 7.635417067441082534e-61 1.330573269750836449e-60 2.318701402338138220e-60 4.040646475784137406e-60 7.041365449538255666e-60 1.227051851502966589e-59 2.138301522711718756e-59 3.726275622675263638e-59 6.493532305247021558e-59 1.131584618768065607e-58 1.971937135650253801e-58 3.436363487486334590e-58 5.988321739356362140e-58 1.043544938840183891e-57 1.818516250077448383e-57 3.169007130105398024e-57 5.522417624887812395e-57 9.623549323592045775e-57 1.677031834124154562e-56 2.922451663170879979e-56 5.092761836524539620e-56 8.874816801953855624e-56 1.546555205118548406e-55 2.695078733246065437e-55 4.696534177522373285e-55 8.184337254456522929e-55 1.426229933848230165e-54 2.485395898181762591e-54 4.331133868345182213e-54 7.547578475812737986e-54 1.315266223080914332e-53 2.292026830939022312e-53 3.994162475517673478e-53 6.960360875721717453e-53 1.212935723447198339e-52 2.113702285570744016e-52 3.683408168641587178e-52 6.418830044619051129e-52 1.118566752654667755e-51 1.949251766064409074e-51 3.396831202238745217e-51 5.919431453842699475e-51 1.031539886653999702e-50 1.797595843357806926e-50 3.132550527123208557e-50 5.458887124157573229e-50 9.512838938162480598e-50 1.657739070098193297e-49 2.888831443417964740e-49 5.034174109478839844e-49 8.772719854328479612e-49 1.528763446634552495e-48 2.664074214168172471e-48 4.642504654560421527e-48 8.090183579253815553e-48 1.409822395351838900e-47 2.456803564804270944e-47 4.281307896390975498e-47 7.460750040663694867e-47 1.300135203791097515e-46 2.265658999525821234e-46 3.948212989174970320e-46 6.880287722773023187e-46 1.198981900075004290e-45 2.089385871028535048e-45 3.641033542109709190e-45 6.344986546974281596e-45 1.105698526993944163e-44 1.926827144946905064e-44 3.357753267782163826e-44 5.851332862170456704e-44 1.019672783721782932e-43 1.776915804930891938e-43 3.096512746944922757e-43 5.396086380519216198e-43 9.403400065402627425e-43 1.638667848481596207e-42 2.855597222745479285e-42 4.976258907099102545e-42 8.671794621707131505e-42 1.511175827532154882e-41 2.633425344222935567e-41 4.589094723750442536e-41 7.997109293584644772e-41 1.393602891329295138e-40 2.428538785093873551e-40 4.232052498157034861e-40 7.374915462376745560e-40 1.285177292448268105e-39 2.239592669563444642e-39 3.902788599186945650e-39 6.801129027386460225e-39 1.185187319793782307e-38 2.065346742153636850e-38 3.599141708663014376e-38 6.271983588921251993e-38 1.092976625212930824e-37 1.904657223369101910e-37 3.319118628135404296e-37 5.784005713481112236e-37 1.007939912891241283e-36 1.756469297448956954e-36 3.060881186934895314e-36 5.333992117666779166e-36 9.295189630327454306e-36 1.619810182503517948e-35 2.822734164824363426e-35 4.918988619611676878e-35 8.571989634504444317e-35 1.493782737026557635e-34 2.603114148972855842e-34 4.536270717869279596e-34 7.905051246228616420e-34 1.377559560117713725e-33 2.400579250777527060e-33 4.183325667723270794e-33 7.289995555105217578e-33 1.270377545758732779e-32 2.213799613252940645e-32 3.857835933866912550e-32 6.722783789742620744e-32 1.171532854151961815e-31 2.041548644299294258e-31 3.557663906286412399e-31 6.199690669918061505e-31 1.080376265452176118e-30 1.882694915128946603e-30 3.280837772953348840e-30 5.717279770206351718e-30 9.963088831759842141e-30 1.736194666434012506e-29 3.025538448492353797e-29 5.272380717873013688e-29 9.187781561257145282e-29 1.601084867448130704e-28 2.790087462213728174e-28 4.862068054699959098e-28 8.472741887686996704e-28 1.476476774798832857e-27 2.572935711591855334e-27 4.483641596446668661e-27 7.813263105889761029e-27 1.361549938813979202e-26 2.372652988154916572e-26 4.134608124322418064e-26 7.204998748820341341e-26 1.255546604547585752e-25 2.187918181454192088e-25
8.776844221837316586e-30 1.529476607915425290e-29 2.665306355002428999e-29 4.644631488661861018e-29 8.093850997001918230e-29 1.410454060452878882e-28 2.457890119456371658e-28 4.283174206061336330e-28 7.463950420500485160e-28 1.300682988681333819e-27 2.266594616778479029e-27 3.949807161560888254e-27 6.882996454737231100e-27 1.199440680206016361e-26 2.090160022727277292e-26 3.642334175928604213e-26 6.347160497508299425e-26 1.106059669623948556e-25 1.927422653840842226e-25 3.358726351060024963e-25 5.852904965112880532e-25 1.019923111519521708e-24 1.777306859349434013e-24 3.097107854750487941e-24 5.396958356513410876e-24 9.404604037529499569e-24 1.638817334372368806e-23 2.855742411208747655e-23 4.976291493159486726e-23 8.671430052886544615e-23 1.511031752418108729e-22 2.633020310424411946e-22 4.588094591368197131e-22 7.994803854618887487e-22 1.393093600940372325e-21 2.427445721895896665e-21 4.229754770891112884e-21 7.370160313349706560e-21 1.284205084043667351e-20 2.237624060605288830e-20 3.898833531506407729e-20 6.793234261299980670e-20 1.183619930494420146e-19 2.062249104035528972e-19 3.593043636834653319e-19 6.260018943001530694e-19 1.090635912534396118e-18 1.900089498051933155e-18 3.310224731239200722e-18 5.766721878388092311e-18 1.004586842443307929e-17 1.749974219048070583e-17 3.048316888058014634e-17 5.309716655223141102e-17 9.248337731794395309e-17 1.610776488812300445e-16 2.805331165932607196e-16 4.885488965392548055e-16 8.507550969957077868e-16 1.481395589727035763e-15 2.579316184215470502e-15 4.490575131581886780e-15 7.817352350080915318e-15 1.360736051388534369e-14 2.368319825968759991e-14 4.121491667082773142e-14 7.171516901744304140e-14 1.247683879208732828e-13 2.170345657131540023e-13 3.774655534014317689e-13 6.563604931705961544e-13 1.141080074693489460e-12 1.983304938826649738e-12 3.446297601955624398e-12 5.986806898229394293e-12 1.039693038579658635e-11 1.804967997448889798e-11 3.132377989154437478e-11 5.433798345114364893e-11 9.421942356669016261e-11 1.632924596254841394e-10 2.828524312622835389e-10 4.896650346132191705e-10 8.471468719471745083e-10 1.464574084562411467e-09 2.530036838841641570e-09 4.366888059059853859e-09 7.530269644957582449e-09 1.297185659048716577e-08 2.232044004312871273e-08 3.835869118530423685e-08 6.583119202065673541e-08 1.128100076456156340e-07 1.929952205938293546e-07 3.295769850173552143e-07 5.616937454308865355e-07 9.551849663494744341e-07 1.620407414553148704e-06 2.741595288672248114e-06 4.624950256660758280e-06 7.776872403475355714e-06 1.303024339040383846e-05 2.174649906155125492e-05 3.613576564120135739e-05 5.975827047806862570e-05 9.829936523783200516e-05 1.607491603082707155e-04 2.611656820549867054e-04 4.212534827330739057e-04 6.740358777897085618e-04 1.068912744079012584e-03 1.678328869225994549e-03 2.606048917844466361e-03 3.996520460287851170e-03 6.043839657310709837e-03 8.997230011024339585e-03 1.315757484331730488e-02 1.885650114113830364e-02 2.640639812545296505e-02 3.600810012044391994e-02 4.760568687556118034e-02 6.068943810839207142e-02 7.407372176928236907e-02 8.571989656153250481e-02 9.273089310754228931e-02 9.169319201985751122e-02 7.953745705179519898e-02 5.496125321606401548e-02 2.014086716438035635e-02 -1.803279765220176106e-02 -4.842301098789397740e-02 -5.900994506881416385e-02 -4.317234039036907389e-02 -6.393642900345768154e-03 3.189489132835410939e-02 4.672952617719591806e-02 2.567047811831171117e-02 -1.560648972241991672e-02 -3.943103054571400756e-02 -2.031481590298987380e-02 2.099464113423206088e-02 3.230975709727886003e-02 -2.762523536136856500e-03 -3.068958855544112047e-02 -4.548011643021918071e-03 2.752594704111899562e-02 1.956126089799772524e-03 -2.514982772507441330e-02 8.461280346329716484e-03 1.729333717769518733e-02 -2.015197761964387935e-02 3.379043858693310011e-03 1.338017904079311787e-02 -1.891737986413730144e-02 1.459985119325951132e-02 -6.607541363688281509e-03 -4.156199623702259288e-04 4.776235135434320211e-03 -6.548405473931867039e-03 6.203818159481521571e-03 -3.927597719972122405e-03 -3.286755196349753008e-04 6.066661647963910928e-03 -1.090278926625119424e-02 1.015078674547022219e-02 -8.608058527572190824e-04 -9.423894200586143549e-03 4.933060130695360312e-03 8.527774552063186950e-03 -8.024518408572174372e-04 -7.536148485104594841e-03 -7.875591233450737402e-03 -5.788388398611787888e-03 -4.446094957655107385e-03 -4.752041588050938924e-03 -6.121172508276540025e-03 -6.200715960218356089e-03 -1.473750648738264730e-03 5.384270161180451826e-03 1.214826074174712610e-03 -5.014521421445971086e-03 4.977654098230638660e-03 -4.490972814838992480e-03 4.619315868659222384e-03 -3.686666098233782121e-03 -9.920713041760185428e-04 3.763916327294000025e-03 3.374023547033379398e-03 2.428826428676025915e-03 2.883845436900399004e-03 3.279475508909942411e-03 -4.666973827420126380e-04 -2.298912589331560292e-03 2.663122310454767334e-03 -1.804312285133566037e-03 -1.291045396464078144e-03 1.506765096559544619e-03 1.948936745215566193e-03 7.813395136695828157e-04 -2.039576423760727005e-03
3.453222920845353322e-26 6.017614497693292415e-26 1.048632951484790721e-25 1.827350979183577620e-25 3.184342012584919578e-25 5.549024455448858961e-25 9.669693055297448503e-25 1.685030515355547652e-24 2.936309228421501986e-24 5.116755263983730850e-24 8.916331817034452431e-24 1.553733027369278939e-23 2.707478615847059802e-23 4.717935355285729567e-23 8.221235448717413873e-23 1.432584198182831813e-22 2.496324274372885953e-22 4.349901275158937985e-22 7.579754177749552952e-22 1.320772147759392832e-21 2.301428347025916243e-21 4.010176395965461812e-21 6.987561026263277308e-21 1.217540717501159284e-20 2.121469067507204327e-20 3.696449610689666845e-20 6.440613774965376663e-20 1.122182669091782445e-19 1.955208579249925406e-19 3.406553480012568184e-19 5.935115690989425156e-19 1.034032614515314523e-18 1.801480185177112349e-18 3.138441197277839259e-18 5.467473838241723261e-18 9.524594576493871119e-18 1.659174620474953201e-17 2.890161615645832574e-17 5.034253572095518677e-17 8.768580893627676146e-17 1.527224873398506758e-16 2.659831466246382388e-16 4.632127627259845721e-16 8.066400469829938943e-16 1.404589031992097811e-15 2.445603831730158374e-15 4.257818138319995837e-15 7.412228469998679078e-15 1.290230654298064648e-14 2.245632026330376167e-14 3.908030200510772768e-14 6.800177724170159433e-14 1.183096342620044159e-13 2.058028475414327160e-13 3.579376613966586990e-13 6.224161337243026701e-13 1.082090738410172221e-12 1.880819381274531381e-12 3.268296085463042580e-12 5.677745971286170100e-12 9.860504002432667627e-12 1.711898645375230402e-11 2.970972907840025469e-11 5.154013976327040243e-11 8.937206216657112932e-11 1.548989990993234278e-10 2.683277635142225924e-10 4.645476592776266164e-10 8.037442533631570018e-10 1.389636612450885248e-09 2.400769699058410879e-09 4.144124460802091781e-09 7.146805879839312622e-09 1.231255954139216187e-08 2.118839826457698664e-08 3.641775716377515134e-08 6.250871022200066605e-08 1.071326285807704674e-07 1.833126828303141642e-07 3.130991200011116267e-07 5.337175658331259885e-07 9.078102411192594876e-07 1.540413024172087368e-06 2.606947941511706715e-06 4.399101333970382560e-06 7.399508393602796400e-06 1.240240615173718888e-05 2.070686897289172876e-05 3.442325600979257420e-05 5.695374373115623883e-05 9.373608559200323704e-05 1.533774602289262093e-04 2.493523898452660345e-04 4.024915932524061771e-04 6.445363723102591437e-04 1.023051667241575008e-03 1.607934640849789350e-03 2.499546923967196650e-03 3.838018081277095195e-03 5.812352512597382739e-03 8.666436363850751196e-03 1.269674599733908865e-02 1.823356594375871026e-02 2.559436869806302334e-02 3.499611308472174581e-02 4.641535022098099150e-02 5.939552973655901069e-02 7.282507217980051240e-02 8.475139389562039161e-02 9.235194490346354534e-02 9.223464997464136950e-02 8.124357046712786523e-02 5.783291626788435863e-02 2.377568191646146217e-02 -1.450692486786510360e-02 -4.619180337601058728e-02 -5.910851357363430120e-02 -4.580068972467121052e-02 -1.038481359629190443e-02 2.886996900244429010e-02 4.684889955071475098e-02 2.905120811518226848e-02 -1.175575003171468180e-02 -3.888824997524299026e-02 -2.383368642509952479e-02 1.752783336771075381e-02 3.355181659557650298e-02 1.495601389417976212e-03 -3.022383269445915593e-02 -8.760341589177784299e-03 2.665520924680495757e-02 6.241321787639721869e-03 -2.531751870669355156e-02 4.309495809178798612e-03 1.991159026103233795e-02 -1.816462252781331915e-02 -9.683647808589306710e-04 1.633262901605685852e-02 -1.868377712842797522e-02 1.167625400182588542e-02 -2.402732077768249611e-03 -4.755591989019545933e-03 8.756556102816488371e-03 -1.020680499088505444e-02 9.852622271124532663e-03 -7.899888601570592694e-03 4.026775920419589302e-03 1.934169750584946966e-03 -8.529001937015954007e-03 1.130843695271390066e-02 -5.089012221187584270e-03 -6.894415587210847747e-03 8.166351916774748643e-03 5.869067053226347322e-03 -4.952421941655967864e-03 -8.558956415728515357e-03 -5.707734213039014279e-03 -2.091912916949108681e-03 -3.456234736878090099e-04 -7.871996150237571110e-04 -3.125730552934053753e-03 -5.949406051868675986e-03 -5.068861012723284258e-03 2.324994496788991387e-03 4.765126277265112516e-03 -4.805401090464511693e-03 2.340267179597130178e-03 -1.262550072850641188e-03 2.186282195636335586e-03 -4.115988023747269020e-03 3.082291483678807099e-03 3.089624353532023551e-03 -3.356161015903758754e-04 -1.720557643159784707e-03 -1.045034203258749699e-03 1.588642383590712932e-03 3.047935381671604358e-03 -2.325191667907801872e-03 1.391877147786388293e-03 -2.129229292231960696e-03 2.455311447716026964e-03 1.791738063771751302e-03 9.443036612649379500e-04 1.822226740301786160e-03 1.649564888419993453e-03 -2.129661696095477407e-03 1.987532407065350799e-03 -1.201765088175606449e-04 -1.336694794014475947e-03 -6.768852736476927302e-04 1.593622236164699175e-03 -1.341175974714108043e-03 1.360629999050411544e-03 1.446128899656865148e-03 1.159146562154615397e-03 -1.305188323080325391e-03 1.101311261974044454e-03 1.205558490012140693e-03 7.384496402565022925e-04 -8.990574409233292961e-04
4.279680492597024916e-24 7.457673199052807817e-24 1.299552978125865703e-23 2.264556375087301266e-23 3.946123265250803221e-23 6.876324472172040517e-23 1.198229769790171839e-22 2.087957659775951014e-22 3.638320041964119442e-22 6.339828483144006640e-22 1.104717579672431882e-21 1.924960805759058820e-21 3.354200995124504881e-21 5.844569248326987596e-21 1.018384548794609764e-20 1.774461418235262692e-20 3.091835273409869326e-20 5.387169976777900751e-20 9.386399298282779698e-20 1.635425655944740559e-19 2.849412897524444231e-19 4.964460552959777312e-19 8.649282364611114426e-19 1.506879685943596739e-18 2.625225719694556561e-18 4.573443096122908979e-18 7.967230027633340925e-18 1.387898355911336842e-17 2.417646827174034987e-17 4.211254448987035627e-17 7.335199406018268129e-17 1.277592693504809091e-16 2.225107672695559315e-16 3.875124284159627329e-16 6.748292563559240004e-16 1.175095800704366675e-15 2.046072155591351573e-15 3.562327445954550993e-15 6.201668835373318037e-15 1.079546720758674905e-14 1.879006934511441695e-14 3.270129335406730797e-14 5.690444410901524819e-14 9.900719919982608314e-14 1.722347586685421015e-13 2.995723935853067682e-13 5.209579093967459426e-13 9.057650159968028797e-13 1.574461152532720402e-12 2.736166118886228754e-12 4.753754633617565055e-12 8.256643396528069513e-12 1.433607702408672347e-11 2.488304371088982780e-11 4.317258621710655202e-11 7.487339892213723029e-11 1.297907869452550355e-10 2.248729142193384779e-10 3.893906928711627341e-10 6.738529513434970460e-10 1.165331508229924947e-09 2.013768996639936783e-09 3.477072583665953823e-09 5.998280470794785651e-09 1.033737197589846461e-08 1.779596215206189626e-08 3.059948242626648159e-08 5.254562656806032936e-08 9.010156910550649671e-08 1.542549290187887602e-07 2.636258001839008023e-07 4.496795194818274289e-07 7.654220389225761253e-07 1.299837536003804905e-06 2.201736493173311575e-06 3.718920161349359434e-06 6.262080572016553543e-06 1.050829572891378296e-05 1.756726773620727848e-05 2.924583086700325923e-05 4.846430088347335782e-05 7.990373586255666350e-05 1.309977616608931216e-04 2.134268789134332841e-04 3.453249430836721800e-04 5.544587462022760455e-04 8.826733000192497295e-04 1.391869918619326229e-03 2.171635374372348545e-03 3.348263080545883091e-03 5.094151724369833101e-03 7.635250200839971066e-03 1.125217419465466412e-02 1.626782225447627461e-02 2.301111263092506937e-02 3.174393254995309249e-02 4.253882902396350502e-02 5.510222142546468416e-02 6.855712909863681537e-02 8.123528124731542455e-02 9.058086631589076787e-02 9.332437757206568651e-02 8.611027749070980508e-02 6.669521244824173911e-02 3.560104819957816968e-02 -2.322768975229663746e-03 -3.749028996514898460e-02 -5.763102342066996758e-02 -5.298429330650733515e-02 -2.333056940422180772e-02 1.737749957911011861e-02 4.470944753601419075e-02 3.853901033990274339e-02 1.880873124642815086e-03 -3.403673990654640380e-02 -3.339837138982149761e-02 4.339361584202092864e-03 3.395373499439262310e-02 1.530763660396010709e-02 -2.457600905142401718e-02 -2.118221127257820940e-02 1.935304662574127005e-02 1.895060276644127198e-02 -2.066517480741909135e-02 -9.964770918285313639e-03 2.328316096642438909e-02 -6.890696253854234482e-03 -1.433202707118286408e-02 2.012010427896657877e-02 -1.116772040548136974e-02 -1.923645128750641094e-03 1.137814812776980974e-02 -1.547733768254470205e-02 1.595632842300014065e-02 -1.506408468320230912e-02 1.421628690090931402e-02 -1.377345875422527482e-02 1.312199315231215961e-02 -1.079036678499510973e-02 5.091589051931053739e-03 3.757463273534455452e-03 -1.054857065081090534e-02 6.701944081161292574e-03 6.200980278275486889e-03 -7.427654550336924150e-03 -7.217728954810379710e-03 1.572059053357120371e-03 7.113301588443859437e-03 7.911295405318312379e-03 7.069063788762418657e-03 6.668052110434348131e-03 6.836420234015767004e-03 5.900245817977243373e-03 1.275079226066298636e-03 -5.190163994215958934e-03 -2.661720742626520406e-03 5.449527690081014918e-03 -3.520693233234235830e-03 1.901377108197672278e-03 -2.170283564012925187e-03 3.838878720820550813e-03 -3.909327018156828239e-03 -1.525905300250992615e-03 2.666158879650502682e-03 3.648760605552595938e-03 3.489160279682788912e-03 2.299551963866847820e-03 -1.518232029509614589e-03 -2.229582596002923581e-03 2.936338912013870383e-03 -2.710917220113877400e-03 9.903962956225194608e-04 2.503898440799649881e-03 1.491471195557661066e-03 1.791264943739388597e-03 2.085390321677991002e-03 -1.683399989126489402e-03 1.487205804818571937e-03 -1.937921578047955640e-03 -1.140164036008288733e-03 -1.138061180808912654e-03 -1.615587668090825860e-03 1.554100162810941261e-03 -1.483064056082567276e-03 -1.035688390668904882e-03 -1.253781377186788783e-03 -3.435873926993937436e-04 1.396213556964777212e-05 1.180832225160892033e-03 8.329192635220388245e-04 -1.128798053219517853e-03 6.029183688954942600e-04 6.709627097963431113e-04 -9.352298595629897826e-04 7.308387413589629731e-04 6.151509643599081898e-04 -8.401382633666923177e-04 -3.987534369715543272e-04 -7.463621183821872798e-04 2.270576912286119647e-04
1.294066878892754722e-22 2.254955565921420112e-22 3.929315065781626489e-22 6.846885788517398525e-22 1.193071367909388897e-21 2.078914328114796172e-21 3.622457370302627963e-21 6.311987912816379930e-21 1.099828192550377480e-20 1.916368156284017337e-20 3.339089086913340231e-20 5.817970848327119031e-20 1.013698989523318588e-19 1.766199820854794294e-19 3.077254136174884989e-19 5.361408382379135086e-19 9.340833582575097852e-19 1.627356674222651830e-18 2.835105984399596320e-18 4.939059492941716262e-18 8.604120835977392889e-18 1.498838345986549416e-17 2.610885265404752562e-17 4.547827583165123907e-17 7.921396980273676109e-17 1.379683152215624412e-16 2.402894912028672851e-16 4.184714918281387548e-16 7.287361241278028351e-16 1.268952749937347818e-15 2.209471956036538016e-15 3.846770768713362980e-15 6.696771343079471492e-15 1.165714581560247010e-14 2.028955223786800530e-14 3.531031984088541341e-14 6.144334256816416030e-14 1.069021809009311708e-13 1.859648531982919654e-13 3.234455610563916754e-13 5.624583123056695497e-13 9.778908996438667384e-13 1.699780019674681360e-12 2.953845441856926865e-12 5.131745353448690822e-12 8.912781078770484849e-12 1.547460585475504176e-11 2.685779394777702265e-11 4.659617578262694074e-11 8.080583581156685115e-11 1.400649174835928118e-10 2.426554640081411479e-10 4.201484121364946551e-10 7.270144143171080959e-10 1.257141749901182732e-09 2.172186191116677602e-09 3.750154275801820535e-09 6.468521153062529788e-09 1.114616832999478834e-08 1.918527124410451240e-08 3.298258872850368225e-08 5.662704546816396332e-08 9.707961985260998497e-08 1.661628827623497422e-07 2.839043629429876869e-07 4.841337338924261015e-07 8.238137178648591262e-07 1.398522335592114628e-06 2.368006975665702700e-06 3.998114531702974008e-06 6.729137827224792143e-06 1.128639178914174315e-05 1.885760583922670603e-05 3.137478230561246278e-05 5.195713907679544018e-05 8.559842626986383779e-05 1.402178346818954487e-04 2.282392404421218143e-04 3.689158952185828989e-04 5.916676618432420345e-04 9.407244218621297433e-04 1.481331420058183777e-03 2.307599097810637215e-03 3.551660166226248798e-03 5.392974702783300336e-03 8.065215219965927995e-03 1.185601192199984937e-02 1.709195131991839145e-02 2.409802155420243466e-02 3.311840974274572053e-02 4.418667199132945977e-02 5.694188029024779829e-02 7.040864036850777441e-02 8.279723399504289316e-02 9.143421582401503600e-02 9.298838400130787774e-02 8.417374241079049468e-02 6.302536618966272930e-02 3.058422241793758850e-02 -7.626130118609547592e-03 -4.145555103146829345e-02 -5.860360579187496449e-02 -5.020823733990120719e-02 -1.786343142861018807e-02 2.255331406637276978e-02 4.610258498457346643e-02 3.483065242874441858e-02 -4.079544100671260443e-03 -3.667816512136460455e-02 -2.974540065131761613e-02 1.024598233121241930e-02 3.449522508154472672e-02 9.538642447350767495e-03 -2.774203031947185955e-02 -1.625859108304337358e-02 2.326471533704185801e-02 1.392388284576307443e-02 -2.361161155857358085e-02 -3.930874388625922242e-03 2.291566413300885965e-02 -1.245594761231710174e-02 -9.042167654545327921e-03 1.974283985394723398e-02 -1.554981747044478085e-02 4.351596981932707997e-03 5.864378060209621962e-03 -1.191967599635701189e-02 1.429520990179281026e-02 -1.460925468260377419e-02 1.407260037439422504e-02 -1.298709830628425911e-02 1.074920558429958047e-02 -6.214059149064713773e-03 -1.131647890461552966e-03 8.874533123528729334e-03 -1.040518834596089633e-02 8.595471850345727353e-04 9.597018963501954131e-03 -2.071853595361380657e-03 -9.037788141162845026e-03 -4.559026556705201780e-03 2.093216093013399240e-03 5.686345789969399558e-03 6.639687144747937614e-03 6.302551554322191434e-03 4.728316548066557184e-03 8.906048566929405724e-04 -4.554999562861105494e-03 -5.082266190300358151e-03 3.390919362408096639e-03 2.421643371094786210e-03 -4.766569559496240151e-03 4.915365152052440616e-03 -4.568606232624513631e-03 2.960406922977455810e-03 1.510590494463160760e-03 -3.843476965253864001e-03 -3.041279388281874999e-03 -1.419838377025145135e-03 -1.598749086919019728e-03 -3.099627403963473981e-03 -2.100279720648814963e-03 2.963934443146473609e-03 -2.068431658927180096e-03 2.388290967117630715e-03 -2.476341483056780732e-03 -1.512201408429388310e-03 -2.240838152811229695e-04 -9.731424031478993694e-04 -2.239330192960303865e-03 1.425146184093504945e-03 -1.440165413117546660e-03 1.867848597454813565e-03 1.495776587296362677e-03 1.610256745124654700e-03 9.900971660454979933e-04 -1.455113985886366318e-03 4.237201574773143803e-04 1.387142626995688287e-03 9.080187225184017897e-04 -1.313190821577045649e-03 1.258029128316805016e-03 8.708353060496763038e-04 1.174784004494658883e-03 -8.891666249023325074e-04 8.525235146189969349e-04 6.999828496961857339e-04 -9.759942882051605767e-04 3.019624498559858703e-04 -1.160634392716881056e-04 -1.255489693022255454e-04 -7.054803928915162788e-04 4.891468670022726915e-04 -6.626206299855773177e-04 -2.795520880557452814e-06 -5.632925488148367429e-04 -5.843647617285875184e-04 -4.177036399427025301e-05 -5.874247656589349272e-04 -2.742882996982976191e-04
1.798908213788971086e-21 3.134560330070532288e-21 5.461859654727736652e-21 9.517006239445909910e-21 1.658271700163030512e-20 2.889389612719788248e-20 5.034439555631187922e-20 8.771830627116074625e-20 1.528350109270284019e-19 2.662860074052277706e-19 4.639444969190044844e-19 8.083047656890687314e-19 1.408234077838199079e-18 2.453376755505438847e-18 4.274076868457869210e-18 7.445742262482475982e-18 1.297059958931655617e-17 2.259421039119894944e-17 3.935662936037638302e-17 6.855208168454436946e-17 1.193998207989880899e-16 2.079529403687402802e-16 3.621618654451858731e-16 6.306876539630392114e-16 1.098240285188009241e-15 1.912269360404363717e-15 3.329403061220077387e-15 5.796234590348001136e-15 1.008983678831815532e-14 1.756211893298443286e-14 3.056468045769129859e-14 5.318732351916653452e-14 9.254147766795813447e-14 1.609900029835227372e-13 2.800200777240627167e-13 4.869677444122005947e-13 8.466896863387190190e-13 1.471814005160135680e-12 2.557860707329585781e-12 4.444121763966850182e-12 7.719139905265148090e-12 1.340335394176001700e-11 2.326516694099322226e-11 4.036752761842643000e-11 7.001242831021704595e-11 1.213716518212690563e-10 2.102998069379525217e-10 3.641819318870693544e-10 6.302779503942331291e-10 1.090068950206715761e-09 1.883889018472122935e-09 3.253154239909388100e-09 5.612642169037135417e-09 9.673982959701536358e-09 1.665622687194816295e-08 2.864409799181097454e-08 4.919603447503310700e-08 8.437339579623495275e-08 1.444773649184957149e-07 2.469704593303538258e-07 4.213725062991845360e-07 7.174319154228663206e-07 1.218701131957222035e-06 2.064975480082274978e-06 3.489170728776177896e-06 5.877542201985562788e-06 9.867310373195262900e-06 1.650363896102212454e-05 2.748971379016307146e-05 4.558093044050255183e-05 7.519869239591326260e-05 1.233727317696994526e-04 2.011639859257513844e-04 3.257711963137264869e-04 5.235764366172688047e-04 8.344203905159328473e-04 1.317382537870902086e-03 2.058212386534780548e-03 3.178215565747633062e-03 4.843698582671459273e-03 7.273837900638642669e-03 1.074289005404659852e-02 1.556994587089794227e-02 2.208623606180017129e-02 3.056728916341889396e-02 4.111714498402036649e-02 5.349798886721109786e-02 6.691603710704388530e-02 7.980819725644719420e-02 8.972474243304329189e-02 9.346030984922648610e-02 8.761734899238653174e-02 6.973439790689865692e-02 3.990258803828548861e-02 2.386175826876738015e-03 -3.375723639590395148e-02 -5.636779114532480123e-02 -5.501123013675433826e-02 -2.795338139797249807e-02 1.260215604370168441e-02 4.291733346077981903e-02 4.127808373117553692e-02 7.133004864763970582e-03 -3.107739039329985090e-02 -3.595394041967892029e-02 -9.965600743364055880e-04 3.260220185853020952e-02 1.998466610310026606e-02 -2.098274552155396031e-02 -2.479658982678980758e-02 1.511778625862104583e-02 2.258048639740070293e-02 -1.704552727558333869e-02 -1.478573497984466030e-02 2.222369250796638052e-02 -1.493486307591785842e-03 -1.799174675879892590e-02 1.884259467813241898e-02 -6.283320859909027889e-03 -7.319425754324588966e-03 1.506503841554154496e-02 -1.681697413307096933e-02 1.536169526937835803e-02 -1.331490272293728988e-02 1.210861011880371048e-02 -1.209475550700019400e-02 1.275052969681141762e-02 -1.263354720304219782e-02 9.498615445040371058e-03 -1.774832802041053422e-03 -7.767738998290972183e-03 9.926079500872288935e-03 1.086487023239546485e-03 -9.556276414658941565e-03 -2.697229753951864255e-03 6.436053606107621297e-03 8.267658826486801518e-03 5.795165112944680209e-03 3.412901345235921750e-03 2.826006023093312683e-03 4.089702323397788331e-03 6.099648572468400858e-03 5.626025197131549575e-03 -6.573470956018581017e-04 -5.722731634523683594e-03 2.504256813616934519e-03 1.734451561397137246e-03 -3.367219717067490310e-03 3.112129749972842013e-03 -1.044675231157486499e-03 -2.865205830717774960e-03 3.459275045429960945e-03 3.287962920055536708e-03 1.236947851123173635e-03 9.138610183977616914e-04 2.407992310657228099e-03 3.113670851277001821e-03 -1.654265547697076743e-03 -3.621859290137496119e-04 2.328932528114742505e-04 1.776940684424130725e-03 -1.996174339533357892e-03 -2.495531489720955245e-03 -2.382102299583372957e-03 -1.118266263872139772e-03 2.153498860084124365e-03 -1.949770652079427539e-03 1.767096525649951635e-03 1.360221710610293698e-03 1.157558131535050151e-03 1.689491586591131567e-03 -1.344559112653597550e-03 1.558463764723778391e-03 2.074480277284571409e-04 3.799701376963664440e-04 1.298452213778475460e-03 -1.218208380841746298e-03 -5.849301556471081564e-04 -8.138033759358134995e-04 -3.650179169396138425e-04 -5.000540018522586826e-04 -1.193142614871644711e-04 -9.596678415510209118e-04 5.309250695351667038e-04 6.115963696146241215e-04 -8.581721528643581438e-04 7.276406086627916286e-05 -6.370389149627939335e-04 7.498926705818353359e-04 6.766789566726825892e-04 -5.930545997496516116e-04 -4.987902233519256453e-04 3.247551835165054623e-04 -4.171370954437815954e-05 5.180670488966439887e-04 1.526823641757478662e-04 4.088406332123356427e-04 -2.536519117943540234e-04 4.033574581342011154e-04 3.366396622209100664e-04
1.534219275086224872e-20 2.673243804155844691e-20 4.657837987402635942e-20 8.115669391658124892e-20 1.414027668201557340e-19 2.463680796669489644e-19 4.292430360320981411e-19 7.478484846252868981e-19 1.302910840935942165e-18 2.269894103229264154e-18 3.954443065314617763e-18 6.888946394795870344e-18 1.200070727899177952e-17 2.090480565400525880e-17 3.641407227636415469e-17 6.342706553299348913e-17 1.104741121051753117e-16 1.924088580726747952e-16 3.350936305823089925e-16 5.835547083178705025e-16 1.016175640710742054e-15 1.769396004327854465e-15 3.080685464949873806e-15 5.363304260728032850e-15 9.336339848512970959e-15 1.625084844982699064e-14 2.828305021140336965e-14 4.921783263167623280e-14 8.563661978568491154e-14 1.489812394084715685e-13 2.591387541675657734e-13 4.506661446958050298e-13 7.835950338178958511e-13 1.362179175014775035e-12 2.367409845794593390e-12 4.113383939871951553e-12 7.144972832684926745e-12 1.240695816562594504e-11 2.153674838230239100e-11 3.737062845458406873e-11 6.481866066205764656e-11 1.123754496173954410e-10 1.947265567136925553e-10 3.372406999462388245e-10 5.837036829094565496e-10 1.009617386285493377e-09 1.745037944082231789e-09 3.013738150033151131e-09 5.200254127621530347e-09 8.964466282646013607e-09 1.543703074255892829e-08 2.655198800853570117e-08 4.561147858676551482e-08 7.824199336687684407e-08 1.340088589069020104e-07 2.291331593805382722e-07 3.910473129902117847e-07 6.660027998524991125e-07 1.131717846017885571e-06 1.918298449124781192e-06 3.242650388019186481e-06 5.464725375732626533e-06 9.178803144593027750e-06 1.536044695071827270e-05 2.560093801102180421e-05 4.247738638846300033e-05 7.013008737450411058e-05 1.151507735951761113e-04 1.879271959963254028e-04 3.046397408037448398e-04 4.901584474468602490e-04 7.821283098636658574e-04 1.236525261767124290e-03 1.934857144786411923e-03 2.992879169518560152e-03 4.570053738763376998e-03 6.877833079167212579e-03 1.018300142212686180e-02 1.479970071084933149e-02 2.106059735836085176e-02 2.925477651227757422e-02 3.951930470860086364e-02 5.167640807906394990e-02 6.502376760133471434e-02 7.811664914648648594e-02 8.862920016245076638e-02 9.343975103255763859e-02 8.912321468433788418e-02 7.299801445059136973e-02 4.469204016570382798e-02 7.811344115086799045e-03 -2.922225498423414863e-02 -5.446533164132440208e-02 -5.684401427812787316e-02 -3.299142862438732282e-02 6.933054524514314920e-03 4.024136938060155627e-02 4.377512676815028397e-02 1.306518406886595859e-02 -2.702088594528139279e-02 -3.806860156332930040e-02 -7.127774000777291341e-03 3.009204243551072411e-02 2.472905781428106839e-02 -1.607617957240607340e-02 -2.796258083199462674e-02 9.555546325538800609e-03 2.563960148809678319e-02 -1.193236303172890735e-02 -1.943648343108653545e-02 1.950036353153158930e-02 4.833394450856605060e-03 -2.072048195052502914e-02 1.565749063707119401e-02 -3.418406713088725790e-05 -1.271451103509650682e-02 1.746855953721825408e-02 -1.610311874513596642e-02 1.241576207683352598e-02 -9.151470205766183696e-03 7.537138818987755735e-03 -7.807423355893034628e-03 9.589189490462241700e-03 -1.176652178293143350e-02 1.208008997316431000e-02 -7.585571153492858334e-03 -2.187627090194467060e-03 1.022161093147077454e-02 -5.130700209229696260e-03 -8.079006443616030750e-03 3.624472776672121692e-03 8.799049549662580835e-03 5.169336538603207243e-03 4.622515275299319583e-05 -2.854188121576248759e-03 -3.426867244242579394e-03 -2.055633897330997120e-03 1.314799304151896553e-03 5.416322816680977509e-03 4.973115449426885638e-03 -3.046958554914064136e-03 -3.567085112901714674e-03 5.278348889318869828e-03 -4.524477810062210725e-03 4.247944600316199554e-03 -4.580059085691524229e-03 3.033459743666592351e-03 2.388685552695117738e-03 -2.419559402266362961e-03 -3.739538926774045677e-03 -3.639683470464618112e-03 -3.095800861045720082e-03 -1.647090210419437659e-04 3.161663400269517504e-03 -2.320153575323692478e-03 2.095231930254907310e-03 -2.750191598381918155e-03 5.068973225000910536e-04 2.199024917304166164e-03 2.120130372682154252e-03 4.717001913715399529e-04 -2.187647378683745848e-03 1.983592913592121827e-03 -1.871784336992342269e-03 -9.642440304029138622e-04 -4.716902539135780213e-04 -1.600484440062515399e-03 2.888923681694695864e-04 -7.177071371046674000e-04 1.289101541213538140e-03 1.283237569055109681e-03 -4.269848601980660873e-04 1.835676995476426179e-04 -1.255514771830400049e-03 -1.197986277145131773e-03 3.133455866381754042e-04 -7.942140315923678371e-04 -1.748738970469272496e-04 -9.963680855141732965e-04 8.674579191385738174e-04 9.071985039015932053e-04 -2.290536588201352234e-04 8.248337131881301569e-04 6.632659955841026939e-04 -5.222236959248346229e-04 -5.344669927545492912e-04 6.052939703152153492e-04 6.398852018404522059e-04 -6.251525372758197753e-04 -5.859006769105826922e-04 4.097330677189925927e-04 -1.976285721824384053e-04 3.805245994777839056e-04 -4.286823471857159943e-04 -4.451100940688074571e-05 -3.617942345061704221e-04 7.374520818388439016e-05 -2.834842379753973888e-04 2.543578394560886032e-04 3.631053009309970409e-04
9.314942574362954279e-20 1.622975850708207220e-19 2.827722195141113414e-19 4.926670677517599939e-19 8.583445794334703665e-19 1.495410097130183261e-18 2.605244760396450569e-18 4.538635704673227724e-18 7.906596619456073033e-18 1.377336592782088103e-17 2.399249986506629976e-17 4.179211628163849748e-17 7.279391332683429634e-17 1.267873280140924412e-16 2.208181547368795557e-16 3.845649743294215130e-16 6.696970297651048899e-16 1.166160053185306928e-15 2.030515401956147605e-15 3.535246334575111111e-15 6.154531017556806323e-15 1.071342759195726869e-14 1.864730355144175301e-14 3.245288516874961716e-14 5.647228555830563727e-14 9.825549061683862113e-14 1.709274498062623269e-13 2.972992774090212523e-13 5.170063229769451648e-13 8.988972001659434532e-13 1.562528057812007091e-12 2.715437811943330408e-12 4.717759914022466947e-12 8.194159987414166164e-12 1.422765262357130254e-11 2.469497795256790495e-11 4.284652793758860729e-11 7.430837840812737986e-11 1.288122089601527917e-10 2.231791008299897656e-10 3.864608191300459918e-10 6.687886768241129711e-10 1.156584903421035030e-09 1.998675789812553461e-09 3.451052680538641337e-09 5.953470925640509526e-09 1.026029396962968493e-08 1.766354775744119683e-08 3.037232377937783435e-08 5.215653525597992360e-08 8.943624313611127507e-08 1.531193861341676433e-07 2.616917117757577408e-07 4.463928073606718505e-07 7.598507118795507039e-07 1.290419606517030536e-06 2.185864629774472317e-06 3.692261505877143496e-06 6.217470487957479652e-06 1.043395250019525171e-05 1.744393663933782850e-05 2.904226116012840881e-05 4.813016448880204313e-05 7.935868702824367066e-05 1.301147944762383725e-04 2.120074695027756922e-04 3.430627262686272044e-04 5.508878433107472017e-04 8.770972528886056404e-04 1.383268181123302118e-03 2.158547620245583436e-03 3.328658953952039288e-03 5.065307430541160678e-03 7.593676088521377453e-03 1.119367094933873021e-02 1.618778603586975076e-02 2.290525267036173929e-02 3.160958633707899867e-02 4.237701860281351679e-02 5.492042592158203479e-02 6.837237910973903432e-02 8.107656452370305689e-02 9.048903721647204301e-02 9.334708877745909184e-02 8.628956304761568885e-02 6.704723988131014445e-02 3.609212897832024536e-02 -1.792815832948060906e-03 -3.707990126169216638e-02 -5.750729097287690661e-02 -5.323280853705777277e-02 -2.386196324937937124e-02 1.684784459875978552e-02 4.453324059771474747e-02 3.887345495058702749e-02 2.474965702496778608e-03 -3.373145086674396442e-02 -3.371873125793540399e-02 3.741225037378340806e-03 3.384161312051760240e-02 1.585690521565595937e-02 -2.420617796209236991e-02 -2.162647157881592008e-02 1.890912038356971220e-02 1.940082492938637743e-02 -2.030166152452545641e-02 -1.053707529189679831e-02 2.322776490612313977e-02 -6.298233935802293598e-03 -1.479752989826772433e-02 2.005036211058934537e-02 -1.065684069116924412e-02 -2.549070988264874951e-03 1.185777898328634235e-02 -1.571743306067997087e-02 1.598636731960185325e-02 -1.496509708799977079e-02 1.407958408423265299e-02 -1.369293783883956256e-02 1.319813802787609888e-02 -1.111268807822590743e-02 5.661864558760287131e-03 3.155334215333171089e-03 -1.036275411091682613e-02 7.181283556158886416e-03 5.694940789797780026e-03 -7.814250200820960571e-03 -6.817812523286782313e-03 2.193181959839642439e-03 7.423857928540868178e-03 7.861022508510333295e-03 6.823459803186149135e-03 6.403537958201447819e-03 6.733222461083395935e-03 6.156997496635202571e-03 1.891269648151124028e-03 -4.846660612672706002e-03 -3.209170457165675880e-03 5.372832656508093677e-03 -3.028364545569121533e-03 1.300336094798890119e-03 -1.587526769557808014e-03 3.465299297246514105e-03 -4.143012675693234607e-03 -9.193076337961378179e-04 3.100967584197225797e-03 3.758395955339510937e-03 3.592238711716903930e-03 2.732208001544664429e-03 -9.295968070610494821e-04 -2.629362552002795575e-03 2.991387307908626413e-03 -2.843591601779909672e-03 1.552230128755659709e-03 2.259032633893791418e-03 9.397362517239634403e-04 1.315567748289335134e-03 2.250093755635776058e-03 -1.217856328009219629e-03 9.830117768580681065e-04 -1.953327334500961146e-03 -5.789373982283531426e-04 -5.852395374200770667e-04 -1.715951792924182758e-03 1.242862614904239466e-03 -1.559264417868644510e-03 -4.983586140035716882e-04 -8.382546881949063094e-04 -9.011502871873734678e-04 6.242719367080800524e-04 1.216446857725529858e-03 1.147477464197373294e-03 -9.173927805305563676e-04 9.999247741067543004e-04 1.000970859510869494e-03 -5.615117885392625300e-04 9.404466599753881972e-04 8.928884115865187666e-04 -7.326503798552296822e-04 2.177596842787625725e-04 -6.795901391942436864e-04 6.850828643671786873e-04 3.475198257169157586e-04 6.975491872691663933e-06 3.330976468804670246e-04 -5.832576256990648286e-04 -4.699129623184457511e-04 -3.005633790160760132e-04 -2.367477041767677200e-04 -3.078363995901677833e-04 -9.302524639878192319e-05 -3.699859788493052430e-04 -2.474151306535236601e-04 -4.199337913280340169e-04 3.620129396022898969e-04 -3.874802899099781279e-04 1.899645816468716573e-04 3.255487193200847732e-04 -1.166518252639859853e-05 -3.075795041392628782e-04
4.419236353595767444e-19 7.699404276002850581e-19 1.341398118461268307e-18 2.336942525173043673e-18 4.071244147207411874e-18 7.092411921966103840e-18 1.235512798555409102e-17 2.152215371222475153e-17 3.748935374642197891e-17 6.529987448203525481e-17 1.137357970803167960e-16 1.980890833686066794e-16 3.449851200919823668e-16 6.007784597761405562e-16 1.046164559309785748e-15 1.821606480623204330e-15 3.171575188213765523e-15 5.521512217860025129e-15 9.611695530946685531e-15 1.673003794999705238e-14 2.911685228359261001e-14 5.066845868443189630e-14 8.815997653455435537e-14 1.533698370791493854e-13 2.667698939090564441e-13 4.639327997797135068e-13 8.066536338665094782e-13 1.402246846102407759e-12 2.437013840622617846e-12 4.234260283786938437e-12 7.354819737638387768e-12 1.277112774596482864e-11 2.216847466398634078e-11 3.846599935139095257e-11 6.671703350861189379e-11 1.156637320176195807e-10 2.004190317591288326e-10 3.470888005393739419e-10 6.007290115867481927e-10 1.039027711966377901e-09 1.795799161151404107e-09 3.101267817824331553e-09 5.351029036447790052e-09 9.223889462313563536e-09 1.588283602588667486e-08 2.731702803430128545e-08 4.692236728032715142e-08 8.048445074516942587e-08 1.378378681821778784e-07 2.356580306140773482e-07 4.021414036587801728e-07 6.848196586180954436e-07 1.163547282641779659e-06 1.971978883845741306e-06 3.332885129440967093e-06 5.615856029663319485e-06 9.430910595970474648e-06 1.577913169506505947e-05 2.629284697269373332e-05 4.361458958413304716e-05 7.198786018013804248e-05 1.181652881903306129e-04 1.927820773285436455e-04 3.123932300739874789e-04 5.024255088453764536e-04 8.013332213102738110e-04 1.266237758046164169e-03 1.980215095256756055e-03 3.061076955405406513e-03 4.670829485384042461e-03 7.023809835928069602e-03 1.038961935762241703e-02 1.508432108553581751e-02 2.144018975082995215e-02 2.974148866277491823e-02 4.011329925378719768e-02 5.235585659925477003e-02 6.573310183183302124e-02 7.875630191568534777e-02 8.905300807539646979e-02 9.346903414117185838e-02 8.858711042356541554e-02 7.180435901545309529e-02 4.291817655160345968e-02 5.779138843690224958e-03 -3.094966218818655246e-02 -5.523308401449637112e-02 -5.622021463138909131e-02 -3.114160889274632943e-02 9.075010291317055222e-03 4.131829865042873501e-02 4.292334609552678898e-02 1.086256910707819254e-02 -2.861716857721311943e-02 -3.738221085705085989e-02 -4.840994765939795469e-03 3.114755211717650657e-02 2.304032689439970347e-02 -1.800049893520816111e-02 -2.690841013611080385e-02 1.171084477608719254e-02 2.464290115492762459e-02 -1.395001181866902147e-02 -1.782407383042324683e-02 2.069875362114130535e-02 2.477318339968980973e-03 -1.989908448364516649e-02 1.704964780132042779e-02 -2.416142653139775366e-03 -1.083355454836898955e-02 1.682001331094005667e-02 -1.665174421020549148e-02 1.378078045005798162e-02 -1.094384782717029367e-02 9.473558056471483718e-03 -9.663404830721393154e-03 1.108316395632361409e-02 -1.246549571332367795e-02 1.148013594038981358e-02 -5.588337512851581160e-03 -4.477405235782457200e-03 1.056847876079045762e-02 -2.911110374262666171e-03 -9.117235486854214505e-03 1.295489744642747349e-03 8.431214392994469675e-03 6.822599355430008713e-03 2.425370129923481305e-03 -4.987989251030102052e-04 -1.134509195647025832e-03 3.378496476370291667e-04 3.545598187487467023e-03 6.249579162821445460e-03 3.219720672076154845e-03 -4.775695396559326983e-03 -1.429924041468983364e-03 4.710961557728831489e-03 -5.025239631419184221e-03 4.798520547370978967e-03 -4.117706301412237674e-03 9.127631622485271427e-04 3.872769208107858501e-03 -1.698998930317192598e-04 -2.550278017838293349e-03 -2.758683325964851520e-03 -1.348654395263961013e-03 2.087702007645493921e-03 2.111324346469593827e-03 -3.002718348172709120e-03 2.873322114137858655e-03 -1.916333104645208613e-03 -1.749663159752655591e-03 2.458962842407517091e-04 1.683634272587654368e-04 -1.721949804177689679e-03 -9.077525140329127575e-04 1.387492999341196536e-03 1.018517935760221405e-06 -1.847890066046840776e-03 -1.813654959201590165e-03 -9.347025892067733609e-04 1.649857067647237871e-03 -1.432155219828351979e-03 -8.339020941865819001e-04 -7.985553821890856640e-04 -1.200744212150511251e-03 1.199977586018226858e-03 4.732028706947729408e-04 5.711596947108138434e-04 7.715911601272195004e-04 -1.143997380134104347e-04 -6.257193923390905275e-04 7.621337662850541980e-04 -9.362337845024048437e-04 -7.884414370951874865e-04 -6.244382746782539109e-05 -7.905320569534623858e-04 -6.891907467612224183e-04 4.770900093377679731e-04 4.089659228901149817e-04 -4.343385029046165926e-04 -4.632535087610974915e-04 4.297391539014183020e-04 2.578559323790949689e-04 1.737313677604029080e-04 5.413130453125426442e-04 3.358400221078492527e-04 -3.211057430889777977e-04 -4.516307899179158652e-04 -4.350525725268501015e-04 3.228220097679031274e-04 -3.785688559898270052e-04 2.130390788956313926e-04 3.738213009597898969e-04 3.521958670527618619e-04 3.369935552056149935e-04 3.240976357094884383e-04 2.926270941194706286e-04 1.218674949757136728e-04 -2.719536092089346177e-04
1.733243889940558611e-18 3.019569043833721621e-18 5.260397198777934403e-18 9.163877217070240416e-18 1.596341811687679028e-17 2.780718663391748552e-17 4.843633222342956865e-17 8.436587889098304500e-17 1.469406656251912552e-16 2.559144274102037094e-16 4.456798130002277544e-16 7.761116378311748564e-16 1.351437140861389613e-15 2.353071125289121060e-15 4.096742407213790561e-15 7.131866432365540152e-15 1.241437588531149705e-14 2.160725333215138107e-14 3.760301352678521884e-14 6.543184082272325997e-14 1.138396429678762132e-13 1.980294456532067260e-13 3.444222915524614894e-13 5.989225873673005356e-13 1.041262214421527045e-12 1.809883993747580902e-12 3.145089173171890668e-12 5.463817961098171677e-12 9.489185110155224364e-12 1.647473073594519453e-11 2.859239021339168740e-11 4.960323244820058356e-11 8.601615285118961295e-11 1.490877806651483482e-10 2.582710568514027025e-10 4.471556577285791881e-10 7.736890609348195507e-10 1.337740636825773738e-09 2.311242104649267709e-09 3.989829935718000510e-09 6.881179095088677705e-09 1.185581432023787609e-08 2.040405674018123311e-08 3.507280019282300874e-08 6.020609907881016065e-08 1.031973784544615276e-07 1.766001436998893705e-07 3.016735154398908575e-07 5.143151635886255809e-07 8.749468958566580432e-07 1.484907950421159606e-06 2.513495581426789527e-06 4.242302686036579779e-06 7.137430429708222673e-06 1.196621347433151626e-05 1.998428424176204181e-05 3.323244985501576306e-05 5.500260738900838525e-05 9.055957902031075435e-05 1.482427863377605657e-04 2.411182095853478470e-04 3.894038017797477090e-04 6.239402057647809932e-04 9.910003620749133647e-04 1.558682605680489957e-03 2.424937067860083711e-03 3.726818346839716033e-03 5.649678288898815452e-03 8.433525877708453536e-03 1.237154058311464369e-02 1.779277060710998323e-02 2.501787000393397575e-02 3.427467364456642657e-02 4.556213820211201665e-02 5.846093006741306941e-02 7.191200133769007352e-02 8.402488295178620059e-02 9.203267964429193149e-02 9.256348016853188643e-02 8.240663418593448253e-02 5.985020581781903132e-02 2.638318405648259340e-02 -1.191442546435170224e-02 -4.446433043414788067e-02 -5.902300004746107581e-02 -4.757096785513487136e-02 -1.325180941771340881e-02 2.654944987283176100e-02 4.671486244724243342e-02 3.135616148767650380e-02 -8.881430016627049617e-03 -3.822706629976427295e-02 -2.621233742669651715e-02 1.485230539387089044e-02 3.413266479522861219e-02 4.580913306693575743e-03 -2.952185311437420176e-02 -1.171246844598196855e-02 2.562534303974237787e-02 9.262031871982068579e-03 -2.497804638695959659e-02 1.194851448889769352e-03 2.137670512501101128e-02 -1.626611161559677471e-02 -4.115133238808021954e-03 1.799689493904546231e-02 -1.789291414752807244e-02 9.112421648927566953e-03 7.684342294543870452e-04 -7.719104427585581595e-03 1.124163868774790027e-02 -1.233679991832745820e-02 1.194334864380771494e-02 -1.029884521549546267e-02 6.935662421195129546e-03 -1.254649018271448632e-03 -6.044749828670328839e-03 1.108529552339703080e-02 -7.674536783934062661e-03 -4.235686702940447829e-03 9.527520777963316423e-03 3.087803796387327687e-03 -7.278692236666339972e-03 -7.891613352745749724e-03 -3.047819989508868729e-03 1.088686766509408413e-03 2.800620509534570979e-03 2.380284837618332639e-03 -4.007372802864654464e-05 -4.028130286700214342e-03 -6.179246700778573409e-03 -8.201061937560215603e-04 5.654964525786076307e-03 -2.622856123959346926e-03 -7.805203425968170600e-04 1.890571104252162420e-03 -9.334932737779960167e-04 -1.956907620332469337e-03 4.281304717275450505e-03 2.954135662652004326e-04 -3.086261530446653481e-03 -3.632678567050197458e-03 -3.322112741140006032e-03 -1.509438164796871994e-03 2.571403578352482542e-03 5.780269828487414512e-04 -1.665344746097217454e-03 7.897628906788116887e-04 1.916057297914218775e-03 -1.186739012555970392e-03 -1.948910912311600926e-03 -1.084410159124964568e-03 1.710205633426520886e-03 -7.642771268432241034e-05 4.155291354904566215e-04 -1.927547835532927726e-03 -1.055179721523968450e-03 -1.427687624687183025e-03 -1.053398761961259374e-03 1.371378761322896572e-03 -4.146783959925240122e-05 -1.056859954200149504e-03 -1.652126021152763153e-04 1.171878869379674049e-03 -5.054082098030481408e-04 -1.153563638534137268e-03 -3.430545782212206045e-04 7.042668674940822608e-04 8.026399777734939634e-04 9.669963050855822544e-04 -5.570646285142240826e-04 7.662010098394703757e-04 2.131608466694351897e-04 -2.023480144071893440e-04 -6.080350563027374713e-04 7.163942698935526826e-04 -2.023424734693997221e-04 6.456523769511546751e-04 -3.994033033446874742e-04 4.391531503982158149e-04 -4.386390502223558958e-04 5.331816678700927563e-04 2.550820463023029290e-04 -2.543290463529143154e-04 -5.013748825715905319e-04 -1.085910384927473918e-04 1.460803509699909008e-04 4.203495044193210741e-04 3.815597139784475552e-04 3.223981135071414018e-04 -3.510809355981959557e-04 2.636856999012230176e-04 -2.785421689239848844e-04 3.149318909133492356e-04 -3.167412463891210151e-04 2.869668781752422043e-04 -8.447336055459715384e-05 -2.770862019060895136e-04 -2.502914883209821540e-04 1.781853979099507325e-04
5.859197853727652008e-18 1.020695618994589886e-17 1.778033689304038336e-17 3.097190904154016522e-17 5.394841524063176609e-17 9.396593909050847486e-17 1.636595815286998812e-16 2.850293664454814428e-16 4.963782661985382726e-16 8.643874606268850756e-16 1.505130107831867516e-15 2.620635313081767145e-15 4.562500092336761671e-15 7.942540073402712729e-15 1.382522827578216618e-14 2.406231099888305907e-14 4.187451953033086836e-14 7.286260764795465459e-14 1.267641218855676701e-13 2.205050884437802149e-13 3.834994563201087276e-13 6.668487730965001236e-13 1.159306573272365514e-12 2.014970326825743144e-12 3.501294414083142146e-12 6.082294892639036786e-12 1.056266177075044802e-11 1.833721469819787663e-11 3.182242172600058583e-11 5.520231759715329753e-11 9.571686220349923067e-11 1.658852575207729359e-10 2.873390196048587581e-10 4.974233055804825393e-10 8.605524450911233792e-10 1.487718443824859564e-09 2.569958501798638504e-09 4.435679836047794561e-09 7.648678901916701308e-09 1.317542406586712495e-08 2.266994412114074549e-08 3.895787399756023745e-08 6.685676324259746394e-08 1.145622782479524109e-07 1.959832680822623126e-07 3.346613727099373371e-07 5.703247104746631025e-07 9.697981225877260715e-07 1.645077782107557314e-06 2.783112119869257082e-06 4.694572069443400702e-06 7.893172000995298600e-06 1.322368216868878075e-05 2.206671354056233118e-05 3.666305151851779570e-05 6.062146208743271773e-05 9.970327963162157309e-05 1.630160275344080074e-04 2.647964655438092628e-04 4.270164965485198096e-04 6.830911217482362038e-04 1.082979882104505298e-03 1.699902953644822712e-03 2.638657891054833633e-03 4.044997930216906804e-03 6.114550189005012008e-03 9.098127202333737562e-03 1.329789327828688125e-02 1.904579037770610939e-02 2.665252887715116592e-02 3.631387210882618816e-02 4.796385170914322510e-02 6.107646669413926976e-02 7.444363755372906954e-02 8.600098364562172581e-02 9.282975303005623624e-02 9.151152747805148258e-02 7.900538266956383393e-02 5.408470673051577610e-02 1.904862883048669825e-02 -1.907226077815597776e-02 -4.905343446047079337e-02 -5.893150988586137728e-02 -4.234742647391967485e-02 -5.197288427982213466e-03 3.275518474914741740e-02 4.662517359950341111e-02 2.461981443039540363e-02 -1.672498194794186377e-02 -3.950872873606482705e-02 -1.921657284947594566e-02 2.197237786099728168e-02 3.184191730784255436e-02 -4.024183964279275105e-03 -3.071377522955367687e-02 -3.271009579214081281e-03 2.765874285711772754e-02 6.652887216548504512e-04 -2.495656555345087541e-02 9.650013206246805045e-03 1.638908178366143761e-02 -2.059185000413821937e-02 4.653096965629139811e-03 1.236899906435757514e-02 -1.879125745313000098e-02 1.531096787885210045e-02 -7.788336099703463238e-03 8.962276180110514967e-04 3.503957434832126287e-03 -5.334502206600516723e-03 4.986601854509643827e-03 -2.645837734640027472e-03 -1.640816586875266068e-03 7.170794368982156761e-03 -1.132796248029992528e-02 9.494246569414856868e-03 4.589520794581161862e-04 -9.857349738813664386e-03 3.743862988844692472e-03 8.973471298160068041e-03 5.187659038210056927e-04 -6.820050879467507744e-03 -8.092544682578804369e-03 -6.574542175263717661e-03 -5.422513880311635552e-03 -5.637662254716955743e-03 -6.552610276174212350e-03 -5.700247426414570620e-03 -1.625178820840586166e-04 5.767720532028742728e-03 -1.011140612199427653e-04 -4.393907834537655842e-03 5.105877321015148476e-03 -4.834069055451474875e-03 4.603310052917336526e-03 -2.788404745698727129e-03 -2.210130617531644998e-03 3.074512010149262238e-03 3.811484895951506094e-03 3.248789390606766740e-03 3.425243330351138930e-03 2.727033474893638103e-03 -1.701255960424478270e-03 -1.233092751662925781e-03 1.855526511480770635e-03 -6.274038439604663012e-04 -2.247170687602757008e-03 2.837243960993532507e-04 9.078809497114661686e-04 -5.250198000107248169e-04 -2.178637832140157757e-03 1.904909829546954335e-03 -2.015353506777612172e-03 4.295766710578224098e-04 1.355826788701920476e-03 4.621600641218736433e-04 -1.677619190707633047e-03 1.587383819689187773e-03 -6.920710994052086144e-04 -1.200952810392800531e-03 1.013547427950128274e-05 7.844202879918764143e-04 4.269298334372648314e-04 -1.756876827784027728e-04 1.049964861819810630e-03 -9.934234141497789300e-04 1.203605977752745311e-04 -6.393197270246726242e-04 4.324548872598002751e-04 -5.751000577849562289e-04 4.313487440312770366e-04 -7.046758942529253835e-04 -6.236329882773764335e-04 2.404544029328073982e-04 -4.084204801489206191e-04 6.901904418329550192e-04 1.559586027247441783e-04 4.891039489134362808e-04 5.957589925912075207e-04 -4.470393375720714112e-04 -4.466293896417351458e-04 5.217398759799865863e-04 -1.442161318776191659e-04 2.034553419723430172e-05 3.693938527341446678e-04 -1.233243796404598705e-04 -4.111768402723042326e-04 -3.850323598793372096e-04 -1.072664939642667197e-04 3.595810983291339909e-04 -1.213000739746455356e-04 -1.760791701781282820e-04 3.169357750308331449e-04 8.298287802239889295e-06 -2.060293212404877311e-04 -1.306521426310766089e-04 2.525422150055070731e-04 -2.482458596232762268e-04 -2.308776647445823693e-04 7.102630877889272096e-05
1.753786714169950260e-17 3.054957499890606048e-17 5.321282751008141023e-17 9.268481625144463100e-17 1.614284620111493784e-16 2.811440328923359604e-16 4.896126927839363727e-16 8.526073624710569355e-16 1.484620465163337957e-15 2.584930336423013484e-15 4.500347801011199233e-15 7.834362021274935100e-15 1.363696297436374826e-14 2.373470972938246659e-14 4.130453954929071596e-14 7.187107640649830422e-14 1.250395574193829819e-13 2.175061226456215899e-13 3.782854115410069391e-13 6.577855951072557086e-13 1.143556620105257576e-12 1.987607523132741180e-12 3.453770408945764821e-12 5.999781584277548908e-12 1.041944968456267419e-11 1.808874990299870863e-11 3.139153522079455340e-11 5.445542968314757166e-11 9.442289778238084072e-11 1.636447755169411602e-10 2.834620851197294865e-10 4.907192659694982472e-10 8.489685039110206266e-10 1.467719116795426189e-09 2.535461763527870959e-09 4.376236243638663266e-09 7.546360629971634839e-09 1.299952041420284820e-08 2.236793676010856832e-08 3.844012016092827667e-08 6.597057012773753567e-08 1.130481518086805256e-07 1.934013246313127236e-07 3.302680209634092618e-07 5.628668446590655864e-07 9.571712177096488700e-07 1.623760789509267739e-06 2.747238791004833524e-06 4.634414583715720931e-06 7.792682867984437520e-06 1.305654209224984768e-05 2.179003608308850931e-05 3.620746145699434821e-05 5.987564885823204192e-05 9.849028834312787166e-05 1.610574685457082404e-04 2.616595437872070188e-04 4.220374648201429316e-04 6.752678882048271901e-04 1.070826933845431955e-03 1.681265065680570287e-03 2.610487797139536114e-03 4.003120879593259976e-03 6.053469638476798899e-03 9.010975110833790991e-03 1.317669684816845724e-02 1.888230731602956805e-02 2.643997051019518832e-02 3.604983406509319754e-02 4.765461273526210711e-02 6.074236993641730920e-02 7.412441165182780123e-02 8.575857607010457795e-02 9.274481137384407714e-02 9.166888619522553516e-02 7.946528102502263546e-02 5.484184805035578758e-02 1.999161528905079449e-02 -1.817538478009025904e-02 -4.851024647536669732e-02 -5.900054857453818774e-02 -4.306055571133800969e-02 -6.230058799541561554e-03 3.201378866951844204e-02 4.671711732433625475e-02 2.552780875329436691e-02 -1.576042533478131183e-02 -3.944396402501766652e-02 -2.016578225043049594e-02 2.113004866578378771e-02 3.224835219709104583e-02 -2.935526066150651731e-03 -3.069603198358238083e-02 -4.373667148384184633e-03 2.754760245513595759e-02 1.779631605543102041e-03 -2.512726058998498296e-02 8.625533040795602471e-03 1.717277450520532378e-02 -2.021645532639786830e-02 3.554341316787278625e-03 1.324508670923548251e-02 -1.890544195590986715e-02 1.470182250083464093e-02 -6.771597783753838598e-03 -2.360132977257799886e-04 4.603862855912943183e-03 -6.385026097920043844e-03 6.040091199900622133e-03 -3.754049464232459953e-03 -5.087955601926581403e-04 6.222154806620470643e-03 -1.096915118058410833e-02 1.006894299108389811e-02 -6.804682684901507302e-04 -9.492618540002377425e-03 4.775096251471815101e-03 8.599065673695444403e-03 -6.219845711053584390e-04 -7.448485510302063975e-03 -7.917756756204694102e-03 -5.906475845390825492e-03 -4.588855862424208627e-03 -4.883829922116941086e-03 -6.194551401900117750e-03 -6.147246741604137782e-03 -1.296940389479137859e-03 5.453440954856259536e-03 1.037058952091775418e-03 -4.946947426496250792e-03 5.015278898870720661e-03 -4.558203142264400168e-03 4.639338448776241658e-03 -3.581394355445254724e-03 -1.167257515584640189e-03 3.691877678823820164e-03 3.458704142102728835e-03 2.562154456651219957e-03 2.984068641999751414e-03 3.232349298906193446e-03 -6.452482738099796396e-04 -2.174235062191997268e-03 2.581590582585548306e-03 -1.661566921633368535e-03 -1.446576038349869486e-03 1.356373233286432617e-03 1.834364030196351499e-03 6.081062585781367349e-04 -2.104228382179818262e-03 1.158660224901455907e-03 -1.613224244205388675e-03 1.409325667562676696e-03 1.831477350855024912e-03 1.397434812120363495e-03 -1.243496457898285012e-03 1.049075703301093152e-03 -1.437962614086980145e-03 -1.441876937066124921e-03 -1.014675012985799107e-03 1.330114260339685436e-03 -6.736277342898125409e-04 -1.076887225935363197e-03 1.676976905856637041e-04 -8.789285467060782336e-05 9.854213091436572845e-04 4.376203110795244457e-04 -6.377695645304379659e-04 -8.667775923337302409e-04 -6.244652784213338857e-04 3.013982894619338365e-04 4.098273993252716661e-04 -7.070220571411952801e-04 -6.079422419341026220e-04 -1.482498643467333027e-04 -6.640001123893994215e-04 2.846606187581746366e-04 -2.951293283265099543e-04 5.153864631039071663e-04 5.007218695892307883e-04 -2.242106817205524283e-04 4.635136144301721926e-04 3.190143940496717500e-04 -4.602751991188349799e-04 3.212189718049773780e-04 4.098750808099125556e-04 4.006413670017473804e-04 1.598488990157522014e-04 -3.597018878757421434e-04 1.670714519672581886e-04 8.507644281335805371e-05 -2.925056384523910856e-04 1.728576158974925135e-04 2.896114228290785561e-04 2.758064817733153827e-04 -2.146053920919019110e-05 8.426795534101068439e-05 -7.794898634796961553e-05 2.296904259592428990e-04 6.718273248804876687e-05 1.279348214191322424e-04
4.753307521587992188e-17 8.279272143803337932e-17 1.442009262465942283e-16 2.511433088516218708e-16 4.373716974722974586e-16 7.616454724604424592e-16 1.326250523069130711e-15 2.309223259813240224e-15 4.020414111621226143e-15 6.999011665189626981e-15 1.218315941652195393e-14 2.120490188123195929e-14 3.690295841049409347e-14 6.421399334993022110e-14 1.117213738005136823e-13 1.943456975892959194e-13 3.380174043294549666e-13 5.877889429244347310e-13 1.021913230027937663e-12 1.776266624538867946e-12 3.086698598573520333e-12 5.362430815246304526e-12 9.313202156603932098e-12 1.616938563195948482e-11 2.806281506030720291e-11 4.868519048796951219e-11 8.442549788959038605e-11 1.463332587693134161e-10 2.535040104884718442e-10 4.389112558013016923e-10 7.594412980819171724e-10 1.313138085015862353e-09 2.268797293280018443e-09 3.916675354334502024e-09 6.755231895579176471e-09 1.163923407074209503e-08 2.003210975234284157e-08 3.443495052888099396e-08 5.911398484049954126e-08 1.013307361010442058e-07 1.734157915520596050e-07 2.962527133421743285e-07 5.051086523901988380e-07 8.593509314405254953e-07 1.458562822068886144e-06 2.469131442570143089e-06 4.167852462842013509e-06 7.012966144594582856e-06 1.175901201463937535e-05 1.964095230753887174e-05 3.266648488276054552e-05 5.407498175976070443e-05 8.904884915192251582e-05 1.457998105630487059e-04 2.371988460820433629e-04 3.831711504720003328e-04 6.141265717510293286e-04 9.757192179929505141e-04 1.535184352363455238e-03 2.389312511258749085e-03 3.673675211443852388e-03 5.571854820397737808e-03 8.321967842122973344e-03 1.221555677987323438e-02 1.758099051994242365e-02 2.474032735061405114e-02 3.392646665770077813e-02 4.514895549622129772e-02 5.800621237265718433e-02 7.146445574521945177e-02 8.366340840350752761e-02 9.186377333188099070e-02 9.270481490645732237e-02 8.295158632748848848e-02 6.081421483016807850e-02 2.764578796003118455e-02 -1.064008882687199342e-02 -4.358947495233384678e-02 -5.893386430915392715e-02 -4.839209503145197599e-02 -1.463948988098903031e-02 2.538149070711048783e-02 4.658277553984236513e-02 3.243279129281958356e-02 -7.459147609600758067e-03 -3.782455844425067215e-02 -2.731511664989215438e-02 1.350445218297201960e-02 3.431729493128089781e-02 6.075951651999450531e-03 -2.907105455096822486e-02 -1.311032371343295345e-02 2.500605997560193319e-02 1.069513125065686687e-02 -2.467383765596392609e-02 -3.383050111147780509e-04 2.194999881960713745e-02 -1.521394120891901222e-02 -5.623885640742207898e-03 1.864893353782658136e-02 -1.732488826826696082e-02 7.753098875458762709e-03 2.315917594821346494e-03 -9.070664257648658468e-03 1.229598649945069788e-02 -1.318247930942880765e-02 1.275711577666360438e-02 -1.127599137224519904e-02 8.217635576212993162e-03 -2.796625989792790763e-03 -4.659977407987027018e-03 1.065439981882822414e-02 -8.708625574831740587e-03 -2.771884063492987410e-03 9.836090210123417388e-03 1.577577751659576524e-03 -8.097163546425008643e-03 -7.157607270175734074e-03 -1.551181757535362998e-03 2.610619074984224779e-03 4.186635224381871773e-03 3.793229444566113048e-03 1.515504691431177921e-03 -2.698684639521037928e-03 -6.134391379151389427e-03 -2.328767938595982436e-03 5.438677739475972044e-03 -1.164498827880724400e-03 -2.273600746274797788e-03 3.223174916331821276e-03 -2.393582693863406836e-03 -4.574078333440090944e-04 4.021006942507785939e-03 -1.253613769067386157e-03 -3.780439741405630053e-03 -3.659757605338195396e-03 -3.552693502872578644e-03 -2.710932194791945693e-03 1.360206444986812027e-03 1.984102016444917217e-03 -2.676198050162540646e-03 2.103483166774586938e-03 5.600604130503037325e-04 -2.283294824448276091e-03 -2.459345019596780729e-03 -2.143249325527103386e-03 3.766511753189224479e-04 1.375936448153299322e-03 -1.091852019250794895e-03 -1.133360689872272078e-03 4.429924845733019655e-04 -8.993844500674931010e-05 -1.697782165602049328e-03 1.487976090403582419e-03 -1.336411985240176792e-03 -1.416201661743806631e-03 -1.330452757584382577e-03 1.070419931967371736e-03 -1.284499751857946489e-03 -7.313568623950306678e-04 -1.170111840709815937e-03 9.749629341305076540e-04 -6.199493109517600648e-04 -2.914560406442098361e-04 8.214235628790617734e-04 4.321364515001186618e-04 8.034730741485950024e-04 -7.347668663938790356e-04 -2.777942224412713389e-04 -5.773087174514284631e-04 -4.950219021594036081e-04 -6.174004525774416056e-04 -1.138871789479456974e-04 -6.378089870633655211e-04 1.327465080769476939e-04 -5.853048072154696298e-04 -4.035661424981677845e-04 3.423195304566591752e-04 5.064692046277531699e-04 6.723869214253685642e-05 -3.741177710042618821e-05 -4.422810058821804199e-04 -4.204660188167616617e-04 -7.290844572777889184e-05 3.386140553718729879e-04 -3.465911774235872042e-04 2.767310403382820892e-04 -1.276900846861778757e-04 -1.068626093182414730e-05 1.915237230812726218e-05 1.695506141831394880e-04 -2.005668899316866692e-04 -1.971723833011676497e-04 1.975778749869124831e-04 -2.429755294565789860e-04 -2.301340880886689031e-04 2.214319098263045887e-04 2.077869809219893931e-04 -1.016613156753405509e-04 1.924884202299327650e-04
1.183911667727419072e-16 2.061963803769180254e-16 3.591030303726038589e-16 6.253614381412837719e-16 1.088966690006056704e-15 1.896124252801271657e-15 3.301297410973482257e-15 5.747312802947445644e-15 1.000469109215753090e-14 1.741394558429381221e-14 3.030685882846394720e-14 5.273877977693525634e-14 9.176125197312496707e-14 1.596330685173581051e-13 2.776606145856669496e-13 4.828659394520243888e-13 8.395605768406929859e-13 1.459426491810011217e-12 2.536342272114430693e-12 4.406753493086386454e-12 7.654269296771607630e-12 1.329078173129816432e-11 2.306989634611841054e-11 4.002895833368590227e-11 6.942569031360976718e-11 1.203553894881445400e-10 2.085406308008121882e-10 3.611387400643766520e-10 6.250173182683187210e-10 1.080982286785453293e-09 1.868207248578282553e-09 3.226116358468028356e-09 5.566073239867046795e-09 9.593866682294095035e-09 1.651857044276825779e-08 2.840790408784434221e-08 4.879138694853771016e-08 8.368131878167169834e-08 1.432958814762820271e-07 2.449575920741678902e-07 4.179509248403595159e-07 7.116301091552781315e-07 1.208890122053313246e-06 2.048434705483551364e-06 3.461376570216446076e-06 5.831009806132592788e-06 9.789722675211169376e-06 1.637485028189458546e-05 2.727699815794376484e-05 4.523153109751902552e-05 7.462829105971787640e-05 1.224478722401788761e-04 1.996757577510271421e-04 3.233966675945667505e-04 5.198235910934481544e-04 8.285520478252968689e-04 1.308315627850044523e-03 2.044392217199686966e-03 3.157472227374963619e-03 4.813106899186688804e-03 7.229626252118565022e-03 1.068047909365208575e-02 1.548424465581496774e-02 2.197237197495737274e-02 3.042197694841269201e-02 4.094086595286424574e-02 5.329798600851227280e-02 6.670975279808208369e-02 7.962612910501525032e-02 8.961082074762423411e-02 9.346710399523508461e-02 8.779337177362055156e-02 7.010256875592685288e-02 4.043360206492668807e-02 2.978076905642709771e-03 -3.327443922909476687e-02 -5.618321628291134823e-02 -5.523724768737837965e-02 -2.851836540154753519e-02 1.199163504152217508e-02 4.265659772722216192e-02 4.158504914407425840e-02 7.787660244346416433e-03 -3.066728609972438346e-02 -3.622828904141183609e-02 -1.668483695038483483e-03 3.237677480599619739e-02 2.053791870231731764e-02 -2.048468158563348032e-02 -2.519578840981712836e-02 1.454270986509467907e-02 2.297503491579055979e-02 -1.653245880472548751e-02 -1.534471555162292972e-02 2.200214361300292104e-02 -8.013627687414315304e-04 -1.837095441963432219e-02 1.858020578407705570e-02 -5.623925219967246779e-03 -7.961054507732674007e-03 1.542926938213178001e-02 -1.685664130002170052e-02 1.515258663232819242e-02 -1.296315716326634782e-02 1.170992997526849357e-02 -1.173808824253669454e-02 1.254008664163979922e-02 -1.269588080940820332e-02 9.926364679649980413e-03 -2.468263803441983137e-03 -7.257270063914106339e-03 1.014680844259706165e-02 3.841805519466455314e-04 -9.601172339334300074e-03 -2.017525187957297343e-03 6.896812178004892505e-03 8.148544745978637122e-03 5.292732550669571219e-03 2.770378359331432221e-03 2.164977782368525221e-03 3.502015986597127595e-03 5.796531014435705835e-03 5.914957389922493800e-03 4.777289553036206775e-05 -5.757189851749100300e-03 1.857747130168652203e-03 2.385276855052687484e-03 -3.857719381702761751e-03 3.615199649066260304e-03 -1.718689393801499030e-03 -2.299052936193720417e-03 3.802706543419180196e-03 2.843716112850884492e-03 5.514477936368573441e-04 2.168468504927365979e-04 1.855484270882601849e-03 3.276670727204772718e-03 -1.016767071694937765e-03 -1.048510680126460686e-03 9.242549036301095453e-04 1.186446820444733057e-03 -2.377228486935799301e-03 -2.362860237384909086e-03 -2.317672084468823217e-03 -1.672262001550077221e-03 1.945356177935290715e-03 -1.600461621264988744e-03 1.970944877148315868e-03 7.864581635827730573e-04 5.410261511223154064e-04 1.689960576342893449e-03 -8.269131869927445061e-04 1.312655319753862522e-03 -4.904241122996098705e-04 -3.202837626276155004e-04 1.343822368035922209e-03 -1.288747069425021530e-03 9.852370952465115510e-05 -1.878785900273938518e-04 -9.249211975822748582e-04 1.869054911049347005e-04 5.572031561835897543e-04 -8.847581191838891322e-04 9.218050584085176477e-04 9.022522478335540065e-04 -5.289992423301339815e-04 6.688808055203339809e-04 -3.563409067407867639e-05 4.382764472805926394e-04 5.681530023434786620e-04 -5.955981977742953390e-04 -6.058512572752879034e-04 6.196511934934104560e-04 5.355962427633618756e-04 -5.514440285881423254e-05 5.426558264725209147e-04 3.945777174590416807e-04 -4.559626300682360521e-04 -2.156242074036063955e-04 -2.994650285161075593e-04 -2.539215790296682311e-04 2.584261521474801298e-04 1.321244623762120904e-04 -3.049025432004419454e-04 -3.558279424485551439e-04 -2.935328679534035881e-04 -1.881516932998812718e-04 2.763691070074466891e-05 2.924371972374562858e-04 -1.281617011095420133e-04 1.965900894043901546e-04 -9.277000780186479367e-05 1.075892482316508406e-04 -1.158188033204640851e-04 -5.180640039135092520e-05 8.056947557462978393e-06 7.614845404392623957e-05 -1.935402354031081056e-04 1.856927300278639760e-04 -6.494161243685984589e-06
2.746587997516578397e-16 4.783198596045658951e-16 8.329444282432930191e-16 1.450386379320756985e-15 2.525332466499247019e-15 4.396604371138530298e-15 7.653792589224036575e-15 1.332271163828586639e-14 2.318787716229150262e-14 4.035312336707033216e-14 7.021599378833434841e-14 1.221608648923598876e-13 2.125001302892656434e-13 3.695818596448588289e-13 6.426567535443777976e-13 1.117265556069641309e-12 1.941930942456238152e-12 3.374438022464292351e-12 5.862039573590099007e-12 1.018037835090648589e-11 1.767396910723761948e-11 3.067221346197263056e-11 5.320855472470801958e-11 9.226267931042825832e-11 1.599043118373806532e-10 2.769894379226363726e-10 4.795264214481771245e-10 8.296278258142775128e-10 1.434327048519900541e-09 2.477862119307400325e-09 4.276979044686819531e-09 7.375505951878067933e-09 1.270577783273431788e-08 2.186358935696942718e-08 3.757543537337895930e-08 6.449048283586893908e-08 1.105191564437396320e-07 1.890884952774341551e-07 3.229288974344323093e-07 5.504073967566878775e-07 9.360742104268540637e-07 1.588140807739579189e-06 2.687288981094206403e-06 4.533869867652949721e-06 7.624706661904882279e-06 1.277711104105862628e-05 2.132739915416732060e-05 3.544552084746405255e-05 5.862807516263497464e-05 9.646076954566716100e-05 1.577796669403723766e-04 2.564081668514406115e-04 4.136996429002658582e-04 6.621625228311059852e-04 1.050460305071075412e-03 1.650016388340510816e-03 2.563232825442277821e-03 3.932831204446316127e-03 5.950877685568714028e-03 8.864477435401817845e-03 1.297278358299948538e-02 1.860694183612706179e-02 2.608145962408093058e-02 3.560373563691648924e-02 4.713096934060204829e-02 6.017481846050032335e-02 7.357928707524889755e-02 8.533996349891193045e-02 9.258905002478903801e-02 9.192063397848840300e-02 8.022940196377835453e-02 5.611426677540262697e-02 2.158973794974396176e-02 -1.663963705119037018e-02 -4.755822498660008946e-02 -5.907932373708420920e-02 -4.424185704595585272e-02 -7.983106632495212684e-03 3.071878835742801114e-02 4.681936370873202025e-02 2.704010758244123486e-02 -1.409459075922307042e-02 -3.926723977905128421e-02 -2.174365659050084970e-02 1.965113974749036971e-02 3.286370896450793028e-02 -1.074458867813040536e-03 -3.057519684045074959e-02 -6.236260043484723181e-03 2.725792754229496712e-02 3.669078752941052485e-03 -2.530507036514785535e-02 6.839221850994147908e-03 1.841206564890700281e-02 -1.945498398111918104e-02 1.661074745248276516e-03 1.463753674599491822e-02 -1.894539089506372398e-02 1.353346618525800779e-02 -4.975332085238239055e-03 -2.158733799958924109e-03 6.418543405545336540e-03 -8.086316608229273881e-03 7.742649453029331816e-03 -5.577056755996342291e-03 1.423317535351675649e-03 4.490493230331467356e-03 -1.012653496900829675e-02 1.080913302047062374e-02 -2.596565219809112215e-03 -8.606134405401101237e-03 6.375878237851681681e-03 7.671958568392122854e-03 -2.531466653450145134e-03 -8.207367929676865140e-03 -7.265757810409765628e-03 -4.484928880340843631e-03 -2.931192126552629486e-03 -3.320378831049327142e-03 -5.186511342401654324e-03 -6.461533679322336438e-03 -3.106260937366230220e-03 4.455850041862947052e-03 2.852358456597195967e-03 -5.364333693018257139e-03 4.295689606528229655e-03 -3.531096848142393618e-03 4.069062160859900079e-03 -4.370722240274327840e-03 7.586368714104531601e-04 4.058004630878662283e-03 2.198533957090319235e-03 8.800237520229668622e-04 1.559307154779581307e-03 3.234592511207798424e-03 1.262421794132697218e-03 -3.042298879822344457e-03 2.896344714632720970e-03 -2.724174694138471742e-03 4.151268204741348500e-04 2.478499943662251098e-03 2.433587997030227986e-03 2.077715027117119691e-03 -8.035466931695732073e-04 -7.066152042668068754e-04 7.822471166385242989e-05 1.875518564297659662e-03 1.105474665827549515e-03 1.590753328207110233e-03 5.370254454497107571e-04 -7.703343735797089573e-04 -9.392723354989514304e-04 -9.901633835747417523e-05 -1.129656780454083454e-03 2.619369386781580369e-04 -1.112927744029115328e-03 -5.373664404910303205e-04 -1.162968730116336865e-03 1.105377275382771760e-03 1.155102151470953809e-04 7.054469810434525106e-04 -3.811884330961529317e-04 7.155093823743307897e-04 -1.251265368091195431e-04 3.735334005963811027e-04 1.444921326814159284e-04 4.166984577710240094e-04 7.284656664613250098e-04 -9.887737936637764919e-05 6.355900623773221708e-04 -3.329225439329042873e-04 3.266748741427569279e-04 -5.608266233621808303e-04 -5.535773820573001601e-04 4.382496994733628415e-04 -2.212354279893654838e-04 8.154803850051367585e-05 2.218920406332481861e-04 1.972189135903061434e-04 -1.215212424899462720e-04 5.461718408298802492e-05 3.826118746420945223e-04 -1.555657703572195082e-04 -7.133768936342608233e-05 2.147576672054028149e-04 -3.095218956235962215e-04 2.031363469480475226e-04 2.598210263915791125e-04 2.175836194327884353e-04 2.225464632895544860e-04 -2.238524544116687995e-04 -2.052855910427620523e-04 -1.228681221380027179e-04 -1.687978962774517688e-04 -1.029710926071904578e-04 -1.806164938073806265e-04 8.661225698774224725e-05 -1.697566478994882565e-04 6.553690526515799203e-05 1.657421785902610961e-04
5.988189465426753123e-16 1.042752783733728881e-15 1.815666617634533123e-15 3.161234901285494008e-15 5.503513354729198599e-15 9.580369192539824517e-15 1.667552224754134896e-14 2.902199386224627489e-14 5.050342717827349669e-14 8.787290616812616601e-14 1.528705691934889768e-13 2.659017429583624607e-13 4.624235363299446275e-13 8.040304174936314936e-13 1.397688654242587655e-12 2.429095581141245836e-12 4.220509303659066717e-12 7.330947596836718971e-12 1.272970025996909261e-11 2.209661096081438488e-11 3.834139386582086508e-11 6.650108394306082411e-11 1.152896780358921213e-10 1.997715014409330515e-10 3.459685771504876710e-10 5.987924104533679125e-10 1.035682402577416853e-09 1.790025391566560356e-09 3.091312095519883506e-09 5.333880160611912317e-09 9.194383936289152403e-09 1.583213384958714381e-08 2.723002166726714127e-08 4.677328819207936238e-08 8.022944055560460916e-08 1.374024561689408949e-07 2.349160977224967289e-07 4.008799801799222460e-07 6.826802662569126447e-07 1.159928656480121230e-06 1.965876503329355307e-06 3.322628084815258603e-06 5.598678426085303581e-06 9.402258713245312822e-06 1.573155354721051947e-05 2.621422984693968876e-05 4.348539379309683306e-05 7.177683292913892166e-05 1.178229213421248513e-04 1.922307962783082586e-04 3.115129874700057837e-04 5.010331674120104819e-04 7.991539807593608068e-04 1.262867172723273817e-03 1.975071388945656183e-03 3.053346060838395704e-03 4.659410474403781997e-03 7.007277270001853464e-03 1.036623245305521961e-02 1.505212722369177192e-02 2.139728884275274995e-02 2.968653716998602421e-02 4.004632235487868425e-02 5.227937868002007632e-02 6.565346744076022700e-02 7.868481730492989101e-02 8.900620193643066225e-02 9.346701931509066030e-02 8.864897542390691443e-02 7.194013239325552922e-02 4.311861059717822520e-02 6.007398599310251330e-03 -3.075733259051124241e-02 -5.515011912933370092e-02 -5.629402415444782759e-02 -3.135165039375126250e-02 8.835452374470136039e-03 4.120173533766184615e-02 4.302403871343071090e-02 1.111125656542702803e-02 -2.844234093218031903e-02 -3.746566503706181411e-02 -5.098647083036721150e-03 3.103575918246939333e-02 2.323548784427810487e-02 -1.778924964803139941e-02 -2.703484560848751217e-02 1.147266726712139855e-02 2.476396079078587581e-02 -1.372905612817326704e-02 -1.801333356673299330e-02 2.057447891627935468e-02 2.743512260183008852e-03 -2.000364276634901753e-02 1.690466959878339157e-02 -2.150053902197644577e-03 -1.105410077223940683e-02 1.690830203724458247e-02 -1.660669102890077395e-02 1.364230474850706282e-02 -1.075526615044383218e-02 9.268036970410165748e-03 -9.468411761940931717e-03 1.093263317733235776e-02 -1.240885918701947581e-02 1.157041433865991023e-02 -5.826069930331781790e-03 -4.229121244603731983e-03 1.055679775959151440e-02 -3.170838133785700442e-03 -9.028276536380493850e-03 1.564262316941696486e-03 8.505096961031714461e-03 6.663091240181714253e-03 2.165540014852197249e-03 -7.699903208331830649e-04 -1.402714757359310466e-03 6.595931460877239340e-05 3.313532883169414446e-03 6.199852532655052498e-03 3.447782368740445660e-03 -4.618523927607216112e-03 -1.691461527285931937e-03 4.827552985279728176e-03 -5.026276420899418278e-03 4.796482662355116416e-03 -4.230939969956279759e-03 1.177499361428898782e-03 3.763730722281683969e-03 -4.415504612774831419e-04 -2.746548113823456868e-03 -2.928898913460913772e-03 -1.595679425205576065e-03 1.869875014034629804e-03 2.306716000931243252e-03 -3.019899844884945794e-03 2.883281753149620052e-03 -2.102781529366107554e-03 -1.537752152041949212e-03 5.152306500389426886e-04 4.386283872181862692e-04 -1.531256624810213487e-03 -1.148200037915543580e-03 1.578890017320191182e-03 -2.707265447487127688e-04 -1.892786256510973954e-03 -1.801183613577253496e-03 -1.151973308025659379e-03 1.646906361058881208e-03 -1.525521037513863495e-03 -5.946650879231558159e-04 -5.590412509195321440e-04 -1.309284116166704046e-03 1.284009527679281365e-03 2.117444236991404809e-04 3.190899734194785884e-04 9.490093574449309744e-04 -3.791723333356737278e-04 -8.199645015711796211e-04 5.610436295136170173e-04 -8.541604423488016523e-04 -6.209256571103584582e-04 -3.268206813596500346e-04 -6.705124066341343033e-04 -7.785042948610289976e-04 6.526301051595276423e-04 5.989053711587604637e-04 -6.062448528105888893e-04 -6.111973817867928909e-04 5.816570992571664690e-04 4.690220441084820406e-04 -9.558773041999783272e-05 5.036003104469584943e-04 9.210197992261362531e-05 -7.636449331877485740e-05 -4.573282864238777893e-04 -2.880131746121238003e-04 4.301855186223826444e-04 -3.995915603675396187e-04 -4.735755389877582523e-05 2.528137856679234675e-04 3.036173543509663791e-04 2.809223688550937311e-04 2.519277564748192977e-04 2.722439378068709261e-04 2.901339216737436008e-04 -8.740256158470888551e-05 1.416014909626800754e-05 -2.552566565462719220e-04 -2.478903077124738419e-04 1.870228654957871667e-04 -2.162635500191450154e-05 1.872397519500793928e-04 2.056203174085230760e-04 -1.639824549212309920e-04 1.577359366413539341e-04 1.739996317166859184e-04 1.547185208347250714e-04 1.363395862005880135e-04 4.728569690004475091e-05
1.237738718293578004e-15 2.155130263852575315e-15 3.752174194565340425e-15 6.532117213006489957e-15 1.137058260048226754e-14 1.979088131959199404e-14 3.444266267605388718e-14 5.993389858157248866e-14 1.042766676036424473e-13 1.813988853738156689e-13 3.155065716680720413e-13 5.486575542082497675e-13 9.539060617382345817e-13 1.658106841314483297e-12 2.881459983002535519e-12 5.006053047631385485e-12 8.694600899848795023e-12 1.509602696334041077e-11 2.620117137552504553e-11 4.545782596224888816e-11 7.883333744583047975e-11 1.366489238905011009e-10 2.367432069505962740e-10 4.099225611105848874e-10 7.093407362296912683e-10 1.226620359173046862e-09 2.119524231779792165e-09 3.659379129787307343e-09 6.312216384788220536e-09 1.087734519194789097e-08 1.872352930600004386e-08 3.219060886947809048e-08 5.527076599876103292e-08 9.476096482010167937e-08 1.622064889539528972e-07 2.771675284530955185e-07 4.726888093462130708e-07 8.044196691612001800e-07 1.365749860405992347e-06 2.312798022077456857e-06 3.905425225474464912e-06 6.574108386285578864e-06 1.102817174294598748e-05 1.842948778236207127e-05 3.066859722456836827e-05 5.079886273635946160e-05 8.371055903615156842e-05 1.371622928020402624e-04 2.233322678084157388e-04 3.611041016787287002e-04 5.793523362337270506e-04 9.215210585873660938e-04 1.451755337481690483e-03 2.262680098233933561e-03 3.484515351004963037e-03 5.294416649140790306e-03 7.923551082188600575e-03 1.165730251412842866e-02 1.682114100630433332e-02 2.374148699683641117e-02 3.266852949882660673e-02 4.364884480020136959e-02 5.634380261419504043e-02 6.981035305082913811e-02 8.229834188049796329e-02 9.117205930512302381e-02 9.311891486109465099e-02 8.482774175931136196e-02 6.423975578479879101e-02 3.222428592273622605e-02 -5.914404871661657626e-03 -4.020436791504403140e-02 -5.834324467340733927e-02 -5.116212351073329972e-02 -1.965721707251284062e-02 2.090888015742554951e-02 4.572776235183143023e-02 3.609909608677655535e-02 -2.154977268579903737e-03 -3.591000551234532767e-02 -3.101239461529549726e-02 8.359106646704819732e-03 3.443758319723114192e-02 1.145070938823362569e-02 -2.683069190543600768e-02 -1.793865186834876432e-02 2.211360546630105478e-02 1.564442513513164545e-02 -2.280413679452832770e-02 -5.929920062231626085e-03 2.321910394516337600e-02 -1.074459984415006807e-02 -1.086426898940287891e-02 2.008013262039167607e-02 -1.429523608659789835e-02 2.343009364115211136e-03 7.768302872856301493e-03 -1.328680020449389196e-02 1.509851974780892364e-02 -1.504551587011380108e-02 1.442337973952032525e-02 -1.355785977993043644e-02 1.182518903312679108e-02 -7.931525995763858555e-03 9.323655640706661474e-04 7.451444435927266283e-03 -1.085604054614997156e-02 2.895633518732630956e-03 8.879165056982675150e-03 -4.034145726978053542e-03 -8.920189742248075745e-03 -2.692769821994115374e-03 4.017840884287577144e-03 6.920253670228578707e-03 7.360708244602587845e-03 7.030402719733561644e-03 6.001528612528284068e-03 2.871379305627896547e-03 -2.921348698243930384e-03 -5.848391695489328981e-03 1.543292658897281065e-03 4.066605873761885807e-03 -5.192007239487836899e-03 4.724624571345506681e-03 -4.652732300668992876e-03 4.171180982469994275e-03 -5.311006344685837441e-04 -4.075570363717473388e-03 -1.378009167281201612e-03 6.173875073468806018e-04 4.177251020355492021e-04 -1.730589782396261536e-03 -3.177369102704660515e-03 1.745758469195020542e-03 -2.126133869254586382e-04 7.558449784071877156e-04 -2.549803716272922710e-03 4.590716262516117896e-04 1.686190806409820601e-03 1.038210037858813654e-03 -1.532880384355374053e-03 -5.138159269413811138e-04 4.760711745412842606e-04 1.430028020957336632e-03 -3.411257543093103371e-04 -6.904852725838196790e-05 1.647627868930957818e-03 -1.122936024083502063e-03 1.555728089492761004e-03 7.564699721643476779e-04 1.178767207419219440e-03 2.767850497984112039e-04 2.443282833282449623e-04 -9.674892176886751164e-04 -2.973180132769505314e-04 9.058772990504617220e-04 3.056571564997538886e-04 3.641151867068972091e-04 5.673405539170701430e-04 5.198508483233058941e-04 7.233462670823156103e-04 -4.492044764059239105e-04 3.645619106809043931e-04 -7.091566828988893042e-04 5.155986844987668367e-04 -1.426135470818708651e-04 5.883567101595467853e-04 6.051290579585416520e-04 -9.999955950034018510e-05 5.527756128246724427e-04 -2.652013539654659509e-05 3.225381453797488557e-04 1.963465731425624290e-04 3.821453516201933783e-04 -1.284007249394664520e-04 -3.984115467836211381e-04 -1.842523240108293536e-04 4.044325863170767374e-04 -3.683786734432753637e-04 3.611065775383825505e-04 -9.943485390112481389e-05 -2.851015817733869046e-04 2.537724020053746090e-04 -8.340529469437460417e-06 -5.289883161260772312e-05 -1.610582338514573791e-04 1.032930890303125160e-04 -7.669881634617722443e-05 -1.316271558383123121e-05 -2.051183574400285679e-04 1.603268099713803002e-04 -5.755869892889093248e-05 1.319172013012335262e-04 3.577145191631583922e-06 1.392869280158920994e-04 7.847089577251269697e-05 -1.635899149617893933e-04 1.195018333996572345e-04 1.181936461870337977e-04 1.053955621101755071e-04
2.439501333167462368e-15 4.247195286571976664e-15 7.393738820943194768e-15 1.287012803766231987e-14 2.240032544720903625e-14 3.898287728641841312e-14 6.783229508443733304e-14 1.180148489654247422e-13 2.052902133629655881e-13 3.570463665324852396e-13 6.208668220558839043e-13 1.079398271844312263e-12 1.876141538051342737e-12 3.260171270384031845e-12 5.663638754595466490e-12 9.836018132168563329e-12 1.707650287592616020e-11 2.963605046303621800e-11 5.141241987660920424e-11 8.915077696915605034e-11 1.545158206564244430e-10 2.676646611773698624e-10 4.634009208824479469e-10 8.017626198907606858e-10 1.386215042348980796e-09 2.394867206759780308e-09 4.133952270662475054e-09 7.129294522424025251e-09 1.228244998487829294e-08 2.113669521047723315e-08 3.632910321487037847e-08 6.235693989726268680e-08 1.068732627222464299e-07 1.828702993605755415e-07 3.123461807172359223e-07 5.324390627401390906e-07 9.056449314322446142e-07 1.536756242974408204e-06 2.600791776621645918e-06 4.388773455726033626e-06 7.382248316882931638e-06 1.237368327244756977e-05 2.065929504358571359e-05 3.434486894702510154e-05 5.682533175822084920e-05 9.352707290033487170e-05 1.530396833422162774e-04 2.488108638809003793e-04 4.016311285040441610e-04 6.431827273031671911e-04 1.020945964078127325e-03 1.604700291370365038e-03 2.494649758591547476e-03 3.830723376176574119e-03 5.801687988878721780e-03 8.651178793819177745e-03 1.267546113215082919e-02 1.820474599247690062e-02 2.555672448693298293e-02 3.494908020486068440e-02 4.635984390472755456e-02 5.933490919202277780e-02 7.276612837412749224e-02 8.470494852899936034e-02 9.233238455216057072e-02 9.225755246430153433e-02 8.132076780323793663e-02 5.796521976561722078e-02 2.394529319094357983e-02 -1.433989452406390919e-02 -4.608266956012592452e-02 -5.910695321911382111e-02 -4.591883061931971433e-02 -1.057127975157910738e-02 2.872281153281344701e-02 4.684581288727947268e-02 2.920433732184918654e-02 -1.157149412904434627e-02 -3.885217962178431905e-02 -2.399233696477269528e-02 1.735840706323278290e-02 3.359763207895903603e-02 1.695858291994881140e-03 -3.018754340071690481e-02 -8.954595647986163948e-03 2.659848234556132923e-02 6.439744349500240231e-03 -2.530721434506803813e-02 4.109689588996576909e-03 2.001792690453049750e-02 -1.805278874535320294e-02 -1.173332474390831326e-03 1.645320066117456417e-02 -1.864814334134850746e-02 1.152044440115689017e-02 -2.198939063933613193e-03 -4.953824639344321309e-03 8.929279346288353930e-03 -1.035959100867660243e-02 1.000382917297913329e-02 -8.069578741196964042e-03 4.224159686118243717e-03 1.729537762125592845e-03 -8.385236910137856478e-03 1.132131565936833791e-02 -5.272304987384152097e-03 -6.739955279898083608e-03 8.282362328359445247e-03 5.706535466876344435e-03 -5.125473090350427842e-03 -8.551561310673890318e-03 -5.558197763033187813e-03 -1.891186604615164354e-03 -1.377060465012739949e-04 -5.801903659257500552e-04 -2.940153294583957959e-03 -5.865142661793814466e-03 -5.186359742052776625e-03 2.132626848962252374e-03 4.874119338854422494e-03 -4.709064882079539403e-03 2.153413273816885687e-03 -1.060396162086839518e-03 2.000366095890463922e-03 -4.031099400195645513e-03 3.223352722882422833e-03 2.950412386474412715e-03 -5.427619059035879330e-04 -1.902837534671749688e-03 -1.242527762041069350e-03 1.401996875810877568e-03 3.111531688638782996e-03 -2.183422470223347640e-03 1.205087668556916727e-03 -1.987721499658432270e-03 2.532787501149940008e-03 1.637216826647579096e-03 7.489411577721702580e-04 1.684970594124021075e-03 1.782928260376202617e-03 -2.114382012456184675e-03 2.021766429256925506e-03 -3.272365548700314412e-04 -1.472740149519974036e-03 -8.645769493124163662e-04 1.512544573070485161e-03 -1.214628538550481052e-03 1.446011491568753886e-03 1.393850306091136675e-03 1.263960361823911064e-03 -1.242063893622668983e-03 1.192844015040186089e-03 1.153999606717511688e-03 8.874829337933776759e-04 -1.006034520034802164e-03 -5.421217135304984757e-04 -8.898002245744275748e-04 5.210837343862953584e-04 -7.052215634780496095e-04 1.359863994263521707e-05 -1.493785044373975384e-04 2.098017854456333577e-04 -7.139000350627891034e-04 -4.571579342512816706e-04 -5.207234303284299622e-04 -4.365236744823586040e-04 -4.712998156121336055e-04 -5.082639578284501355e-04 1.223591751028668022e-05 -2.207964434255954415e-04 6.844545372525142083e-05 -4.374770243560347936e-04 -7.120043842800131062e-05 2.363866791685793911e-04 2.931566647580785361e-04 1.158571875170499686e-04 3.457106023677430288e-04 1.472566233707554471e-04 -3.287010513738934572e-04 3.441392052673463938e-04 -3.333059688592369734e-04 3.163855226658089897e-04 -2.154175178782768573e-04 -1.659494599429013986e-04 1.929159794018896185e-05 -1.665364044774486380e-04 1.846186146472123180e-05 -2.414109145227849281e-04 -1.122770314415676612e-04 -7.299893200416702013e-05 -2.095444796414176595e-04 -4.218022593535519516e-05 3.486440174963425549e-05 1.740752203520917600e-04 7.184854132005389325e-05 -1.374722770728531128e-05 -1.192144281158794857e-04 -9.488497887342412580e-05 9.247991877467363095e-05 1.380023242747040646e-04
4.612430905025827823e-15 8.029446035127862786e-15 1.397647274911529249e-14 2.432549137801792991e-14 4.233241475113968022e-14 7.365915454128299331e-14 1.281495457498497408e-13 2.229142884849241497e-13 3.876881060122481318e-13 6.741295467002183291e-13 1.171958999020015960e-12 2.036951577318181563e-12 3.539471417645567948e-12 6.148579015828451470e-12 1.067770513570170871e-11 1.853680654829332413e-11 3.216854952636177760e-11 5.580228028692794055e-11 9.675626983261898448e-11 1.676849539837734433e-10 2.904531725417055501e-10 5.028082483920368908e-10 8.698569491752428122e-10 1.503782080716199561e-09 2.597665999734085165e-09 4.483423328964322681e-09 7.730856074832011104e-09 1.331669753310900144e-08 2.291248771208670545e-08 3.937367044761986130e-08 6.756841825135642574e-08 1.157781431572531577e-07 1.980565107242813897e-07 3.381889585980316957e-07 5.763125778734102757e-07 9.799355565851110353e-07 1.662190849085026748e-06 2.811908728197553947e-06 4.742858344105921922e-06 7.973823736701491003e-06 1.335781392307156077e-05 2.228872555121796676e-05 3.702858178824866542e-05 6.121976300698723410e-05 1.006762084469165841e-04 1.645867023148482719e-04 2.673116563177718339e-04 4.310078478024607375e-04 6.893609822821637843e-04 1.092717141027289450e-03 1.714831586534100146e-03 2.661213886249948809e-03 4.078515983431137311e-03 6.163416414913218920e-03 9.167814713563463350e-03 1.339474291391114062e-02 1.917633514468776793e-02 2.682210790421433663e-02 3.652428149866868839e-02 4.820990985052796968e-02 6.134173198433702512e-02 7.469620446501189226e-02 8.619130897041377137e-02 9.289360154332186592e-02 9.138172077852826924e-02 7.863489457174652197e-02 5.347929054276828048e-02 1.829880725085309551e-02 -1.978048077548860001e-02 -4.947553223853891347e-02 -5.886473137848233228e-02 -4.177199941871129196e-02 -4.377126242427496761e-03 3.333256385501752461e-02 4.653544113579852204e-02 2.388988874826334860e-02 -1.748188209766953979e-02 -3.953939142112591204e-02 -1.845276031345821632e-02 2.262566683767147646e-02 3.149621767581993470e-02 -4.883946756575694575e-03 -3.069967335288757010e-02 -2.393483420015773966e-03 2.771551227313357596e-02 -2.190190625800010615e-04 -2.478646248315263464e-02 1.044737464243340221e-02 1.573976884156197062e-02 -2.085065457427151547e-02 5.514581416548904047e-03 1.164592415366586496e-02 -1.865306801785461197e-02 1.575116623331584281e-02 -8.570555277632518204e-03 1.791012880058574439e-03 2.618650523524377639e-03 -4.479477729977911389e-03 4.128567673180568234e-03 -1.753769149948138616e-03 -2.529644860828354075e-03 7.880022798555607472e-03 -1.153757999584861978e-02 8.969304481687416508e-03 1.359162521434569264e-03 -1.006011604798327970e-02 2.889561697320736870e-03 9.175435646109142765e-03 1.417947748160703660e-03 -6.234138775440921723e-03 -8.117686400189417020e-03 -7.003530935737639282e-03 -5.992613353677265359e-03 -6.131513636188658939e-03 -6.703385262577378316e-03 -5.217675849107025754e-03 7.426811570999556841e-04 5.862019961413568112e-03 -1.002706527589304619e-03 -3.811686264539023827e-03 4.996132431768427785e-03 -4.864661805651040831e-03 4.377351321523059724e-03 -2.026093137728447648e-03 -2.926562101000009311e-03 2.408720201357990223e-03 3.856081956174755177e-03 3.575156017882119303e-03 3.521476855018947517e-03 2.100226066029214390e-03 -2.392166243705280606e-03 -3.590923994296796361e-04 1.074036622811803433e-03 2.752897343945566824e-04 -2.597235939159985713e-03 -6.177209959267247578e-04 2.151089873798063220e-05 -1.347102029316167961e-03 -1.829867906535260049e-03 2.115646094529991146e-03 -1.886369215081418107e-03 -4.704945544879093758e-04 6.025866973108230228e-04 -4.362963483764731483e-04 -1.487024016075173946e-03 1.463259755773960082e-03 1.902225467741747470e-04 -4.899054600177747470e-04 8.534019602336893797e-04 -7.025383491888711248e-05 1.107016425588658445e-03 6.884872270808163868e-04 1.091551686038952276e-03 -1.035176905425395965e-03 -7.167477442228795039e-04 -1.008901497266946569e-03 9.506030575417042088e-04 2.829303435567080151e-04 8.779471685983850516e-04 -7.321665539111099283e-04 -7.188754578681821753e-04 7.628295963011753455e-04 4.423187041520341284e-04 2.784774269444073016e-04 6.649285543343391334e-04 -3.331130875321811091e-04 1.592547645135646819e-04 -3.694371167305111284e-04 -2.933237514442614264e-04 -1.597835870421027659e-04 -4.369691085372399020e-04 -4.631203696445269804e-04 1.054400372619121906e-04 -3.103675760405714490e-04 1.641076436818804537e-04 1.647263219851587178e-04 -1.755623078745108083e-04 -3.232471207068776838e-04 2.698444322597375392e-04 4.962649653675842832e-05 -3.097024185833653675e-04 3.492287113011762145e-05 2.060221285618272678e-04 9.325787148642954865e-05 -2.635992774153263826e-04 2.021963202005745783e-04 2.254304380643957541e-04 -2.076378782002630708e-04 -5.453655238668514763e-05 -5.627083627816573694e-05 4.523591645362441436e-06 -1.904106742583302277e-04 1.727073061042344062e-04 -1.701706523840874040e-04 9.375188659283237064e-05 -2.830031918282119530e-05 9.919436653176697308e-05 -4.184064432246938092e-05 1.133520094670753255e-04 -1.166643522454340401e-04
